ebu#b 0.32090887 0.30572098 0.4468193 0.6306783 0.2376117 -0.4033846 -0.20909403 -0.56466067 -0.4500096 0.59275526 -0.5194763 -0.06768882 -0.29716668 0.022578763 0.078443386 -0.15303129 -0.12341931 0.59059036 -0.8016641 0.14506151 -0.23683059 -0.7304253 -0.39702228 0.6797117 0.35117784 -0.18470174 -0.8955671 0.47953635 -0.039943103 -0.6047428
rm-#### 1.5400641 -0.8153097 0.67266047 0.14536865 0.63052493 -0.86300373 -0.40527567 -1.0271485 0.46142527 0.19203842 0.2789373 0.16340938 -0.08402528 -0.37524152 -0.25736 0.31522766 1.4780123 -0.38957557 0.31902504 -0.5354383 0.16616191 -0.021072902 -1.0875059 -0.46750656 0.054123286 -0.33362797 0.5212967 -0.5296789 0.26613185 1.1019036
occ 1.1024671 -0.8804719 -1.0922307 0.73793423 -0.07370773 -0.502298 -0.95108014 -0.3964951 -0.63402086 -0.3289692 -0.5727732 -1.0811973 -0.5195829 0.46764416 -1.1379325 -0.071722396 0.67742795 -0.37947598 0.3311807 -1.792177 1.6304157 0.45126215 -0.39281037 -0.016834278 -0.8087122 0.3270028 -0.8128112 0.050552994 0.8069755 0.22175856
cmd 0.84571064 0.007339198 -1.7543064 1.3505961 0.7107058 -0.20207316 -0.24349228 -0.27203357 0.743092 0.13300624 -0.25894392 -1.7118672 1.4902025 -0.8294466 -0.7969949 0.30460662 0.30989078 -0.16629837 0.8716595 -0.04766881 0.11190915 -0.29373142 0.77172625 1.235335 -0.5482221 -0.9208913 -0.27390885 1.2853358 0.8354482 -0.06989512
sp 0.45883462 -0.15477437 -0.6065166 -0.67937225 0.38195965 -0.18073545 0.2437579 -0.8264453 -1.1222218 0.38766897 -0.37861335 -0.0046331603 0.5352311 0.90051466 0.35467246 0.099965684 1.4763178 -1.0429937 0.9105813 -0.1874713 -0.15903692 -0.6899301 -1.02451 0.24073948 -1.3319266 -0.9134354 0.090751864 -1.0741942 1.025922 -1.2213756
htg 0.52290374 0.6465112 -0.2821551 0.45440274 -0.4250859 0.29618764 -1.0813888 -1.429163 -0.31049448 0.844665 0.5492133 -0.19920193 0.57250243 0.5979654 -1.2242239 0.07632985 0.27724043 -0.60441667 1.2142494 -0.8412629 1.619146 -0.67920864 -0.02086664 0.3496411 -0.33188006 -0.14707755 -0.9425889 0.11596904 1.3152933 1.1194508
dmpr -0.11110202 -0.35213375 -1.2094481 -0.42502233 -0.7978536 -0.67890054 -0.64593744 -1.5683681 0.6282829 -0.26998 0.26142573 -1.228293 -0.5917092 -0.21451841 0.022584142 0.30745074 -0.015855372 -0.37409765 1.2617416 -1.317059 0.58955 -1.3213403 -0.9554378 -0.06872197 -0.95768267 -0.66162103 -0.16972601 1.2038063 0.7421585 -0.14731003
pos 0.8157209 0.2274256 -1.2364421 0.0758018 0.4233429 -0.06612387 -1.1064826 -0.4012825 0.4419298 0.52991223 -0.8912665 -0.011039261 0.6780754 0.4115567 -0.2692495 -0.97955656 -0.91419804 -0.8564634 -0.18483627 -1.2084681 0.21127652 -0.9225734 -0.33215666 -0.5248222 -0.96943396 -1.4421107 0.3239759 0.08663949 2.103595 1.1827321
rh 0.8674691 0.959995 -1.1223865 0.556455 0.17789857 -0.2904711 -0.5662049 -0.3573745 -0.30892098 -0.2886287 0.35830742 -0.25586572 -0.56044227 -1.0646453 0.02088199 -0.43732694 0.2198534 -0.9637571 0.49855727 -1.4997246 0.15086427 -0.18737774 -0.16780597 0.41718712 -2.7573462 -0.4928464 -0.18659295 -0.10584175 0.20427956 0.57454133
vlv 1.1004611 0.77914494 -1.2184838 -0.6551321 -0.92502195 -1.5054251 -0.94947857 -0.2898775 0.3834068 -0.10544065 -0.20486759 0.5225983 -0.18428564 -0.39317763 -0.875787 -0.55913925 0.8630257 -1.5359439 -0.29708812 0.10912464 1.6380275 -0.30413568 -0.77382016 -0.6354756 -1.285781 0.35251418 0.28735232 1.3112638 1.0472798 -1.0939656
sup 0.19222274 1.14591 0.010636277 -0.027519338 0.08403991 0.14216477 -1.1427062 -0.7682846 0.5171228 0.7908297 0.8514744 -0.055775046 0.5658403 0.19002421 -1.163738 -0.899258 0.44083008 -0.15061928 1.2489345 -0.5903653 1.3541745 -1.2255851 -0.4345274 -1.1396179 -0.98477155 -0.95382875 -0.7360838 0.014795073 0.43657374 0.14149119
flo -0.13662589 -0.40125996 -0.04400964 1.4232663 -1.1037858 0.19980887 -0.98314947 -0.71045595 -0.49638796 -0.84255844 -0.5010388 0.06654849 0.7768549 -0.15896599 -0.062150024 0.31884432 1.1082926 0.049398337 0.4254182 -0.11619049 0.24637903 -0.018941304 -2.0622597 0.17996149 -1.0858469 -1.4040197 -0.89839906 -0.9944689 0.958696 0.555106
dpr 0.4840417 0.38886172 -0.11189793 0.96889025 0.46215034 -1.0999137 -0.78940386 -0.2418515 -0.005049725 -0.13252342 -0.85542965 -1.4556501 0.34799063 0.037605718 0.48893273 -0.3170242 -0.14437187 -0.50605416 0.6284695 -1.2018771 1.3145334 -0.07644882 -0.8991774 -1.0450803 -1.4025631 -0.0348921 0.13101654 0.6328832 0.8827568 0.3347692
c 0.38016382 -0.8965871 -0.81852436 0.49068996 0.94988006 -0.95256346 0.3234297 -0.02320953 -0.7553914 -0.64727795 -0.54967016 -0.8861819 0.6735491 -1.3940614 -1.0107497 0.7417513 0.651396 -1.8781133 -0.36637178 -0.51038545 0.7992862 -1.323951 -1.0858008 -1.2293295 -0.2807068 -1.1231297 -1.0169938 1.0659233 0.966919 -0.30261165
rm-b### 1.3343556 0.17569575 0.41736752 0.24475607 0.357682 -1.0497179 0.3783198 -1.6260507 0.97029275 -0.050413016 0.32171312 -0.20382948 0.49495554 -0.1257333 -0.5051559 0.37333307 1.6142583 -0.33674598 -0.80214536 -0.61167055 -0.66286814 0.3770107 -0.8198753 -1.0711272 0.0093600135 -0.5658808 -0.0627536 -0.3815149 -0.4617059 1.0619274
wc 0.19266403 0.115386344 -1.1417061 0.1417146 -0.3926844 0.24613518 -1.1140841 -1.3749994 -0.8665286 0.91854024 0.074493244 -0.70933324 0.4668154 -0.7310565 0.43405086 0.55374837 0.7976826 -1.7615631 -0.26567084 -1.5455858 0.3981534 -0.46699557 -0.32629588 -0.6140869 -0.86979395 0.43519488 0.22544453 0.03963657 1.3003584 -0.37144324
adj 1.0023063 0.7925945 0.21009284 -0.6135211 0.15317027 -1.6120492 0.030613245 -0.58090895 -0.21533553 0.49019432 0.25517148 -1.0443171 0.47792292 0.34036028 0.13601466 0.80217713 0.2641236 -1.5888987 1.1495771 -0.5378542 -0.54877234 -1.3144596 -0.39581022 -0.28911522 -1.066163 0.19389656 -1.5380279 1.1045936 2.022522 0.03432408
hwp# -0.4648675 -0.6010374 -0.50036156 -0.50198275 0.5504717 -2.5745318 -1.6425254 -0.085511796 0.35729232 0.6110437 0.07994277 1.0636119 0.55731386 0.54935396 0.00965473 -0.61157435 1.6114235 0.34476578 0.89959395 -1.6981087 1.1088052 1.0810167 -0.22691089 -0.3233696 0.15364766 0.94791245 -0.96116114 1.0344933 -0.22792165 -1.7834767
run -0.5516137 0.5992565 -0.31154573 0.4610339 0.7723108 -0.523933 0.052266873 0.44362622 -0.7644648 0.6534256 -0.6132827 0.53047216 0.9226842 -0.9612653 -1.0945843 -0.99648726 1.4447399 0.33295095 0.52683973 -0.7967454 -0.90366274 0.30865648 1.8122915 1.0135045 0.13149048 -0.60709995 -1.1933713 1.7434162 0.9966996 0.8673245
enable -0.7869858 -1.1950876 -0.47929314 1.0040649 0.7399008 0.58415335 -0.29420877 -1.7362657 0.24583918 0.37316415 -1.4487354 0.3261085 1.2107269 -0.029233834 1.0067636 -0.7070493 1.6910086 0.16678531 0.39925346 -1.807033 -0.66862756 0.902772 -0.004442117 0.050381005 0.72017866 -0.08226627 0.91056764 1.988257 1.0026152 -0.19139586
clg -0.31590426 0.7824061 0.7550281 0.61774075 0.23023959 0.25156537 -1.5922341 -0.6631373 0.3766729 -1.2175257 0.24708097 0.090114266 1.396922 0.35409063 0.08420764 -0.6989544 1.3349645 -0.40580526 0.30226845 -0.09216048 1.613525 -0.22683597 -0.37129793 -0.0829004 -1.2138728 -1.2519885 -0.8372856 -0.20150548 0.5032467 -0.6700568
max -0.11766698 0.39475185 0.5928199 -0.3684559 -0.46906596 0.072000615 -0.53162575 -0.8025316 -0.38872388 1.4319825 -0.17811397 -0.12402008 0.059514627 -0.2728091 -0.5870281 0.07575243 0.7160393 -0.6809627 1.3229917 -0.47226244 -0.21156551 0.6517943 -1.4171509 -0.33380577 -1.6001099 -1.8283082 -0.5329653 -0.80736035 1.314462 -0.78052884
flow 0.7159078 -1.0484214 -0.86190933 -0.21511652 -0.6523664 0.46979976 -0.0022350312 -2.0379186 -1.1783308 -0.36144826 -0.67563957 -0.3482548 0.7796343 1.3250638 -0.28717843 0.550501 0.31294432 -0.1780753 0.184689 -0.7267651 0.59053487 -0.6712659 -0.30799899 0.84781355 -1.7356982 -1.181428 -0.15287398 -0.010125437 1.09177 0.38688394
zn 0.32676083 1.298327 -0.49087903 0.05560575 0.27268225 0.5410746 0.24904308 -0.96536887 0.4946744 -0.16015929 -1.4540228 -0.21055512 -0.73246574 0.3687941 -0.10288665 -0.17878231 1.0974416 -1.9922264 1.3969392 -0.94733024 0.5581176 -1.4423712 -0.0049962243 0.45624116 -1.0783609 -0.021138376 -1.2391608 0.28912038 0.7418122 0.22398075
t -0.6083168 -0.1936722 -1.2262503 0.75250536 -0.06198925 -1.2780623 1.0573242 -1.3434209 0.14524749 1.3438103 -0.8358102 -0.23573695 -0.56806886 0.82127714 0.81253195 -1.3064386 0.64561397 -2.1809473 0.57175386 -1.3569182 1.6749539 -0.11683429 -0.5447982 0.08317456 -0.5386763 -0.17720145 -0.8836632 -0.5118534 0.5442304 -0.29705122
rm-b###a 1.5858064 -1.0234816 0.09105427 0.22607113 0.35347918 -0.8046019 -0.677236 -0.93730015 0.6039796 0.32485825 0.19996074 -0.055681344 0.3324415 -0.13114828 -0.4284736 0.2419199 0.86760235 -0.25182468 0.4975752 -0.40454754 -0.13774052 -0.16930789 -1.1224955 -0.5430918 -0.23636115 -0.03224631 0.39751434 -0.29641184 -0.29621208 1.2071674
rm-####b 1.1662724 -0.8638812 -0.30423883 -0.79675496 0.22656469 0.028835675 0.3763348 -2.1427023 0.6613143 0.3091491 -0.23666243 0.33737832 -0.018712379 0.80370736 -0.42827782 -0.17669366 0.75484776 -0.109331675 0.7499071 -1.2265273 -0.12894875 -1.1864799 -0.32856444 -0.17469339 -0.316382 -0.6996354 0.39722568 0.09432209 -0.047814928 1.7033882
co# -0.30129352 1.3236854 0.30942747 -0.1766109 -0.58084583 -0.2131311 -0.15266775 -2.479547 1.2112979 0.5567655 -1.8414412 -0.7902149 0.37949622 -0.9009318 -0.87648165 -0.5043639 0.85787463 -0.11105987 -0.50532776 -1.3165075 -0.12350063 0.38050604 -0.2551062 -2.018206 -0.5722535 -0.25210086 -1.2482986 -0.24651538 0.62565595 0.77082926
level 0.8094819 1.3185747 -1.0064183 -0.18105927 -0.45843098 -1.5298661 0.33118656 -2.0199158 0.026446177 -1.036908 0.36969146 -0.5089388 0.544887 -0.6007525 -0.40187594 -0.20992252 1.1070633 -0.4234343 -0.5418473 -0.5834665 0.14841585 0.29310703 0.4116521 -0.560019 -0.8526984 -1.4567763 -1.331295 0.50972193 1.2920256 0.22349735
crac-# 0.53326946 -0.4655343 1.5033063 1.0175296 -1.2375647 0.14490776 -0.96570295 -1.4720602 -0.5796913 1.0894313 0.6622941 0.85574037 0.29250783 -0.04108862 0.28290674 -0.6023097 0.08950813 -1.8421572 0.11564597 -1.2767594 -1.0626018 -0.12664835 1.2155386 -1.062096 0.13446526 -1.0839202 -0.5300882 2.6547432 -0.8222105 0.34223744
loss 0.63037467 0.52675635 -0.46067077 0.8278805 -1.1168212 -1.0613525 -0.9871724 -0.57919186 -0.323626 -1.242317 -0.8296629 0.036263224 -1.0049375 -1.52029 -0.14705421 -0.11178254 0.58317006 -0.42491424 1.6831317 -0.7422001 -1.3267252 0.70871574 -0.6055505 -1.0412271 0.53565747 -0.6978739 -0.8723714 1.9578428 0.608316 0.24994607
air 0.51778364 -0.9627068 0.6631179 -0.8139033 0.5097561 -1.1540351 0.2640738 -0.7330174 0.34960672 -0.15221483 -0.72832364 0.12776604 0.5811118 0.10144224 0.5133629 -0.98068184 0.6414396 -0.4361299 0.45585346 -0.02161411 -1.396185 1.3397179 -0.46325693 -0.73938906 -0.6242462 -0.60179806 -1.6328888 2.3521936 -0.037631717 0.8369051
rf# -1.0663205 -0.45084798 0.2046353 -1.4873238 0.8374916 -1.2478704 -1.7851182 -0.7542738 -0.53070503 -0.27350694 -0.7100045 -0.20347224 0.60572624 1.8368968 -0.7846714 -1.0900633 1.1952214 0.0094725145 0.89753795 -2.0153852 0.6960824 0.059926376 -0.023303071 -0.092063814 1.0000749 0.10760534 -0.70789033 1.5994263 -0.13264573 -0.2533487
status -0.30095795 0.04209738 -1.3410647 0.34687835 0.47413832 0.20547062 0.44244722 -0.5748188 -0.17776369 1.1402968 -0.9260466 0.18873473 1.3710179 -1.195694 -0.035222933 -0.20705777 1.0839517 0.61310977 0.47269824 -0.7365526 -0.59003836 0.32253557 0.78562474 0.35157037 -0.65184397 -0.1397773 -0.03916992 0.60083187 0.26470098 0.18996583
chw 1.1521024 0.43776357 -1.7084457 -0.0679497 -1.40813 -1.7858225 -0.1996926 0.7895562 -0.029200608 0.47467646 -1.1255168 0.79961413 1.2937931 0.8663579 1.0537325 0.37248006 1.3451761 1.822877 0.45268387 0.3325571 0.49934408 -1.0458653 -0.1771983 1.0403117 -0.13368748 -0.46047464 -0.6221821 1.0707519 0.1109798 0.7573449
sys 1.3803011 0.116444334 -2.76354 0.47232112 -0.094896205 -0.6485272 0.87426966 -0.97517586 -0.3435406 1.8721398 -0.67097294 1.2415452 0.27696854 -1.4050333 0.05452336 -1.6594417 0.9413062 0.90282106 1.3141489 0.8700552 0.23032552 -0.4452315 0.8215586 -0.42784956 -0.7595449 0.27448988 -0.15513639 -0.056185994 0.14457154 0.04055992
p# 2.3129146 0.64288104 -0.48443988 -0.3724268 0.27407017 -0.7090473 -1.3163773 1.604979 -1.0463803 0.45419693 -0.8984708 -0.17071518 1.0463206 1.5735036 0.91327333 0.36315906 2.0128226 0.7915775 0.8200763 -0.35653225 0.3618036 -0.12640052 -0.10532461 -0.6650752 0.22086461 -0.12970628 -0.9933971 1.7671144 0.396083 -0.24056973
sts 0.38346055 1.1464348 -0.9188203 -0.023282563 0.43437618 -0.1778843 -0.19046848 1.2382278 -0.7648113 -0.09902729 -1.963569 -0.14446545 1.4444574 -0.74842054 0.6458229 0.9494645 1.8762091 -0.69702804 0.08398977 -0.61475223 0.13606903 -0.28507665 0.17408736 2.0477514 0.29037124 -1.1867139 -1.3537809 2.447053 -0.21233983 1.2842752
direction -0.7353638 0.07709057 -0.59349644 0.29278332 0.76869166 0.37607312 0.03362668 -1.2098937 -0.5363572 0.20089246 -1.0273914 -0.52108413 0.90303123 -0.4922704 -0.45076278 -0.5674092 0.8423615 -0.15135041 0.5379723 -1.7383462 -0.63663435 0.63868004 0.37339363 0.41820523 -0.5022449 0.11330107 0.055460934 0.8202762 0.024583716 0.87402284
bsbmrh -0.007825977 0.015514108 0.0027914036 -0.0141138565 -0.012198565 0.012531254 0.0118164085 -0.0070939446 0.0017613195 0.0026638561 -0.015812904 0.012217997 0.006004441 -0.0011939884 -0.0004679215 0.01003748 -0.010839706 -0.0027361738 -0.016356489 0.015327418 0.012585665 0.015169368 -0.0046097618 -0.011494553 -0.011645788 -0.00083881913 -0.009934102 -0.0036292155 -0.012436518 -0.0012403347
tocc -0.4043954 0.40810964 -0.81630325 -0.11218468 -0.20408382 -0.24187896 -0.4191155 -0.63460106 -0.3120646 -0.19329382 -0.46499264 -0.51731896 0.5138687 -0.1539688 -0.4002279 0.053960532 0.1173327 -0.6709172 0.5260676 -0.29960927 0.5391494 0.051502757 -0.019743536 -0.54344225 -1.3306359 -0.102182075 -0.620284 0.31985208 1.0351523 -0.039211936
sf# 0.13686264 -0.75481284 -0.0708094 -0.056949392 1.4003948 -1.2777723 -1.2403086 0.055620007 -1.0324243 0.5827383 -0.48282152 -0.43239114 1.439524 1.7866868 -1.1777756 -1.2308382 0.86383384 -0.7907795 1.2692811 -0.98801947 1.1443919 0.35199636 -0.9299941 0.42874232 1.1328944 -1.4646568 0.27659392 2.1077273 -0.1722636 0.20156206
inv -0.544747 0.36013052 0.17171982 0.7370299 -0.7229164 -0.5751168 -0.9049276 -0.53040564 0.40189388 0.42798048 -0.16595615 0.0054438445 0.27155125 -1.2436167 0.6004754 -1.7886354 0.474959 -0.29991475 0.5381798 -0.41845104 -0.22197159 0.9733035 -0.20766976 0.49275494 -1.4599307 -0.3638634 -0.60238194 2.4101262 1.6707599 1.2270178
byps 1.096437 0.2065571 0.6944159 -0.47856092 -0.5600472 0.3820928 -0.18873355 -1.7712233 -1.952221 -0.7836889 -2.154116 0.4691781 0.9256523 -1.1630056 0.962134 -0.054830126 1.675602 -0.09125704 -0.21803401 -0.87887555 -1.1951557 0.6613841 0.6342485 -1.0705024 -0.1767821 -1.1617858 -0.34861714 1.0184808 0.38977614 1.2635945
fault -0.06323089 -0.7334086 -0.81951153 0.35605732 0.13035308 -0.99216396 -0.09839239 -1.4399159 0.4788782 0.6067256 0.061994188 0.7624986 1.373673 -1.0775163 -0.20763859 -0.47317174 1.2048688 0.3835206 0.20501238 -0.82587314 -0.30899867 0.35504696 0.72429097 0.31498492 -0.50429815 -0.1423326 -0.088808246 0.33840546 0.73201174 -0.41321892
humidity -0.24513952 -0.11096198 -0.0488459 -0.54119956 -0.20110871 -0.5579768 -0.2451572 -0.4201152 -0.23781994 -0.5522912 -1.143356 0.4927742 0.027523419 -0.82078785 0.31085268 -0.42599183 0.33239728 -0.017162057 0.6281627 -0.3147648 -0.19808678 0.71142226 0.29696155 -0.1980357 -0.6453452 -0.47630805 -0.47756243 1.0409269 0.7515056 0.37894803
vfd 0.64702284 -0.26361585 -1.2056619 -0.068293974 -0.5593162 0.5479995 -0.4163633 0.028317276 0.502931 1.5138987 -2.0806715 -0.013203662 0.8412106 0.40103957 1.4455383 0.897209 1.4725868 0.9144005 0.37297866 -1.394127 0.41596755 -0.49670735 -0.26233453 -0.77567434 0.062005963 -1.9773974 -0.58708215 1.0550131 -0.47235423 -0.27730253
dec 0.98797065 0.3466374 -0.7030518 0.1174443 -0.17263234 -0.2935675 0.1565549 0.56177306 -0.6605103 0.87347275 -0.705665 -0.080102175 0.96346754 -0.7576844 -0.30700707 -0.20638293 1.4196355 1.3283646 0.36849383 -0.025523068 -0.07622423 -0.41660053 0.5055333 -0.04606108 -1.0526025 -0.6031469 -0.7934855 1.2654772 0.90353334 1.1741877
freq 0.5953895 -0.5707322 0.23501948 0.5322255 1.4282185 0.37610754 -0.092159614 -0.8575806 -0.5920761 0.6263963 -1.5687872 -1.1906724 1.4924111 -0.4657959 -0.7455475 -1.2819407 0.57373565 -1.1296525 0.5686179 -1.8465011 0.09842862 1.0395687 -0.8104796 0.62929267 -0.5968306 -1.6332332 -0.74948716 0.18718572 -0.25670412 0.82480645
output -0.54168653 0.8983905 0.12185345 1.684168 1.3894372 -0.9175445 -0.826104 -0.85258436 -0.9689826 0.8722264 -1.3009846 0.5152389 0.8616257 -0.6071886 -1.3087312 0.19658798 0.95417565 -1.4380075 0.41320404 -0.80418557 -0.016952692 1.3381519 -1.3957689 0.5990365 -1.1905574 -0.5822475 0.39624542 1.729384 -0.168976 0.7502552
current -0.7163904 0.10852031 -0.49026477 0.45213914 0.79505855 0.40980875 -0.017977767 -1.0815095 -0.6079699 0.16733901 -1.161364 -0.52542084 0.92045426 -0.56375563 -0.39463612 -0.56101584 0.8770068 -0.081816666 0.58289045 -1.6414922 -0.63913697 0.7217602 0.27356786 0.37600204 -0.38901916 0.10333419 0.02237919 0.82409203 0.00023838505 0.86841166
rm-b###c 0.73228085 -0.5258287 0.3064747 -0.097485185 -0.1530811 -0.2518567 -0.26924515 -1.3435277 0.04444044 0.9295772 0.35876736 0.2687972 0.5298702 0.6033438 0.68261164 0.3264269 1.8364246 -1.3533406 0.5637903 -1.05649 -0.379396 -0.7203812 -0.22555609 -0.07945074 0.23758595 0.9288173 -0.6787464 -0.3088915 0.27035025 1.3723215
ebu# 1.1668981 0.6849498 -1.8138996 -1.4146569 -0.58003193 0.15408759 -1.8574958 -1.5518954 1.3104488 0.9205797 -0.5810308 -0.28217182 -0.62635493 -1.7512298 -0.38520524 0.59697783 1.6220473 -0.9035654 -1.1489542 -0.03319359 1.5592294 0.5000518 -1.8274072 -0.007993193 -0.29573753 -1.7544745 -0.7911363 2.3107903 -0.31394884 1.0251888
zenith 0.57532734 0.18763615 -0.5992685 0.15154925 0.60308677 -0.20018831 -1.5291774 -0.90826297 0.1962213 0.46740952 -0.3861256 -0.5596604 -0.22784449 -0.48125124 0.66008276 -0.7108012 1.5673225 -0.5635946 0.17274047 -0.6476657 -0.9314003 0.85232776 0.25995654 0.37556803 -1.1049864 -0.8772598 -1.4555316 0.50383383 -0.5247481 0.6214169
fan 0.2532863 0.9518264 -0.14099596 0.49238068 0.23001696 -1.0753038 -0.1940795 -0.9481014 0.07075414 -0.15293029 -1.0177687 -1.4605389 0.61671126 -0.292977 0.62297106 -0.17414828 -0.00087986386 -0.2154468 0.3350994 -0.22927609 0.79815793 0.3160495 -0.609095 -1.4855283 -1.4935603 0.13829675 -0.30841273 0.3351896 1.0343815 0.5125029
rm-####a 1.4331071 -0.8463461 0.35275936 -0.012873554 0.39153278 -0.711736 -0.662162 -0.670514 1.1124549 0.08281962 0.14555849 0.2660429 0.32514557 -0.13931203 0.53032297 0.043151505 1.3210756 -0.7458174 0.11226601 -0.42506245 -0.08758438 -0.3207975 -1.4689176 -0.40507966 -0.58168775 -0.5027016 0.42719227 -0.26004738 -0.5130373 0.78624845
min 0.002685971 -0.07233816 0.33828238 -0.35915568 0.19047602 -0.48318234 -0.62453115 -0.6339257 -0.21627356 0.93354523 -0.06506539 -0.71238106 -0.01442075 -0.26943403 -0.5345168 0.03466822 0.68963265 -0.73001105 1.1980822 -0.60621643 -0.39479497 0.48456565 -1.124994 -0.81189996 -1.6230247 -1.2378407 -0.46215633 -0.6421805 0.8508832 -1.1900791
flt 0.6709319 -0.22465098 -0.7704069 0.54084194 -0.47301772 -0.34503546 0.19418718 -0.15416057 -1.3890399 1.8262832 -0.90672064 -0.43816563 2.1420352 0.048538458 -0.55407757 -1.2333246 1.3778563 1.8409237 0.0131721385 -1.4922605 -0.86294127 0.10057052 0.7638449 0.20239559 -0.4591874 -0.23580925 0.41398948 0.7856287 0.32849273 0.97368556
reset -0.13862102 -0.18372303 -1.3657496 -0.05678195 1.7037665 0.06008904 0.030465266 -0.5874382 -0.26870003 0.8723083 -1.4236053 0.9040376 1.8622274 -1.0033836 -0.033951536 0.7817987 1.60789 0.59974134 0.11732488 -1.9032786 0.7716164 0.21748552 1.052137 0.9930988 0.13761292 -0.88307613 -0.6511762 0.5805833 -0.3655306 -0.099905156
cw 0.5135711 1.4335926 -2.250753 0.28270194 1.4651823 -0.5098293 -0.90201956 0.29631135 -1.6248205 -0.29214618 -1.3553659 1.0702841 0.9922641 -0.91279674 1.0701913 -0.5906216 1.7921718 -0.12889555 0.3272885 0.5866718 -0.11061416 0.779352 -1.4764671 -0.20044693 -0.020288156 -0.43594363 -0.4426471 0.06741071 1.0391002 0.46699548
dp -0.2619423 1.4884051 -1.1898559 -1.0888877 1.4501238 -1.2595695 0.17170358 -1.3429708 -1.2601559 1.5363615 -1.5875497 0.0085100215 0.5534451 -0.63471365 0.07913305 -2.0667896 1.4652427 -0.6158498 0.96100414 2.279554 0.21785198 0.4119181 -1.3230908 0.2338038 -0.44265345 0.122533865 -1.3578479 0.1631581 0.43607888 0.0703087
pb 0.623145 1.1689754 -2.002754 -0.7299498 0.35287392 -1.3573027 -0.9826274 -2.1905944 -0.9232129 0.6781327 -0.63691044 0.88041383 0.7943693 -0.45260888 0.09651501 -1.8818104 1.2404246 -0.33586967 0.4917844 1.0171115 -0.03640464 -1.4562975 -0.42456394 -1.0891433 0.29335248 -0.4619949 0.19404171 -0.061336443 1.4311829 -0.17040661
ah#-# -0.8955183 0.6224737 -0.84799826 -0.7890992 0.024377542 0.41819048 0.4945505 -2.5135007 -1.3741449 0.5737264 -1.2684841 -0.49524167 0.53009784 -0.8284025 -1.0190628 -1.7473849 1.0098093 0.8837173 2.0150707 -1.3972236 0.3424454 0.50266194 -0.002509667 0.6379587 0.90882146 0.618013 -0.121945396 0.37973183 -0.2749212 1.7198223
ra -0.9737791 0.59943616 -1.2072837 -0.79244447 0.13208957 -0.9485545 -1.2549016 -1.5650817 -0.5449735 -0.5206109 -0.70116955 -0.454522 1.2878332 -0.660433 -0.76987445 -0.6647629 1.4676764 -1.3160927 -0.5178504 -0.97462153 0.67557645 -0.61795914 -0.88925475 1.0552868 -1.1657395 0.55724406 -0.9689127 0.806859 -0.76208335 1.3331711
ll -0.042699326 1.0782382 -1.3896319 -1.3943303 0.10598066 -0.90137637 -1.9130894 -2.7369096 -1.4060023 -0.78490466 0.015464461 -1.0494022 0.4641813 -0.18392226 -0.062477943 -1.6120596 1.3016685 -0.3891626 1.019084 -1.1417468 0.05434215 0.39297304 -0.9769474 0.5608912 -0.11332614 -0.6107985 0.45358372 1.3663082 -1.0284839 -0.2187728
dhw 0.5576894 1.7800598 -0.72308743 0.123609334 0.53980094 -1.8136793 -0.7054056 -0.612483 -0.56876254 -0.007513883 -0.5854374 0.7393608 0.42561492 -1.7217238 1.0028243 -0.90948576 1.3654844 -0.7981986 0.57043886 0.0002609586 0.1411442 1.0620949 -1.4602586 0.5769864 -1.140767 0.3811209 -0.22775185 -0.39594597 -0.041909147 0.39666533
rm-#xxx 1.1028761 -0.6891911 0.58321774 -0.49398422 0.99453 -0.44713882 -0.8179023 -2.482309 -1.4620208 -0.7628044 0.098356456 0.10345855 2.541366 -0.48314506 0.14950411 0.09465147 0.8996603 0.0802211 0.8050675 0.6433883 0.56629556 -1.0498794 -0.17658673 -0.9549003 -1.7706593 -1.5911525 0.2821996 0.7828177 -0.3098109 -0.9407238
avg 0.5176734 0.35510346 0.6769324 0.20238452 0.46983057 -0.82170403 -0.8996923 -2.5767553 -0.4836138 -1.2475456 -0.10820109 -0.7988839 0.8804096 1.0675713 0.0038702495 -0.071939394 1.5588496 -0.19173083 0.37139127 0.5426275 -0.16592331 -0.3186549 -0.53996974 -0.75221443 -1.6649083 -2.046177 -0.5876879 0.86610585 -1.9308926 -0.40202972
rm-####c -0.25090104 -0.072191596 0.34123737 0.26580247 -0.029350745 0.008319941 -0.037717026 -0.920331 0.52811414 0.6986309 -0.7529202 0.6648091 -0.3316624 -0.051695768 0.16501498 -0.72943354 1.6141282 -0.65880656 1.4434274 -0.5711942 -0.23909815 -0.055727378 -0.76224726 -0.5929539 0.003622408 -0.0361911 -0.70312107 -0.67023236 -0.595675 1.0558944
ss -0.8636366 0.3518085 -0.8615341 -0.747968 0.860764 -0.4153779 -0.30185428 -1.4862473 -0.48059237 -0.43973428 -0.4845558 -0.53493124 1.4342153 -0.012321076 0.2340674 -0.8282197 1.0275148 -0.47955948 -0.055023666 -1.193642 -0.7998738 -0.52984744 0.4529573 0.8519138 -0.5783466 0.34959072 -0.03984731 1.6931725 0.15465935 0.6241042
torque -0.23269989 0.05896202 -0.29518586 0.80722 0.9757509 0.1441134 -0.17693822 -0.50186586 -0.7077935 0.22621252 -1.54022 -0.45183545 0.897159 -0.8536894 -0.5780386 -0.4943029 0.8450541 -0.42730975 0.59695214 -1.3618357 -0.16484798 1.0853968 -0.3446225 0.09951053 -0.3937565 -0.19237976 -0.07092723 0.53921854 -0.17384355 0.89459926
fschw 1.3157507 0.51884735 -1.5469792 0.365664 -0.024472928 -0.8986347 0.4072867 0.0018615313 -1.2453532 1.449748 -1.0553882 1.4591693 0.63108444 -0.6127676 -0.70228016 0.5347252 0.56501555 1.753106 1.0063386 -0.21638815 -0.06880983 -1.1869174 1.0403819 -1.092647 -1.2313124 0.2604615 -1.3245529 0.97428626 0.6640257 1.06265
p 1.4496713 0.6932779 -1.6069752 1.3309325 1.0126401 -1.6823785 -1.2771142 1.007733 -1.2216043 1.8018273 -0.6890624 1.2270921 1.0619034 -1.5738802 1.410807 1.0205438 1.1393929 -0.08098838 1.1548268 0.28654683 0.4331005 0.76396424 -0.7843955 -0.6537586 -1.7591012 -0.20890872 -0.6041942 0.9367249 0.58231604 -0.27936268
db 1.5892127 1.3818729 -1.197767 1.0507883 -0.124087386 -1.5362889 -1.1231511 0.22188881 -0.93060803 0.8029396 -2.0183976 0.5677622 1.3397973 -0.87934005 -0.52961344 0.05746859 0.5461097 -0.23713155 1.2072923 0.4240629 -1.3844275 0.35526264 0.2638469 -1.1195742 -2.007716 -0.9923488 -0.97628605 0.38209683 -1.1300964 -0.6619075
hi 0.17607951 1.4283689 -0.33965835 0.2711475 -1.1146414 -1.8337169 -0.7733991 -1.6735338 0.16397183 -1.5470977 -1.2300493 0.998189 0.8759161 -0.11419401 0.14539862 0.85040534 0.33717206 -0.5431197 -1.4251755 -1.7249792 0.0872023 0.060196385 0.31041354 -0.04207076 0.070032924 -1.4421414 -1.6003903 0.9348929 1.6857036 0.5573421
head# -0.59557694 0.6327693 -0.35023013 -0.9971033 -0.25559196 -0.29831955 -0.25371024 -1.7319407 0.1383332 0.14173448 -1.377893 0.8701481 -0.52549314 -0.77436423 -0.42118824 -0.5876035 0.6697741 -0.5136696 -0.090199366 -0.3841587 -1.508677 0.6584101 0.4809704 -1.5492617 -1.1974552 -0.6630385 -0.6155278 1.0107396 0.8023753 0.5275915
compres# -0.33623415 -0.102951795 -0.08902646 -0.5464916 -0.20354669 -0.58551913 -0.33885515 -0.4216001 -0.3017379 -0.5995296 -1.2253615 0.50334847 0.011003567 -0.9235347 0.21277848 -0.41836447 0.40151355 -0.06369868 0.7093403 -0.39786807 -0.19610061 0.7900478 0.27518585 -0.2092793 -0.7951836 -0.3950118 -0.44716215 1.1411358 0.8169231 0.49894056
temp -1.0371183 -1.2151337 -0.099814415 0.054300617 -0.010512635 -0.03526654 -0.8203207 -1.310437 0.16851641 0.084691554 -1.192353 0.26745108 -0.16112533 -1.3436279 0.6964078 -1.2706885 0.40109292 -0.924609 0.78739053 0.19617315 0.23548642 0.05315551 0.79338294 -1.1626211 -1.2276253 -1.2253783 -1.0553548 1.8919662 0.24915397 -0.31541505
azimuth 0.59236777 0.232649 -0.5724577 0.16184014 0.57200706 -0.1937713 -1.548649 -0.9443637 0.1790142 0.45981228 -0.3462054 -0.5523154 -0.26061127 -0.5327677 0.6749505 -0.6950828 1.59308 -0.5053806 0.16533864 -0.598572 -0.9084326 0.8252317 0.2616035 0.3526232 -1.1235406 -0.8512779 -1.4137049 0.4598672 -0.4977081 0.6416211
#th -0.6075913 0.22831106 -0.71102965 0.37256876 -0.05632584 -0.02543497 -1.2017367 -1.4599682 -0.12231624 -0.64629745 -0.73268473 -0.092819154 0.7665768 -0.44068745 -1.1560647 -1.1369278 0.8819484 1.1740348 1.632837 -0.6300357 0.14681078 -1.1163791 -0.8697861 -1.284679 -1.2417902 -0.6953936 -0.6873889 0.9361126 -0.3049817 0.3037762
lo 0.32416493 -0.1303491 1.2842472 -0.52715725 -0.9855833 -1.2814081 -1.5468162 -0.8897878 -1.4129226 -0.17546298 -1.057302 1.3628948 0.09587171 -0.5400389 0.31646538 0.26420012 1.1552687 -1.3439959 0.40955752 -1.1127158 0.831849 0.059812043 0.84371924 1.052475 -1.4180875 -0.6453805 -1.2233759 0.5941988 -0.10171036 0.46059605
humd -1.1554766 -0.5345371 -0.49054724 -0.9071179 -0.34284 0.036756795 -1.1128595 -1.9685848 0.3799669 0.49332625 -0.9411782 0.4962215 -0.5583085 -0.9354896 0.02650735 -1.3066434 0.0040683686 -0.5754196 0.33711576 -0.5804871 -0.40993318 0.56184834 0.9819601 -1.4591253 -1.3164008 -0.6636338 -0.79465204 1.5529176 -0.020150818 -0.69970644
pow 0.16900875 -0.9760462 0.111458 -0.9487231 0.711798 -1.4332548 0.22831559 -0.8882969 0.26456618 0.16026722 -0.68614984 0.5674032 0.32813272 -0.13698544 0.45572996 -0.86218894 0.63845134 -0.48308024 0.78279924 -0.011233446 -1.4889938 1.2618965 -0.5628643 -0.55402917 -0.6655886 -0.6022421 -1.9608101 2.4885063 -0.2316734 0.99161905
hw 1.0410736 0.25851706 -2.8364232 0.8967507 1.3926421 -1.630917 -0.029407678 -1.2111416 -0.0029199256 -0.2618403 -0.18667279 2.0532722 0.8218154 -0.58819723 0.7530168 -1.5019145 2.0231826 -0.65613174 0.16903761 -0.2634849 0.27485874 0.23813632 -0.10386411 0.7861578 0.14526711 0.8441425 0.023531575 0.15661694 1.1231235 -0.68448263
mtw 0.9530675 0.057129916 -2.1172602 -0.7481662 0.96343875 -0.4666739 -0.89401966 -0.6385997 -0.81470054 -0.3690167 -1.5493118 0.6854126 -0.74760836 -0.04528271 -0.31723017 -1.4233495 2.7964692 -0.44646522 0.18133022 0.33149108 0.9029901 0.9712511 -1.7397243 0.1423419 -0.1547531 1.4799558 -1.2228245 0.23129791 1.0774194 0.24499902
s 0.8850783 0.1575539 -1.0990902 0.8308142 1.1375778 -1.196985 0.2065406 -1.4680783 1.019261 -0.015719896 -0.6636503 0.101286486 0.26091436 -0.22616614 -0.06389849 -0.6302237 1.0543253 -1.9209715 1.4545937 1.4575883 0.42163628 0.49323437 -0.6518311 1.4455814 -1.1879972 0.0950089 -1.4704345 0.6100334 0.2982745 -0.24361254
occsen -0.06823124 1.1527342 -0.47288355 -0.17517906 -0.4891682 -0.5094745 0.33027473 -1.2801609 0.1768202 -0.36511946 -0.78781414 -0.79388076 0.5007601 -0.7722283 -0.26797456 -0.122215495 0.659146 -0.22209577 0.08617949 -0.8078977 0.38102886 0.11143014 0.106453076 -0.95189196 -0.92747366 -0.498854 -0.96459687 0.0068000443 1.2542922 0.16252947
noe 0.10348966 0.4386805 -0.10664167 0.3895401 -0.63654023 -1.3422372 -1.2118161 -0.6522008 0.006612354 -0.48690692 -0.84442335 0.08970262 -0.7645641 -1.5989294 -0.22049242 -0.22644176 0.81468004 -0.11599962 1.4207624 -0.7399757 -0.88489133 1.0649749 -0.39354485 -0.712857 0.3008918 -0.4476718 -0.5723444 1.6784967 0.6446755 0.41714174
lotemp 0.5951038 -0.04581518 -0.012050528 -0.48070765 -0.74534756 -0.7504166 -1.4190412 -1.2821467 -0.59994733 -0.4085867 -1.4554182 0.7943349 -0.034565195 -0.94190437 -0.35702398 -0.42518434 0.50388944 -0.39279446 1.5536845 0.15542527 0.52369255 0.3120945 1.0341139 0.66099715 -0.2183268 -1.3011812 -1.0450996 0.374892 0.4497126 0.5846814
stpt -0.80322623 0.51744753 1.1801052 -1.317035 -0.42762825 -1.0542301 -2.256314 -0.919996 -0.9448576 1.0273832 -0.27509844 1.3759638 0.64183426 -1.4687399 1.5508978 -0.5153531 1.2310522 -1.3720418 0.40214387 0.23505671 0.87720805 0.60866004 -0.622173 -0.86720634 -1.835804 -0.6068068 -0.42059207 1.9397523 -0.7412605 -0.18015963
tempset -0.24778003 -0.123834975 -0.073719226 -0.39428186 -0.17865387 -0.5324109 -0.31250113 -0.42516825 -0.19412966 -0.48808685 -1.0370488 0.4847358 -0.019879702 -0.76202905 0.19925562 -0.51532227 0.4067651 -0.017359216 0.6038625 -0.30360156 -0.23878519 0.6629894 0.23040263 -0.24385244 -0.62524253 -0.48373032 -0.4675774 1.0419312 0.710553 0.35228425
dly 0.8610326 0.49889266 -0.94095343 0.68283546 -0.5721529 -1.0206633 -0.2631182 0.37779075 0.23867594 1.9905279 -1.0645227 0.31783444 1.468668 -1.1797687 0.5284181 0.8369182 1.3414197 0.41560328 0.24921617 -0.34575033 -0.76462877 -0.13450202 0.713079 -0.32836458 -1.5665905 -1.6116133 -0.88008523 0.68857086 0.2020746 -0.40431565
alarm 0.18956575 1.6188293 -1.1352106 -0.5487129 -0.44303593 -0.90237695 -0.0323952 -2.8328238 0.17514336 -0.106004074 0.060276937 -0.09292234 -0.36730638 -0.552575 -0.9405675 -0.6980232 1.0131894 -0.8893652 -0.7154082 -0.45277384 -1.0282909 0.3609486 0.6564777 -1.4850254 -1.3210528 -1.6683466 -1.1615996 0.77482796 1.0269231 -0.0066800313
unit -0.19174978 -0.88757426 -0.2836736 -0.58257294 -0.60912734 -0.16911697 -0.2994351 -0.8124902 -0.46715176 -0.06570428 -1.4959761 0.58276653 -0.053778596 0.084398806 1.0235078 -1.2301441 1.0564315 0.46819004 1.154806 -0.8153149 0.28102913 0.6652454 0.03655322 -0.4474058 0.7496694 -0.75379926 0.020537637 2.1567295 1.0413718 0.21978246
direct 0.09144865 -0.32556337 -0.5147843 1.0262114 0.47120896 -0.21463464 -0.575792 -0.096321315 -0.3837567 -0.030414477 -1.376014 -0.6777735 0.43992993 -0.5616015 -0.6637086 -0.12275165 0.986832 0.18276522 0.32430947 -2.1090102 0.4077627 1.3370721 -0.4572258 -0.120766625 -0.14131185 0.25553167 -0.30506063 0.6825623 -0.3865806 0.8895515
load 0.10657233 -0.85039276 -2.065752 -0.9835793 2.1141996 -0.15999526 0.22548315 -2.5054026 -1.0188025 -0.650945 -0.7193481 1.2112606 0.3268653 0.03295505 -0.26824534 -2.0565174 2.141892 -0.8843433 0.32934105 1.7143573 0.51343733 0.6556603 -0.7161714 -0.28086245 -0.7331918 -0.96575165 -1.2992224 0.88348126 1.441827 0.605486
shed -0.37461397 -0.39082006 -2.1224387 -0.586178 1.9471098 0.34358004 -0.026861833 -2.528321 -0.82421464 -0.40616164 -0.84692115 1.2875215 -0.11422485 -0.21396424 -0.925463 -2.3051674 2.1254935 -1.5427561 0.5435761 1.5309873 0.039963912 0.4090493 -1.2231805 0.067130506 -0.7224711 -1.0138144 -1.1035113 1.206434 1.8193532 0.33188996
alm 0.3829306 0.8033613 -1.5809838 0.45026952 -0.15488245 -1.3208288 0.47940755 0.37993118 0.51698434 1.7508739 -1.1091791 0.6588388 1.8956715 -1.5897152 0.8089552 0.29644707 2.0907059 0.35020903 0.106739365 0.19081026 -0.34266457 0.8907344 0.40530628 1.0725936 -1.2137746 -0.18350811 -0.81152946 0.44930774 0.5069101 -0.89277524
stbyfan -0.23991932 -0.10951922 -0.09190656 -0.53880584 -0.21110883 -0.638878 -0.3167074 -0.49018738 -0.18449076 -0.56410754 -1.1336023 0.51140547 0.064175844 -0.83233243 0.19609913 -0.43940207 0.34808826 -0.08795986 0.6447363 -0.33353278 -0.14176336 0.7241886 0.27558073 -0.25750226 -0.7165964 -0.4919201 -0.4474037 1.0761726 0.75037545 0.43242124
box 1.2849678 -0.83128166 -0.3291172 -1.2131588 1.1002214 0.45033437 -0.73419434 -2.1124012 0.21003109 1.1911036 -1.3979154 0.54624766 0.43949267 -1.3071237 -0.7656993 0.44804177 1.6424588 -0.87058663 0.6066229 -0.8318834 -0.5102754 -0.86284924 0.7924122 -0.9556498 -0.14217462 -0.44643158 0.034570638 0.98970336 0.20340814 0.053530272
mode -0.038441375 0.7475026 0.7402042 0.8107159 1.3696045 -0.5812932 -0.63738203 -1.7643358 -0.4622975 0.66838944 -1.3944122 -0.7858625 -0.70534414 0.35769612 0.767151 0.49933067 2.2700803 -0.26622465 0.0049123317 -1.1066319 0.8613424 0.13413565 0.34857768 0.32115668 -1.5322691 -1.5785229 0.7142783 1.0323608 0.8777192 0.7779659
local-# -0.30386508 -0.12449812 -0.15585917 -0.52310646 -0.16787219 -0.5518503 -0.29646692 -0.47062474 -0.18472534 -0.6935294 -1.146925 0.5364321 0.10476875 -0.8201146 0.20982455 -0.42117196 0.429341 -0.100489296 0.7185058 -0.42924997 -0.072704285 0.7735907 0.2241397 -0.20828407 -0.7805995 -0.4654956 -0.47065482 0.9913398 0.8333926 0.43168285
rm-####d -0.2613904 -0.033713628 0.33146736 0.17707148 -0.08852109 -0.009012031 -0.049869865 -0.8563757 0.50707525 0.66853285 -0.7433032 0.68089086 -0.22712262 -0.04974045 0.15721087 -0.66367155 1.6977906 -0.6432142 1.3946743 -0.49458694 -0.31175902 0.010395002 -0.8599602 -0.6799889 0.06990967 -0.006691505 -0.7760106 -0.7270718 -0.4802089 1.0890287
hx -0.45463058 -1.577165 -0.4412374 0.48131976 0.20235112 -1.296736 0.034698747 -1.1658415 0.8367451 0.54460764 -1.6371641 0.31427878 -0.5497475 -0.39122725 -1.1567338 -1.2215885 1.711083 0.32688656 0.3789475 -0.6950581 -0.13269196 0.5478652 0.29012176 -0.97419006 -1.9457307 -1.7512195 0.40733925 1.0302361 -0.0147897 0.6146874
osa 0.023044229 -1.2448928 -1.0233884 -0.14058393 0.95201796 -1.9817228 -1.23987 -2.0771756 1.3717204 -0.5033018 -2.304312 -0.58289367 -0.756224 0.43334192 -1.608825 -1.7924703 1.1573292 -0.4027718 0.7536844 -0.7880945 -1.2655735 0.000115491996 -0.3444388 -0.34796816 -0.8253977 -2.0153155 -0.23207515 0.6367263 0.62515944 0.25122228
high -0.19297004 -1.5599308 -0.19188648 0.88822925 0.46985412 -1.8487223 -0.36878315 -1.9225157 0.6747901 1.1537104 -2.0516813 0.76365805 -0.805505 -0.6033174 -1.2208427 -1.8003423 2.384836 0.7161752 -0.44151402 -0.8035998 -0.4471509 0.4441442 -0.12257757 -0.7907901 -1.8177007 -2.2391453 -0.19937077 1.5007471 -0.38061434 0.41577289
#rd -0.7639521 0.14510126 -0.8332148 0.27192757 0.029576732 -0.43322974 -0.99760556 -1.7453145 -0.28636593 -0.5469657 -0.7468682 0.46423548 0.77801365 -0.24228656 -1.373376 -0.5669947 1.3413188 1.371065 1.2371573 -0.51153934 0.12238299 -0.40713695 -1.4142746 -1.5040741 -1.3532406 -1.0681431 -0.25187704 0.8594223 -0.51270324 -0.54828644
flr -0.020234745 0.13127577 1.0817934 0.5109988 0.62940913 -0.12187072 -1.1947243 -1.6625519 -0.8390819 -0.3258941 -1.0126381 -0.6637719 1.7925508 -1.1229964 0.13309573 -1.1307693 0.5528135 0.32501853 2.620887 0.27644643 -0.66912 -0.98583597 -1.168032 -0.87077487 -1.5337802 -1.2866554 -1.2133634 0.699148 -0.5640589 -0.18045169
smoke -0.21161143 -0.114229225 -0.008939048 -0.50226176 -0.19324464 -0.58539087 -0.3104499 -0.40009812 -0.19417965 -0.53512126 -1.1311524 0.5034583 -0.0185635 -0.797751 0.21521834 -0.45890516 0.37073237 -0.013812613 0.5929474 -0.32099944 -0.1318222 0.67689085 0.27776495 -0.14607039 -0.6561293 -0.49083042 -0.41285652 1.0159743 0.7579037 0.42802554
capacty -0.25613278 -0.058960713 -0.060907196 -0.41914758 -0.16553709 -0.5553242 -0.3388913 -0.48349184 -0.23357515 -0.54547715 -1.1236125 0.50146556 0.019393472 -0.8160171 0.1905431 -0.44071543 0.42377782 0.035387322 0.49224076 -0.33617947 -0.2024797 0.6906726 0.2310253 -0.16322336 -0.66835797 -0.39489037 -0.43356878 0.9701555 0.70052135 0.37370235
rm-bxxx -0.21580939 -1.0233557 -0.22428578 0.44049206 0.79285794 0.059117742 -1.977609 -2.0962656 -0.7943611 -1.3417497 -0.08647589 -0.15487805 0.52267283 -0.19218698 0.003429916 -1.5108265 1.9425467 -0.7761483 0.7313976 -0.6138435 -1.0796539 -1.3374814 0.5505859 -1.1376016 -1.3106319 -0.9112994 -0.97791046 -0.32613856 -0.42569903 1.5191808
bsmt -0.5594328 0.24440323 -0.4264439 0.15937749 0.92911565 0.63084424 -1.9552305 -1.3950801 -1.1267202 0.0005920799 -0.6237435 -0.34315652 -0.29533157 -1.4959946 0.24526821 -1.5121304 1.8906437 0.23378642 0.41821867 -1.2799666 -0.25590816 -0.5669071 -1.1298581 -1.6725066 -0.99769247 -1.2018505 -0.15459803 -0.3855042 -0.23152104 -0.071709916
sa 0.21135542 -0.100317 0.1541026 -1.1892622 1.0216147 -1.4147915 -0.51731384 -1.9809194 -0.0033616843 -0.7380221 -0.13765241 -0.40748397 2.0452693 -1.3245579 0.014955216 -1.6836926 1.1636091 -1.1776854 0.88233954 -0.3020395 0.106274515 -0.7386794 -0.05637604 0.5444939 0.11570183 0.114378706 -0.30322915 1.9202766 -0.31576473 0.24938422
hl -0.6624141 2.1151974 0.10631476 -1.232539 1.7782434 -1.8772366 -0.16700017 -1.7597913 -0.2775826 0.030375902 -1.3801042 0.07587766 1.214074 0.1521967 -0.09503769 -0.44321272 1.7814225 0.8548747 0.9879013 -1.1671838 0.59589976 -1.037748 -0.3670659 -0.080611 -1.0678097 -0.75787574 -0.064739056 1.4036175 -1.2170956 1.723272
pan -1.2690197 0.29362246 -0.19441646 -0.41632017 -0.5729327 -1.5450805 -0.3385451 -2.291319 -0.49113667 -0.07027666 -0.61122715 1.0681355 0.5669766 -0.10828947 0.5124849 -0.40498146 1.9463394 0.18824624 -0.0939474 -1.8327918 -0.2795143 0.6500009 1.5427487 1.6859105 -0.492287 -0.1389221 -0.010349537 0.76521397 0.72191054 0.12005035
lock -0.5461038 -1.0239283 -1.2713821 -0.62140214 0.4424157 -0.055995602 -0.64957005 -2.2987382 0.5798738 1.0128142 -0.089761704 0.116549514 0.5864556 -0.478 -0.6070451 -1.5418955 0.60615534 0.4028137 0.56384844 -2.0646303 -1.0704621 0.74144465 0.9713729 -0.07087056 -1.2335929 0.3634488 -0.39983714 1.8595152 -0.22257315 -0.6290353
voltage 0.9478561 0.41771224 -0.7748111 -0.029719897 -0.20525451 -0.29860908 0.14486322 0.5717418 -0.6050468 0.7989496 -0.6706252 -0.10093431 1.0335329 -0.77479863 -0.16914918 -0.24084616 1.4628801 1.3078324 0.4128606 -0.056904707 0.06631669 -0.34414133 0.4542705 0.019921986 -1.0873158 -0.4948035 -0.7627298 1.2767415 0.90748644 1.1896361
tol 0.35641137 -1.022796 0.8023691 0.091513574 -0.5922397 -0.8639512 -0.4036552 -0.6888298 -0.98298186 -0.78464687 -1.2324808 0.9648686 -0.44044998 -0.22570948 0.09022644 -0.022910828 1.3735777 -1.078725 -0.09531075 -2.2592204 0.116079524 0.3953499 0.669887 1.0631514 -1.3516412 -0.22181942 -1.6100245 1.1245283 0.36307818 0.13580056
rm-### 0.34288013 0.47509122 -0.26846236 -0.32170272 -0.35042936 -1.4333438 0.08748975 -2.822707 0.93275046 -0.6407462 -0.10749826 0.35067484 0.64846456 -0.43756145 -0.738597 -0.46480247 1.2716473 -0.17427443 -0.9953737 -1.0648522 -1.1005415 0.83330333 0.5918666 -1.4943122 -0.010439803 -0.97336996 -1.0753698 0.4737913 0.22857812 1.3181905
f -0.8925057 0.49393836 -0.93113935 -0.15057321 1.2316623 -0.16142172 -0.24676533 -0.89993745 -0.85937726 -0.31410623 -1.1746012 -0.7155517 1.6123091 -0.2704356 0.17012759 -0.72103304 1.1248192 -0.8547935 -0.15122956 -1.37893 -0.7480367 0.05555465 0.041554876 0.85339165 -0.61044455 0.2119798 0.21860838 1.6073182 -0.20682178 0.8340539
dir 1.2779541 -0.27601686 -1.507254 -0.120832674 -0.7504718 0.2750692 -0.23643014 0.33887345 -0.3693718 1.1727018 -0.28886923 -0.79751885 -0.36983672 -1.0003374 -0.31255051 -1.0040329 1.6902493 1.3580954 0.34818932 -0.6874089 0.7546697 0.7757814 0.23337169 0.02943169 -0.38324016 -0.8065313 -1.2733734 1.2573946 0.032947097 1.9115378
lead 1.5757904 1.513823 -2.1026897 0.62050176 0.6383147 -0.83379436 -0.5521798 0.82125795 -1.5943353 -0.04782289 -2.41951 1.0433434 1.0152524 -0.8214034 -0.27742383 -0.19545966 1.5823675 -0.4809632 1.2843359 0.9945777 -0.38008407 0.7737309 -0.91836894 0.077879995 -1.2555051 -0.090314545 -1.2460479 0.8558916 -0.5820184 -0.270964
wind 0.8948837 0.20974457 -1.4049795 0.14602797 0.2155884 -0.11238659 -2.133055 -0.8763518 0.7033095 0.6795048 -0.8239562 -1.0303792 -0.11574884 0.08706377 1.1962715 0.10008031 1.9076163 -0.6552883 0.55299723 -0.4737575 -0.80815196 0.71023476 0.17792618 0.52252835 -0.5396273 -1.472884 -1.4817117 1.0825434 -1.0413008 0.30333844
main-fan -0.22203022 -0.05509024 -0.015340145 -0.503553 -0.20318182 -0.5666109 -0.280962 -0.3752616 -0.26468405 -0.5820046 -1.0421393 0.5761039 0.055037394 -0.8297753 0.2588678 -0.35249475 0.3370026 0.049514163 0.5327262 -0.3650152 -0.17828833 0.74305576 0.26202852 -0.19194043 -0.6564307 -0.4139084 -0.458022 1.1017135 0.7512704 0.4059889
off 0.602461 0.9126727 0.46624666 0.27849168 -0.26325825 0.39311606 0.17976947 -1.2044123 -0.76275474 0.04650965 -1.5522404 1.0366787 0.30522913 -0.77504367 0.683449 -1.56066 0.11645323 -0.5085878 0.8051394 -1.0114738 -0.8584471 0.9181806 -1.0120127 0.07401466 -1.597705 -1.1108683 0.03148401 1.3265333 1.1211871 -0.33621255
locl 0.9695452 0.2796401 1.5914041 0.8651679 1.3899368 -1.0181493 -1.1204225 -0.8735076 -1.1983281 -0.23058821 -0.93679786 0.54057753 0.12048394 -1.9383122 -0.5321189 0.090335675 0.6971666 0.9074363 0.6347727 -1.3432677 -0.0512721 0.24745746 0.4868187 -0.60097706 -0.6630792 -1.7824094 -0.033716924 2.0819116 0.9848363 1.336258
stages -0.23561785 -0.067524314 -0.031553123 -0.53787553 -0.2092916 -0.57222444 -0.3310378 -0.4068356 -0.18613404 -0.5983499 -1.1278452 0.53298783 0.04938827 -0.8368437 0.22929804 -0.44009578 0.41803068 -0.029051354 0.670286 -0.36973634 -0.12141504 0.82439464 0.21482675 -0.2805549 -0.7033102 -0.3974132 -0.49471298 1.0190399 0.7490938 0.43850622
server 0.15767753 -0.44803476 -0.21267927 -0.41180974 0.51059 -0.42985177 -1.0963006 -1.5561678 -0.89326674 -0.79753596 0.21192552 -0.014796736 1.1382014 -1.8775077 -0.2153414 -0.46701252 0.93618953 0.54914117 0.6211395 -1.6192304 -1.352108 0.91415805 -1.3254502 -0.5914442 -1.235607 1.7759877 -1.6882509 0.24066564 1.3581799 0.66825956
roomrm -0.58190477 -0.45730397 0.44870126 -0.30324396 0.4438828 -1.1223338 -0.48667115 -1.4316294 -0.73019415 0.5541399 -0.6375479 0.04412106 1.5997179 -1.0734184 0.52352667 -0.34643105 0.2726068 -0.3426207 0.30364817 -2.1880367 -0.22674973 -0.3905578 -1.8226442 0.30932286 -1.6964473 0.8074885 -2.3692563 0.49078166 1.3195578 1.4503268
h 1.0262649 0.2290911 -0.6914633 0.21935338 0.7892062 -1.1659733 -0.27927458 -2.4378347 -1.5927268 -0.47446728 -0.18597281 0.6898575 1.022605 -1.7825375 -0.52041346 -1.2484189 0.9150766 1.3652561 0.69093627 -1.723236 -1.7019591 1.2526939 -2.1193254 -0.4676935 -0.6297174 0.32154796 -1.5456867 0.07733903 0.97000283 0.5880546
energy 0.93536395 0.36328328 -0.73182243 0.018220311 -0.084406056 -0.21016371 0.15927966 0.59022623 -0.7324583 0.87950146 -0.71673536 -0.14845721 0.97311276 -0.8417823 -0.33817008 -0.23228697 1.4514982 1.2589016 0.48962936 -0.13117123 0.014522813 -0.38882214 0.5444014 -0.13995941 -1.138912 -0.5681931 -0.8056646 1.3364593 0.96504754 1.2984825
acc 0.88375586 0.41395065 -0.76082623 -0.030354822 -0.14076218 -0.24205214 0.06823463 0.56519336 -0.6010859 0.8151746 -0.7372876 -0.15103136 1.0008503 -0.71099716 -0.174238 -0.16777164 1.4805968 1.2644784 0.3412731 -0.022955403 -0.041453663 -0.35390678 0.3998797 -0.008171049 -1.0806913 -0.6089755 -0.8374186 1.2972077 0.85261387 1.188845
enthalpy 0.58935064 0.19976108 -0.547797 0.12977892 0.59450805 -0.16379176 -1.5529189 -0.95162106 0.18285699 0.4825191 -0.36030215 -0.56542534 -0.22921532 -0.5023033 0.6509607 -0.68191344 1.5904462 -0.5326706 0.14131849 -0.62887824 -0.89802814 0.8248528 0.2689785 0.34737813 -1.1687617 -0.886813 -1.4563992 0.47105846 -0.5046014 0.6467882
room -0.8865937 0.46290746 0.67732614 0.03419313 0.26892045 0.027005559 -1.9839113 -1.7014049 -0.8342272 0.13538194 -0.36819476 -0.20804277 0.96284074 -2.1154385 -0.48819432 -0.18921004 2.1131144 0.20927516 0.49780264 -1.65281 -1.1679604 0.13662423 -0.1714646 -0.5683461 -1.8446168 1.6430576 -1.9315339 0.75264615 2.060231 0.6347937
ld 1.1347898 -0.5703205 -0.095429376 -0.8537107 0.5616405 -0.13757941 -1.8591384 -1.4660715 -0.048691448 -1.0345156 -0.14373776 -0.38653308 0.9990767 -1.246753 0.95162356 -1.3649727 1.0351478 0.87137455 -0.056034394 -1.6589788 -0.6137557 0.69346887 -1.2279544 -0.723611 -0.96755046 0.8074328 -1.7398047 1.4057667 0.45702606 0.53150886
hum -0.1734114 -0.279723 -0.18895061 -0.73665655 -0.66755295 -0.67112356 -2.0089614 -2.0015965 -0.08820269 0.42338267 -1.0300046 0.8116007 -0.0051884 -1.448029 0.1407795 -1.1898571 0.25748917 -0.77326834 1.6206226 0.67007995 0.7863371 0.30798545 0.97168744 0.09735325 -0.6579323 -1.5134171 -0.8081729 0.7300326 -0.22719988 -0.016200257
rf#ctrl -0.26222584 -0.32586902 -0.3977311 -0.44407132 -0.099565595 -0.1778805 0.035979584 -0.13915251 0.15082303 -0.29795006 -0.24890961 0.17773171 0.5323326 -0.26456806 -0.18444325 -0.0005277487 0.45799634 -0.42876622 0.89556855 -0.5438485 0.0022766928 0.37872654 0.26932266 -0.5463029 -0.6298893 0.05348681 0.16353457 0.25372893 0.4471989 0.53009206
fl 1.3241577 -1.1255751 -0.76264006 0.43240753 0.43342218 -0.20356193 -0.41825324 -1.323493 0.026102955 0.38782147 0.0371025 -0.8109605 0.74840176 0.59480876 -0.51719207 0.14440653 0.5163345 -1.035614 0.9238181 0.08623235 -0.10066474 -0.22451444 0.31523487 1.5065407 -1.0856434 -0.5616375 -0.19920054 0.49700603 0.4225719 0.092640944
rm-b###b 0.71543825 -0.7398754 1.2152176 -0.75770277 0.1052693 0.32566556 -0.3583745 -1.3456186 0.18736517 0.54345924 0.62052804 0.4659006 0.9864163 0.3750707 -0.6251571 0.005914462 1.6786765 0.21046963 0.6501601 -0.858228 -0.46483237 0.46443936 -0.21711333 0.5627669 -0.31524163 -1.6104631 -0.13174792 -0.09292349 0.08848124 0.58852196
hoa 1.2132298 -0.043592114 -0.817502 -0.1978902 -0.56929916 0.15692136 0.33842003 0.091301136 -1.0073904 1.1309713 -0.6047218 -0.16466641 0.5693881 -0.5654442 -0.086101234 -1.0221703 1.5298433 1.3773175 0.893336 -0.15032047 0.19556198 -0.30580145 0.42008707 -0.21277429 -0.2597667 -0.8398675 -0.65029955 1.6739702 0.6458735 1.2692513
curr 0.58754456 -1.364466 -0.675917 0.4803912 -0.60559356 -1.4175042 -0.7425637 -2.1929018 0.5065007 1.1456932 -0.0126755005 0.88889813 1.8190151 -1.2520015 -1.039151 -0.18351568 1.0125198 0.29426393 -0.12417642 -1.1244706 0.2818033 0.6424787 0.33474562 0.39054647 -0.91345197 -0.23111841 -0.47895896 0.15944546 0.52369 -1.0120797
lim -1.0176756 -0.4065151 -0.72088313 0.16246773 0.839671 -1.9386331 -0.20838456 -1.2842832 1.1836212 0.40279236 0.79804546 0.90872467 1.209678 -1.7082095 0.5150572 -0.22058684 2.1608899 0.7673599 -0.20413719 -1.9945928 -0.6989026 -0.34313998 0.06791438 -0.7299229 -0.52754414 -0.6182626 -0.9450688 1.2665354 0.7983467 -0.7834522
ef# 0.15406722 0.16992605 -0.014469644 0.62124276 0.5120378 -0.82830167 -0.7396533 -0.3956789 -0.13943568 0.108938515 -0.7651048 -0.8978341 0.5073675 0.18605934 0.68631995 -0.23815644 -0.29154947 -0.48374224 0.6452592 -0.10746095 0.75872254 0.12049158 -0.7694728 -0.8908476 -1.5030525 0.3262851 0.06623217 0.7614773 0.73797035 0.5061781
standby -0.3282205 -0.09928173 -0.015831662 -0.5107055 -0.14075002 -0.52040094 -0.34529155 -0.46616894 -0.13819847 -0.60324746 -1.113718 0.47547144 0.10726324 -0.82008624 0.18786107 -0.4614188 0.366035 -0.026505407 0.6601054 -0.377295 -0.15201113 0.7629461 0.34120813 -0.26510438 -0.70955384 -0.5002367 -0.46058106 1.045552 0.7116977 0.40048155
fltr -0.4989532 0.26013547 -1.9280853 -0.95070064 1.2608424 -0.6680911 -0.78050613 -0.9463052 -1.1277572 -1.0141793 -0.6487253 0.44026875 1.2930323 0.06439953 0.25327137 -1.3060304 1.2762452 -0.57014984 0.14527728 -0.2030082 -0.07271432 -0.42057303 -0.8009911 -0.08709428 0.019261526 -0.16120267 0.047623288 0.90744895 0.7144267 0.69883955
#nd -0.7346318 0.14295301 -0.81398785 0.15833633 0.09919084 -0.4700305 -0.9386267 -1.7405683 -0.32030967 -0.64321464 -0.7102005 0.47840062 0.70996135 -0.25975034 -1.2754127 -0.4143231 1.3360133 1.4231417 1.0553819 -0.39914382 0.061722238 -0.19088714 -1.3748927 -1.504043 -1.3684254 -1.1334304 -0.29884297 0.95435494 -0.6551671 -0.6471979
ah-# -0.332555 0.93684983 -0.8039082 -0.57492524 0.7381443 -0.9761811 -2.0801468 -2.3719518 -0.21750371 -0.55230373 -1.3282257 1.0589395 0.30184877 0.12361394 -0.44333467 0.8237134 -0.09919514 -0.9545756 0.076916695 -1.0759052 -1.5978267 -0.6669841 -0.18647826 -1.8876477 -1.1905098 -0.5758366 0.12922609 0.7306216 0.5412949 0.19725445
dasp -0.5702591 0.9265611 -1.3110368 -0.22212493 -1.0952458 -0.092900336 -0.5046578 -1.2137367 0.21980703 1.1250036 -1.3344098 1.6528723 -0.2805238 0.3745959 -0.48430026 -0.10005672 1.5909053 -1.3751073 -0.8678042 -1.1602055 -1.7508274 0.1604454 -0.55368626 -0.9679533 -1.0081575 -0.9036471 -1.0892323 0.9012887 1.1221186 0.20074509
ena 1.1859336 -0.018749205 -0.87355304 -0.099674985 -0.558929 0.05936891 0.4705427 0.15404788 -1.0658989 1.2231058 -0.6025394 -0.121677086 0.54469883 -0.5393377 -0.030822264 -1.0422533 1.5655972 1.3442154 0.9505136 -0.120474175 0.21422544 -0.33277115 0.37603435 -0.177075 -0.20455916 -0.74587995 -0.637901 1.6103663 0.6175092 1.2291213
power 0.92861885 0.3650387 -0.75862414 -0.008133339 -0.084411055 -0.2390155 0.1525441 0.62463105 -0.6065401 0.8309983 -0.7473831 -0.09625456 1.0148633 -0.7909315 -0.19124503 -0.10833791 1.5008539 1.1356984 0.36122736 -0.067514405 0.050040923 -0.3060373 0.4965445 0.11816358 -1.0143014 -0.5430302 -0.823395 1.3039261 0.8643729 1.1078789
drv 0.37863728 0.39577413 -0.89684683 0.014280936 0.30217654 -0.27177614 0.1991679 0.7420741 -0.25293502 0.580147 -0.88922507 -0.22115928 0.26135734 -0.4688799 0.881288 -0.32364616 2.1666968 1.5701228 -0.3576339 -0.55597436 -0.18687451 -1.1577699 0.04549143 -1.2504562 -1.2636828 -0.39074066 -1.3207607 1.7410437 1.3818771 1.367747
rdy 1.5744141 0.6290121 0.5669133 -1.3369706 -0.6008476 -0.2656887 -1.2265992 -0.56556445 0.6651065 1.6601374 -1.6934555 -0.4443785 1.3564317 0.1496483 -0.044871315 -1.1222461 1.0007252 1.9879628 0.58936197 0.7554249 0.69644725 -0.30560544 -0.12343746 -0.70882297 -2.2586303 -1.4114867 -0.5417202 2.5354698 1.0722413 0.26945263
bsbmwind 1.6190417 -0.15024248 -0.53281546 -0.38346198 0.8773239 -0.44537497 -0.684339 -2.552571 -1.5779788 -0.81467265 -0.03654098 0.7747221 -0.5547173 -0.15845445 1.3634145 -0.77242845 0.97616917 0.36171943 0.42361873 -1.6331244 0.9030389 1.1608161 -0.77558285 -0.88410574 -1.3128017 -1.4121274 -0.016923217 1.5766994 -0.03155785 -0.44330445
spd 0.40387848 -0.7245371 -0.28953156 0.50714624 -0.9086326 -0.85623604 -0.9366749 -1.5022943 -0.659676 0.62327284 -1.3479539 -1.8589312 0.6044102 -2.0668035 1.3589866 -0.93648654 1.7950612 0.2710076 0.39601 0.2763356 -0.61089236 0.15901414 -0.9034383 -0.35661018 -1.1653997 -0.91944337 0.60226417 2.085012 0.1773304 0.44104514
heating -0.24607879 -0.18936196 0.009514397 -0.49737784 -0.14000523 -0.49969575 -0.27642688 -0.48799405 -0.23583338 -0.5697708 -1.0982496 0.5452348 0.081823096 -0.89114857 0.20930484 -0.4892887 0.44121408 -0.03173032 0.6738099 -0.3524263 -0.18386404 0.74400574 0.26268512 -0.27262744 -0.7909994 -0.47884393 -0.4430153 1.024517 0.76449585 0.33922857
hwp#ctrl -0.25784877 -0.36254144 -0.46687594 -0.41108325 -0.103606485 -0.15869258 -0.024329824 -0.07749027 0.12512195 -0.26065698 -0.19364049 0.15514868 0.5928124 -0.20595995 -0.18871914 0.010462453 0.4974839 -0.39478713 0.9671314 -0.588553 0.05387723 0.35551402 0.34046257 -0.6001644 -0.66382307 0.015325409 0.1470464 0.2675227 0.4027147 0.47372139
gain 0.34359488 0.14036417 -1.4967437 0.020027883 -0.12157574 0.086577296 0.3207644 -0.005334384 -0.23309207 1.4325328 -1.1836011 0.48660335 0.9774894 -1.1604533 0.19891106 0.22728969 1.2013488 0.61520976 0.7105463 -0.054318383 -0.3260962 -0.17733398 0.49898985 -0.29079676 -0.9629707 -0.9324764 -0.5169819 0.63402456 0.37254187 0.40821674
bsbmenthalpy 0.015094278 -0.002202606 0.0062134867 -0.0038710206 0.0068270797 -0.008354527 -0.007626339 -0.014516027 0.013749495 0.012396402 -0.0054705925 0.0060945502 0.0038786002 0.00015412696 -0.0036725635 -0.00962278 -0.013257166 0.0067256535 0.014416675 0.01038373 -0.014021554 -0.007756639 -0.009119845 -0.009892208 -0.012395633 -0.0032856055 0.005326823 0.00082707964 -0.009619926 0.00785001
rm-####s 0.08539229 -0.14057201 -0.27293465 -0.030325128 0.29610536 -0.49283907 0.6582392 -1.1173437 0.9012392 0.7176911 -1.1821499 0.35148346 -0.48691058 0.07009402 0.37485468 -0.718098 1.5125526 -1.270995 0.9711649 -0.98246896 -0.05503748 -0.27625436 -0.10275662 -0.40186533 0.068585895 0.22538221 -0.5557331 0.13571301 -0.48003525 1.0878173
shortcyc -0.27722523 -0.08010182 -0.059004262 -0.5176057 -0.19466917 -0.5730809 -0.2693109 -0.4253243 -0.17933339 -0.61595356 -1.0842144 0.49121705 0.058859795 -0.8533456 0.2862363 -0.4584867 0.33077678 0.07647831 0.59295684 -0.32776618 -0.18270847 0.7174498 0.19764218 -0.19132401 -0.6099172 -0.42308843 -0.42205536 1.0518062 0.8036019 0.31133702
rst 0.78058434 0.17000283 -0.654255 -0.7819632 1.309593 -0.3275172 -0.13524075 0.56991094 -0.80191475 0.5001652 -1.0533228 0.56923455 1.6636865 -0.6736186 -0.3799762 0.585462 1.9940524 1.2912356 0.022825189 -1.1643955 1.5472944 -0.582195 0.86550325 0.7646547 -0.19789651 -1.2315323 -1.2653421 1.5237329 0.3233823 0.9775878
unitloc -0.23167193 -0.1050993 -0.023226488 -0.4748216 -0.18136223 -0.5262894 -0.35873982 -0.35623306 -0.20150472 -0.5355817 -1.1314914 0.45650387 0.0066631655 -0.7609608 0.21800478 -0.4278024 0.38738582 -0.07216365 0.631739 -0.24906646 -0.14524794 0.67959255 0.2571366 -0.15143964 -0.6683573 -0.54725325 -0.44021803 1.014855 0.7225992 0.41210043
humdfier -0.33005413 -0.1268871 -0.03098462 -0.5216072 -0.22598611 -0.5190637 -0.31196386 -0.44738787 -0.22877288 -0.49424344 -1.1065505 0.5275635 0.027988952 -0.84674674 0.20588136 -0.44004115 0.37286308 -0.042899854 0.615214 -0.35182062 -0.1312146 0.6944014 0.33019352 -0.1830305 -0.7136033 -0.47514006 -0.49412218 1.0249953 0.7572076 0.38032424
hx# 0.43796405 0.87193847 -0.94757754 -0.07995602 0.12442457 -2.13122 -0.56003654 -0.2879208 0.16496332 0.2798866 -0.92665285 0.45797056 0.784318 -0.79887295 0.5558542 -0.5548812 1.7039728 -0.63568366 1.0389209 0.07789528 0.5409677 1.252633 -1.0081444 0.57423323 -0.98989254 0.9091848 -0.92372745 0.440502 -0.06583846 -0.61470705
leak 1.1424984 -0.79118884 -0.35242423 -1.3750945 1.0606508 -0.0337607 -2.1416414 -1.5924308 0.1125347 -1.4308074 -0.35290337 -0.5156647 0.8969785 -1.3018625 0.8870578 -1.8280925 1.1538434 0.99669105 -0.4216252 -1.7412636 -0.4869925 0.6793797 -1.1169891 -0.97683495 -1.449447 0.60705733 -1.8718796 1.6072466 0.18614027 0.5955902
shutdown -0.3963412 0.7799067 -0.4400913 0.8204145 0.33086565 -0.6801505 -2.2980144 -1.6314104 -1.3783922 0.7753113 -0.9465813 0.21639797 -0.19199346 -1.8810593 -0.7432124 -0.37480006 2.9342878 -0.7063686 0.6967098 0.2538414 -0.44034794 0.3322315 0.71781003 -0.28591126 -1.3925093 0.79670846 -1.672422 1.2587401 1.12333 -0.20520614
