ap&m 0.06177482 -0.17741053 0.15431304 0.21979202 0.2017739 -0.06315007 -0.17044435 -0.13195542 -0.16445617 0.22945139 -0.027106717 -0.10939973 0.088054195 0.13198747 -0.13746499 0.20541504 0.1272744 0.10137881 0.18093322 -0.17245655 -0.10113474 -0.22670421 -0.026264919 -0.19017664 0.051375326 0.13278945 0.1477531 0.011905526 -0.034270287 -0.098025925 0.18078573 -0.0060482095 0.09888784 -0.09375047 0.061622687 0.2230774 -0.2519285 -0.028805342 -0.26414797 -0.101957545 -0.11098193 0.057316095 -0.08101117 0.2945803 -0.058008026 -0.34721166 -0.000969549 0.04243051 0.2816719 -0.31781802 -0.07922265 0.18305464 0.03589328 0.13587911 -0.120371535 0.04266567 0.15571484 -0.2952361 0.36396155 -0.12627259 0.2765135 0.12271191 -0.21640109 -0.32964787 0.043826826 0.09763715 0.0940552 -0.15401646 0.15915912 0.11041653 0.10924414 0.20130904 -0.059934493 -0.024958698 0.26717392 0.018039374 -0.077007346 -0.14364582 0.0040703537 0.27301285 -0.07282521 -0.1674398 0.028565586 -0.18846434 -0.114723064 -0.03337429 -0.0071644536 0.08925599 -0.053503215 -0.18365733 -0.025722018 0.3303071 -0.18348289 0.04430763 0.17286624 -0.15782185 -0.11423192 -0.052148677 -0.16313197 0.18155934 0.09369139 0.122403726 -0.04695338 -0.25272965 0.0057081697 -0.01803008 -0.05933976 0.23464178 -0.31818998 -0.16848859 -0.03627157 0.15509802 -0.17826593 0.0044439263 0.14558975 0.1747504 0.14773016 0.030915087 0.066333294 0.12273111 0.03527624 -0.11659887 0.116546705 -0.11777115 -0.14134084 0.0068258154 0.035047125 -0.24394533 -0.1434707 0.17341563 0.049225826 -0.08823988 -0.2236086 -0.04419513 -0.11019357 -0.06721641 0.2682172 0.17878789 0.050926168 -0.15040782 -0.15477003 -0.2002318 -0.05142367 -0.04023676 0.08141906 -0.00602494 -0.024549013 0.086155154 0.21437632 0.1101915 0.20360169 -0.21347831 -0.18659236 0.24270554 0.034266036 0.002947721 -0.0071477983 -0.1464869 -0.22616248 -0.18879917 -0.028977236 -0.021376448 0.1408411 0.0060270503 0.12173713 0.20431194 -0.15719257 0.12975577 -0.16376445 -0.03139139 -0.24286453 0.10070124 -0.019029984 -0.25736552 -0.13781698 0.05448328 -0.08937507 0.21224986 -0.20914862 -0.04787051 0.14108337 -0.07504148 -0.24832025 0.0478173 0.0053863595 -0.14304063 -0.031882092 0.06698066 -0.11197192 -0.13175312 -0.0044692014 -0.09468542 0.09595178 0.14124477 -0.14322457 -0.009299983 -0.112610064 0.28547597 0.21747477 -0.11658905 -0.20444553 -0.35576823 -0.13423833 0.14126843 0.044725023 0.057633217 0.1261556 -0.011017183 0.08483942 -0.363136 0.23373304 -0.263906 -0.15053843 -0.23651592 0.0374087 -0.16391554 0.22233263 -0.109286524 -0.06377147 -0.18386392 -0.037388206 0.09719518 -0.12379322 0.1293584 -0.08929451 -0.18794157 0.007645201 -0.216449 -0.06296344 0.073300734 0.09198831 -0.00096947514 -0.26856962 0.22373039 0.14287037 0.001401696 -0.43377194 -0.069181986 -0.004091177 -0.10025814 0.275745 0.09844708 0.15941621 0.1330198 -0.01739659 0.111782044 -0.0038825364 0.21362363 -0.14075467 -0.07747259 0.33087906 0.014933949 -0.33247122 0.044230066 0.1841628 0.088763684 0.13530913 0.015897345 -0.0693865 -0.04053795 0.08180743 -0.08244795 -0.21194974 -0.11472219 -0.015076489 0.11461128 -0.057305995 -0.18037273 0.057252344 -0.20003934 0.07922248 0.027096234 -0.21507192 0.07533212 0.21499667 -0.18496877 -0.015958533 -0.024078755 -0.034283258 -0.041900422 -0.06785186 0.22893198 0.11773169 -0.045236178 0.14551091 0.24264565 0.18849936 -0.12622719 0.34801036 -0.008177886 0.016938217 0.01922468 -0.25265354 -0.1694669 -0.010879075 -0.05612999 -0.15499884 -0.09647213 -0.087142065 -0.10962529
rm-#### -0.28412828 -0.25265646 0.31169733 0.1955559 -0.12595278 -0.24064882 0.22215597 0.31227583 0.14104702 -0.06891152 0.2626132 -0.03869785 -0.21184406 0.11006316 -0.19848809 0.34605 -0.22876942 0.07644769 -0.2043667 -0.108029045 0.42908147 0.10759339 0.2746225 -0.276551 -0.22734272 -0.030764434 -0.04330022 0.042420853 -0.013267094 0.29353973 0.3111117 0.21748874 0.17915915 -0.05324938 -0.048482258 -0.30238652 0.08030782 0.37259942 0.036092076 0.030157512 0.38924563 0.15232022 -0.003434969 -0.30056074 0.1907327 -0.15991938 0.052114196 0.14288643 0.19152425 0.034966722 -0.121446535 -0.16705413 0.18764731 0.04940872 -0.14271802 -0.40174738 0.44520766 0.3624984 0.24705039 -0.08137805 -0.1239772 -0.1872412 -0.4355726 -0.08737323 -0.17179032 -0.17968331 0.06108873 0.20198444 -0.61039746 -0.08098813 0.10459045 0.23996069 -0.09513541 0.02075114 0.4405154 -0.11137891 0.15712006 0.11236335 0.10225303 -0.14158504 0.16546957 0.2125126 0.114681676 -0.21020867 0.26257446 -0.15718456 0.10039561 0.124409504 -0.013470232 -0.3630778 -0.10517065 -0.2784092 0.08177056 -0.04505571 0.0021378507 0.100461155 -0.18999983 0.19520046 0.16760291 -0.44976458 -0.4570355 -0.027859135 0.034622036 -0.023008082 -0.020755492 -0.03294907 0.035580426 -0.16736223 0.30209014 0.046361893 -0.061069652 0.32816634 0.16230623 0.004727037 0.20494343 -0.069345176 -0.09474124 0.17059891 -0.16937952 0.47907123 0.17008922 -0.11582095 -0.14308934 0.03374195 0.01817054 -0.08459882 0.030558912 0.017519413 -0.03365533 -0.19282739 -0.08787924 -0.02623677 -0.20822068 0.1460238 0.01695447 0.10293379 0.26269704 0.08341948 0.21159093 0.22618319 -0.24499123 -0.08789651 -0.2589961 -0.024406632 -0.22167008 -0.123200454 0.0648676 -0.16466434 -0.109338455 0.103577785 -0.12740666 0.07946978 -0.07120322 0.20039017 0.18143679 0.24200836 0.04470857 -0.16981074 0.023960704 0.070965305 -0.042998195 -0.24519317 0.025270343 -0.17367814 0.14917943 0.32234707 0.05463911 0.1383616 -0.12291445 0.24493988 -0.11625827 -0.19913076 -0.41224834 -0.008441662 0.23173271 -0.030149672 0.30943373 -0.15547729 0.28709835 -0.13780954 -0.25623 -0.015353506 -0.21491186 -0.02640906 0.04320931 0.18001385 -0.21108888 0.27046067 0.009547739 -0.06932562 -0.18788047 0.043317646 -0.0034123347 0.06877753 -0.36640507 0.12852189 -0.20838383 0.111376874 0.12070514 -0.3448097 -0.112151854 -0.12839714 0.05341619 -0.1268929 -0.08561499 -0.03776065 -0.19952726 -0.33014837 0.15913674 -0.2370669 0.22286248 0.44029918 -0.18697065 -0.37150267 -0.28471148 -0.22296397 0.24460113 -0.3055178 0.21436886 -0.059540905 -0.11198728 -0.4482451 0.027733613 -0.19318728 -0.13796926 0.095831916 0.26104596 -0.19714956 -0.059766132 0.016308278 -0.2436865 0.04312062 0.05479737 -0.03140473 -0.26326165 0.23157287 -0.12965932 0.1399407 -0.56566644 -0.37480393 -0.07310581 -0.48120323 -0.26674065 -0.24883612 -0.070759 0.43296236 0.07176582 0.023409557 -0.26584533 -0.019920712 -0.008358878 -0.049349457 0.24528854 0.24252534 -0.076493435 0.24913251 -0.0692401 0.29105106 0.45395103 -0.114384405 0.039307818 0.3095874 -0.17787752 -0.10987582 0.12726988 -0.26288483 0.42088073 -0.30621365 0.13553883 0.014729403 0.031950127 -0.1266283 0.17052451 0.14965573 -0.17549396 0.03465236 0.18137075 0.22927038 0.05560045 0.3732464 -0.10484186 -0.26131964 0.24585591 0.011091564 0.28877458 0.25675294 -0.0569074 0.06341212 -0.07271015 -0.24384536 -0.09390244 -0.15381302 0.103486195 0.40098718 0.036035154 -0.29059142 -0.24773538 0.063895695 0.09952973 -0.34197977
c -0.09016403 -0.19521604 0.08373994 -0.15777567 -0.33863488 0.09717638 -0.1721656 0.042601723 0.39753407 -0.023765175 -0.030303169 -0.06017831 -0.15982008 0.4030183 -0.0028061122 -0.22973928 0.20251374 0.04388753 -0.10369031 -0.27366158 0.0061328663 -0.660094 -0.12838714 0.1242745 -0.35773733 0.096305706 -0.3291304 -0.19748564 -0.076159075 0.048423324 0.09067134 -0.06945907 -0.03026156 -0.1327035 0.0020147946 -0.051194906 -0.39119548 0.23945831 -0.0023799622 0.12420463 0.40161583 -0.08635187 0.05357295 0.046063643 0.0094356015 0.23630962 0.121819265 0.055114683 0.4626003 -0.22695254 0.13995008 0.19545339 -0.38866556 -0.30624747 -0.2276217 0.4184912 0.2148438 0.13824788 0.033291623 -0.076748356 0.06955186 0.15701272 -0.13208723 0.28696427 -0.1483206 0.13036758 -0.44471014 0.19297664 0.22915715 -0.44658038 0.119244866 -0.100588046 -0.305238 -0.20717184 0.44530994 0.09177933 0.4707655 0.2860951 0.17786512 0.2510537 0.27519652 0.44831672 0.21407062 -0.24831147 -0.037159216 -0.217286 0.26645124 0.041508917 0.23361777 -0.45891824 -0.12353042 0.38551664 -0.0051641054 -0.391109 0.045666326 -0.20090736 0.07750239 0.092676364 0.0479943 -0.050590433 0.17419642 0.2727137 -0.65091336 -0.004878405 0.1846473 0.16294774 -0.011504837 0.019771695 0.2723809 -0.06793477 -0.20872524 0.09832587 0.31790844 0.28989866 0.18487543 0.10421613 -0.23764558 0.013367699 -0.037156846 -0.067272864 0.20770776 -0.09593691 -0.0046395846 -0.022114756 -0.29362938 -0.24663302 -0.37901804 -0.34498423 0.03721621 -0.34300727 -0.004898814 -0.18282329 -0.04174961 -0.08882953 0.32328698 -0.050195 -0.34909832 -0.08907556 -0.09582777 -0.106085055 -0.07464943 0.2597263 0.2531384 0.06444152 -0.23497294 0.54022825 0.056010686 0.024355125 -0.12929179 0.23137741 -0.18959823 -0.13639314 0.054284215 -0.005830801 -0.080447145 -0.043756004 0.29085585 -0.47968295 0.3004741 0.0025065627 0.31403628 -0.16691834 0.23064895 -0.15667623 0.0580206 0.40695518 -0.03067606 0.30866823 -0.29596928 0.027245622 -0.2892094 -0.3873718 -0.34889382 -0.044673204 0.19844712 -0.53631496 -0.19508888 0.007603102 -0.08223576 0.29028878 -0.053334445 0.28602582 -0.11752144 0.073479705 -0.3133332 0.17385924 0.008519551 0.4026885 -0.0015479983 -0.10676858 -0.31561327 0.24606398 -0.155605 -0.18828991 -0.287834 -0.084032975 -0.12654872 0.22692238 0.09057249 -0.2778482 0.18435961 0.018308457 0.2871645 -0.14029229 0.14840265 -0.0070949043 0.22192286 0.41126332 -0.20090453 -0.4010555 0.110992916 0.23298718 -0.29686272 -0.21169795 0.058842298 -0.27909696 -0.529498 -0.25417298 0.093016736 -0.14726342 -0.37190428 -0.024688609 -0.25667125 -0.03354366 -0.48345706 0.2889627 0.13074595 0.13768387 -0.16419423 0.49698612 -0.34944394 -0.35857916 -0.0358716 0.20650738 0.25962847 0.21916728 -0.19523437 -0.05391083 -0.3240939 0.012646616 -0.18554653 -0.44999218 -0.011256514 0.46257475 -0.10478274 -0.06967066 -0.1810986 -0.47186723 -0.14471643 0.24288976 0.4848353 -0.019866018 -0.52101773 0.017175302 0.110494316 -0.21065587 -0.73476756 0.14127843 -0.29045263 0.17892487 -0.032209318 -0.28475422 -0.17333551 -0.24930833 0.33119985 -0.24232978 -0.033239324 -0.31218296 0.047215246 0.2287745 -0.33272293 0.34192076 0.109836616 0.29208913 0.2775565 -0.17683369 -0.11059551 -0.22655779 0.0038797837 -0.14520791 -0.11996999 -0.18018384 -0.2286982 0.16054241 0.3614432 0.09693936 0.028985238 0.116516665 0.53237337 -0.071074635 -0.27397054 -0.029730521 0.038422965 0.3812803 -0.017964887 0.018726377 0.102293596 0.21703835 0.14962196 -0.44955423
max 0.007274008 -0.4764933 -0.035633497 0.11092833 -0.093074165 0.36113787 -0.09117014 -0.12644777 -0.0023811418 -0.27413142 0.20381074 0.050802752 0.21058443 0.20744088 0.10036147 -0.14000215 0.15958825 0.16342643 0.10153044 -0.32782847 0.14062566 -0.4851114 0.041458543 -0.27475566 -0.04759428 -0.4360083 -0.24178724 0.19022292 0.29947382 0.13264939 -0.101093724 0.19832578 -0.14042076 -0.09257599 0.39133245 0.35410613 -0.38686153 0.30653524 0.28520095 -0.19229291 -0.3160656 -0.17773402 -0.007530178 -0.0023799452 0.24179497 0.07148194 -0.010016305 0.16377379 0.27380046 0.06988154 -0.038605306 -0.28372106 -0.034185346 0.19761436 -0.17091131 -0.18561509 0.13567777 0.12490309 0.2205783 0.09293599 0.028357953 0.22398171 -0.078918934 0.17932026 0.05720553 -0.23757085 0.18217117 0.042317983 0.2554268 -0.4619132 0.6135794 -0.041200683 0.14542681 -0.27723178 0.5841449 -0.55343676 0.38112172 0.26505065 0.09087372 -0.30482972 -0.46438584 0.31463587 0.32547456 -0.07117298 0.13731231 0.02745392 0.25502858 -0.34959823 -0.105707504 0.28790623 0.08882759 0.2965297 0.2405838 0.014045139 0.3920151 -0.5166702 0.04896617 0.1693005 -0.3032082 0.10957411 0.025049506 0.20926528 0.25128415 -0.023969123 0.11169937 -0.29191685 -0.3285807 -0.21403809 -0.016719032 -0.30181292 -0.5320042 -0.05126454 0.18282406 0.2247126 0.33472404 0.35584813 0.1315168 -0.030522408 0.25316855 0.1949199 0.016847203 0.31704056 0.47577935 0.40137708 -0.0840364 0.37173033 -0.055323385 0.47131053 -0.35442093 -0.08674996 0.12686694 -0.3568546 0.26682034 0.13050438 -0.055373564 -0.48106918 -0.16417156 0.53442246 -0.0888747 -0.23145777 -0.027603576 0.017841855 -0.11116418 0.14251508 0.11956623 0.3105706 -0.07343857 -0.19946292 -0.3051968 0.1800614 -0.08919018 0.2805427 -0.24266866 0.20745873 -0.004673474 0.2660554 -0.2969161 -0.08626208 0.041029494 -0.33419025 -0.40164956 0.018682819 0.09629212 -0.08301666 0.060292363 0.18357249 -0.4465444 -0.13211772 0.07561408 0.27778843 0.022698786 -0.030180974 -0.09218822 0.07772763 -0.062231846 -0.35793486 -0.26887146 -0.14387953 0.10929131 -0.2260064 0.011787126 0.011901816 -0.2541873 0.1828958 0.013306831 -0.3183517 -0.34082416 -0.006679128 -0.57344913 0.46256986 -0.010616737 0.25069806 -0.033981528 0.18705304 -0.04328767 0.49842048 -0.02785478 0.39745584 -0.1959337 0.40637186 -0.17025414 -0.020929718 0.079564236 -0.111860715 -0.31346497 0.50354517 0.07148226 -0.39886484 0.004797452 -0.041619465 0.19493003 0.2643525 -0.27085683 0.073045574 -0.19515067 0.20131445 -0.30206463 0.26741886 -0.24212359 -0.38713676 -0.12754157 0.06185015 -0.22288857 0.11902875 0.036700174 -0.12049239 -0.42440742 -0.3478977 -0.20606215 0.1370581 0.39371717 -0.68393916 0.0802709 -0.22093591 -0.16043925 0.16660151 0.086189665 -0.060111072 -0.10168165 -0.27530766 -0.26950246 0.060158465 0.08218329 0.16669115 -0.33788535 0.23411983 -0.392143 -0.09524955 -0.050354693 -0.438944 -0.04559743 -0.19321679 0.3852296 0.055694375 0.24506256 -0.39761332 0.0913992 0.28544357 0.124487445 0.037907153 0.2320828 -0.56223506 -0.2997779 -0.2201593 -0.07380039 -0.31664953 -0.51511514 0.16186757 0.024659783 0.11929861 -0.1292086 0.01533052 0.21447489 0.3179493 -0.18366489 -0.51289266 -0.14935784 0.13762867 -0.40407887 0.05274313 -0.15707992 0.1366443 0.06253103 0.45544687 -0.07805682 -0.23125036 -0.061794277 0.06911678 -0.17934155 -0.1581092 -0.1944229 -0.016579822 -0.1721962 0.011374271 0.27604493 -0.3246962 -0.035782553 0.14127569 -0.23427793 -0.31057283
stpt -0.15779741 -0.02988955 0.10720911 0.06989558 -0.5535452 0.046912 -0.020628482 0.23152483 0.26261055 -0.37542322 0.26029035 0.03397542 0.17734353 0.10547838 -0.057495404 0.2556153 -0.19691391 0.29608786 0.013426927 -0.53104246 0.16473956 -0.41520572 -0.23506437 -0.18248269 -0.38890564 -0.059730086 -0.26998383 -0.17000104 -0.1672996 0.37177876 -0.09404275 0.0031162868 -0.51374185 0.34205773 0.18938147 -0.41797185 -0.27172947 0.30976844 -0.20426057 -0.022269264 0.28998634 -0.26838505 -0.11901692 0.056174904 0.16614708 -0.05876747 0.3660947 -0.06843068 0.34582427 -0.38002726 0.20196238 0.24370983 -0.17296366 0.09338549 -0.33516574 0.14930126 0.31967458 0.4051049 0.18932936 0.066950314 0.0477644 0.06750572 0.1484276 0.07547684 -0.29472366 -0.105264135 -0.056408715 0.361033 -0.009117963 -0.3454335 0.38639933 -0.24350286 0.010868092 0.10033413 0.61272824 0.005137631 -0.104557164 0.03001716 0.3164225 0.06451867 0.31805894 0.19461873 -0.09324239 0.16841829 0.17779507 -0.09485788 0.13202791 0.36051 0.026504917 -0.5109784 -0.18956502 0.09596171 0.04872265 -0.16540168 -0.059660945 -0.39996985 0.15502538 0.27977473 -0.036199722 -0.16606952 0.32235292 -0.089244954 0.009392323 -0.08059337 -0.18280415 -0.053339887 0.018069703 0.022986317 -0.30306244 0.30035004 0.16233918 -0.22000523 0.5117308 0.21727583 -0.13978186 0.049221467 -0.07037529 0.4519423 -0.2201903 0.041907106 0.15964803 5.7893725e-05 -0.042688765 0.16034676 -0.16921581 0.24929589 0.32355198 0.17507228 -0.030705122 0.047566637 0.17978609 -0.042442005 -0.1446057 -0.26399654 0.34423947 -0.14646757 0.1199398 -0.04094418 0.24482684 0.045453105 -0.042928293 0.25817016 0.20217821 -0.43541744 0.03966601 0.29967797 0.10696174 -0.010452884 -0.005974097 0.41455773 0.066883184 -0.29772037 -0.4473739 -0.3579255 0.1451825 0.4170638 0.32860303 -0.42199028 0.14633319 -0.34092262 -0.2273483 -0.14707285 0.09496452 -0.025287116 0.062205177 -0.0066718864 -0.39103267 0.22111101 -0.0037503617 0.30050802 -0.34811357 0.27371386 -0.20370428 -0.24504122 -0.42223626 -0.1267487 0.14624186 0.21090329 -0.317325 -0.027374256 0.3254958 0.16666412 -0.07012133 -0.36951095 -0.258597 0.21959963 -0.40557718 0.3857119 0.12757705 -0.020847706 0.1290752 0.01528031 -0.24439679 0.024808537 -0.20289125 0.26290292 -0.26172006 0.14953338 0.2091396 -0.0006405416 0.027487552 0.04463119 -0.21368514 -0.067057535 0.08219692 0.25756523 0.097061604 -0.18035722 0.37703928 -0.25508696 0.26018503 0.31186953 -0.19700281 -0.38155973 -0.14483958 -0.46379653 0.3839186 -0.05042216 0.18122447 0.011395907 -0.2826792 -0.076067574 0.010299834 -0.08090739 -0.14878859 -0.051858187 0.03801515 0.149482 -0.100128286 0.4885805 0.017334338 -0.08512702 -0.39217955 0.09927596 0.0770837 0.027806254 -0.31256083 0.26801524 -0.49559593 -0.15394825 -0.18963392 -0.3844747 0.034814745 0.45553496 0.18704009 0.08825037 0.055556953 -0.1398568 -0.16048199 -0.39261293 0.3944415 -0.07733566 0.27734277 0.24402729 0.40610552 -0.11199654 -0.04108818 0.09808662 -0.0214482 0.4036232 -0.0005015379 -0.39454055 -0.26433426 -0.09830515 0.010279201 -0.02003024 0.21526498 -0.5379302 0.1344575 0.30420607 -0.15875076 0.29704034 -0.35826877 0.16676994 0.41937897 0.10710988 -0.09094945 -0.01040602 0.111360334 0.20928262 0.4195369 -0.038352814 -0.033323824 0.3069985 0.050077252 0.15984696 0.12036262 -0.17962949 0.22951916 -0.21857233 -0.13967709 -0.123732895 0.020538535 0.3664734 -0.008233219 -0.1998141 -0.06882763 -0.03587187 0.15601052 -0.11443521
o -0.08520916 -0.4600016 0.16051917 -0.07226189 -0.6501274 0.2180629 -0.10278722 -0.030409712 0.20519117 -0.07588645 0.0063155647 -0.104218416 -0.19560207 0.54605895 0.18816522 -0.36201856 -0.091131024 0.020476986 -0.059642427 -0.35178375 0.017636783 -0.6865345 0.009142209 -0.40259114 0.071053624 -0.24702962 -0.5964046 -0.08368064 -0.06901418 0.16571201 -0.118699215 -0.16004676 -0.13217628 0.15561335 0.251106 0.027111795 -0.103428245 0.51785547 0.24389134 -0.17465508 -0.012454642 -0.11749192 0.0712128 -0.18250987 0.14220747 0.26665327 0.26105472 -0.024040785 0.24473414 0.009990777 0.20853423 -0.042070977 -0.03788915 0.3098271 -0.31786555 0.028792856 0.18581833 -0.027964469 0.055450458 -0.2549413 0.11974119 0.5230835 0.051821984 0.011558581 -0.028873462 0.18745133 0.08686516 0.24799402 0.12661299 -0.33965448 0.39381889 -0.16448025 0.21003303 -0.16991897 0.25862807 -0.2351236 0.14104915 0.13296741 -0.048781846 -0.17985319 -0.1244764 0.46217144 0.016593002 -0.11148113 0.02682926 0.101416014 0.076982975 -0.15600248 -0.05058667 -0.33444843 0.08918625 0.36681166 0.18524712 -0.20204596 -0.0771751 -0.2596949 -0.08793002 0.10703477 0.06477719 -0.3352447 0.18924856 0.29129887 -0.15197337 -0.110318296 0.09438694 -0.10868844 -0.12352372 -0.36315358 -0.21685925 0.15808989 0.20934823 -0.040652197 0.42355955 -0.10333111 0.061509304 -0.09200074 -0.10052216 0.023551652 0.25219455 -0.033373088 0.14825283 -0.11279446 0.0008786433 0.016989723 -0.47788346 0.46720475 -0.50674963 0.17903535 -0.08986557 -0.259786 0.07678344 -0.17764056 -0.05056455 -0.28005135 0.22125249 -0.25358805 -0.14199863 0.16449054 0.25006092 0.024408853 0.2852446 0.26955435 0.31364 -0.32909846 -0.08118929 0.1900738 -0.1640331 -0.23531978 -0.2119556 0.25475731 -0.008212234 0.1151197 -0.07343128 -0.07910022 0.20040293 0.34545907 -0.09099879 -0.24339932 -0.058465477 -0.26845995 -0.34798118 -0.12865467 -0.10829584 -0.25365403 0.013316835 0.008981749 -0.33403012 0.20806271 -0.08401187 -0.004848514 -0.22643717 -0.1737896 -0.33943662 0.14819607 -0.16849275 -0.27302453 -0.34022036 0.23867314 -0.0963946 -0.18039653 0.28529468 -0.12127703 -0.22476333 -0.13051014 -0.21575896 -0.2759574 -0.56380045 0.10919231 -0.3366376 0.44489995 -0.027131874 0.1587665 -0.09035822 -0.012151675 -0.11858377 0.15114184 -0.43202806 0.07675257 -0.09169974 0.23219955 -0.14308274 0.023578053 -0.22732148 0.1612589 0.109367 0.14974344 -0.04483864 0.0088696 -0.12170598 -0.3389318 0.4132736 0.5095722 -0.41089714 0.0016390583 0.33069652 -0.21345247 -0.088127226 0.2502865 -0.030062672 -0.2050821 -0.2775908 0.02764917 -0.049572308 0.056981828 -0.33935034 0.004404636 0.09703992 0.08087216 -0.054921962 0.10867129 0.309327 -0.09488617 -0.18331617 -0.10660108 0.0072327945 0.1576151 -0.5073155 -0.018133596 -0.021081429 -0.09700152 -0.25227606 -0.1577086 0.012371437 0.17433947 -0.13554491 -0.16053253 0.07053734 -0.64135915 -0.18151322 -0.25926593 0.2595127 -0.22974735 0.25028467 0.0067177685 0.11137196 -0.1441573 -0.23366499 0.20095284 0.10217873 0.1346447 0.4446084 -0.5142928 -0.28823498 0.19326673 -0.048682336 -0.14955693 0.10830023 -0.11234879 0.23394154 0.20251806 -0.072941765 0.18407702 0.11502179 0.5136116 0.26168865 0.042195052 -0.09820155 0.11131974 0.23426612 0.24691449 0.20555218 0.1987093 0.12487418 0.25154164 -0.20057814 0.030694831 -0.037052542 -0.37485388 0.10964303 -0.23432201 -0.026408222 0.00059611246 -0.022342455 0.32909146 -0.047326222 -0.4261872 -0.010901156 0.0533556 -0.37618348 -0.20811172
h 0.097804345 -0.40470627 -0.021579534 -0.19653776 -0.4650112 0.14224623 -0.28190848 -0.08449535 0.4582794 -0.17839 0.014225279 -0.323886 0.11115307 0.1848943 0.2968667 -0.22872365 0.2683668 0.03606312 -0.13709673 -0.4503216 0.1601579 -0.30451792 -0.112490736 0.17315686 -0.40717408 0.09764586 -0.18287554 -0.3503515 -0.18440774 0.022117337 0.062424388 -0.2949542 -0.14709027 0.20837803 -0.2151911 -0.11395287 -0.35787612 0.12111979 0.045774844 -0.13062727 0.26503134 -0.16677035 0.2691281 -0.039067183 -0.040233288 0.21364282 0.228488 0.36264843 0.11653107 -0.19969107 -0.3758111 -0.13410784 -0.064407445 -0.2828423 0.063497595 0.045809984 0.13240206 0.08590279 -0.4471326 0.2111989 0.23571302 0.105193175 -0.031524684 0.14834315 -0.12278404 -0.011601025 -0.30399224 0.04214662 -0.14550404 -0.25131637 -0.20238924 -0.17143802 -0.24576491 -0.21001565 0.5511519 -0.12861076 0.4098292 0.15828736 0.01644119 0.08862062 0.46501124 0.4351 0.053793024 -0.3217087 0.079924814 -0.26697037 0.16412619 -0.064947546 0.09552523 -0.4205771 -0.09258347 0.03517814 0.02446297 -0.5274909 0.18874742 0.08814142 0.23687781 -0.10761313 0.07896232 -0.06456515 -0.031412084 0.28451315 -0.28556982 -0.012272389 0.33534324 0.0021599298 -0.19324017 -0.073847756 0.11424355 -0.42951733 0.075776026 -0.15775444 0.078962944 0.045339424 -0.0018975881 0.302102 0.22366212 0.22028008 -0.14139873 0.2761369 0.27843332 0.04158125 0.008607738 -0.040107027 -0.2591782 0.06702511 -0.28055575 0.012572807 -0.09708309 -0.10211496 -0.43008757 -0.008949903 -0.28299806 -0.04131996 0.007844829 -0.22440924 -0.33045143 -0.33876872 -0.2840767 -0.15099013 -0.10248025 0.36088735 -0.1155308 -0.015515829 -0.018575639 0.4002646 0.09173924 -0.23709467 0.2947849 0.36124974 -0.3079507 -0.35555544 -0.04220633 0.1889683 -0.08798039 -0.16727081 0.0011418221 -0.04153664 0.43038228 0.079042286 -0.00948191 0.14876704 0.06796379 -0.1038905 -0.05885084 0.3866104 -0.19779967 0.015260943 -0.3015234 -0.14735223 -0.4912953 -0.2856646 -0.3167021 -0.0065048677 0.24152407 -0.4135789 -0.12976447 0.0708334 0.23043261 0.002046922 -0.20490006 0.5000865 -0.11982113 0.091407456 -0.08843442 0.2776372 -0.336299 0.16937742 0.095039785 -0.028839374 0.039160486 0.21272899 -0.26706362 -0.067819215 -0.009004019 -0.18585633 -0.24003287 0.15466926 0.07734634 -0.23662414 0.4693906 -0.19788463 0.09798397 -0.30708072 0.34323108 0.25630456 -0.041796535 -0.051397912 -0.41105512 -0.09519962 0.4298681 0.36108914 -0.10858313 -0.21251976 0.10048461 -0.1074099 -0.35302934 -0.19126557 0.24935171 -0.16020232 -0.50319177 0.12007991 -0.24594447 0.37556118 -0.030387664 0.2315434 -0.0722812 0.35082582 -0.4725893 0.6244896 -0.06736645 -0.040030073 -0.3959155 0.34068483 0.19216408 0.1464725 -0.091288194 -0.17634074 -0.1901857 -0.17857318 -0.509729 0.038690973 -0.4581291 0.25873303 -0.15526539 -0.23986602 -0.5623554 -0.27865154 -0.044085536 0.4114879 0.12865911 -0.064841844 -0.366546 0.10492545 0.3150193 -0.34925643 -0.5696547 0.16376793 0.108431 0.47472808 -0.2622978 -0.08760829 -0.28681183 -0.18432869 0.3679703 -0.03505907 0.3117211 -0.39348647 -0.11690503 0.21857154 -0.10330911 0.24855052 0.2054898 -0.090003684 0.47622526 0.42274788 0.10027075 0.02916727 -0.11361406 -0.31071568 -0.0064667603 -0.06991763 0.007884175 -0.17796473 0.10103623 0.11618117 -0.17746937 0.12135503 0.34316614 -0.5389822 0.06689607 -0.07502066 0.23577149 0.5035091 -0.36328548 -0.21862307 0.24265912 0.2715526 0.13499491 -0.2346051
min -0.05686994 -0.4402943 -0.36621502 0.03403896 -0.33027664 0.29684487 -0.28785378 -0.0122776525 0.12126397 0.04132533 0.03367609 0.05467764 0.14716262 0.5364543 0.068689466 -0.28599167 0.061222628 0.46596763 0.104106314 -0.23470628 0.13387395 -0.72361 0.14284885 -0.11454153 -0.24550675 -0.39614412 -0.42554873 -0.45261887 0.081150144 0.06893895 -0.035728507 0.38657504 0.30272344 0.36481944 0.30748463 0.18763967 -0.36381018 0.26476032 0.59165466 0.08939757 -0.2612652 -0.064452566 -0.12667485 0.0427 0.010605519 0.2647663 0.16573836 0.1784476 0.2259593 0.0066238693 -0.4702135 -0.03624892 0.05402908 0.37156942 -0.24556763 0.11583706 0.24659196 0.26177672 0.33654493 0.20503591 0.071378715 0.18072534 0.06890594 0.46046633 0.117116615 0.13088499 -0.02047589 0.10872093 0.28448266 -0.113250926 0.10660415 -0.038287036 0.2953111 -0.4689976 0.6919592 -0.1509584 0.10244325 0.21436949 0.29459053 -0.2128476 0.06538794 0.34363857 -0.1584128 -0.3451385 0.074924804 0.26540023 0.07880285 0.030546881 -0.2510561 -0.33750436 0.1705083 0.17067413 -0.024132255 -0.38198674 0.020670472 -0.22172296 -0.2318015 0.015367688 0.3468207 -0.42030042 -0.018488802 0.15336378 -0.034529384 -0.12524693 0.14028206 -0.011664793 0.076016076 -0.1127449 0.025074326 0.08205085 -0.12245052 0.07510068 0.13375987 0.27968463 0.23475651 0.3143564 0.14511131 0.4930587 -0.3085576 0.15208554 -0.34747368 0.1937717 0.049946535 0.57691556 -0.07497202 -0.0090945745 -0.28611124 0.35634437 -0.2604985 -0.27456698 0.17549753 -0.61824584 -0.048506334 -0.06993347 0.07155568 -0.40975493 -0.23644798 -0.07341221 0.11641939 -0.29651958 0.25562298 -0.045930475 0.3430972 0.16227949 0.22547637 0.29038134 0.024770979 -0.21313913 -0.028289448 0.90226334 -0.25133112 0.03689022 0.287755 0.032896996 0.25865352 0.25854334 -0.22804725 -0.3673572 -0.06578349 -0.30965757 -0.16061917 0.13622163 0.21997663 -0.40402967 0.15971096 0.32746017 -0.16189285 0.123518325 0.010164602 0.26961732 -0.0022456807 0.042964227 -0.53867275 -0.18594867 0.12345939 -0.2832074 -0.025961252 -0.23966496 -0.16251338 -0.23873207 0.36721388 0.19390169 -0.62515545 -0.19888204 0.23441878 0.05554053 -0.2958108 0.14301893 -0.66700274 0.44775417 -0.09707161 -0.032746576 0.06188066 0.3142045 0.04460905 -0.020558057 -0.21376869 0.22958122 0.083413966 0.0034321493 0.32860506 -0.34797105 0.13799219 0.018948535 -0.01775419 0.30085206 0.13046198 -0.16702792 -0.07993954 -0.07641644 0.2088144 0.42580634 -0.37277433 -0.17618316 0.039673388 -0.07110487 0.16868982 -0.10660782 -0.3873064 -0.31879207 -0.2859067 -0.106198 0.048892517 -0.09243993 -0.19057396 0.22144958 -0.38239977 0.24561292 -0.41758275 0.46425295 0.18434182 -0.38584578 -0.3640028 0.04311116 0.08398281 -0.16621645 -0.06221223 -0.25873455 -0.17824076 -0.38598287 -0.13822713 -0.070914224 -0.12340551 0.103134245 -0.25201514 0.06288753 -0.09616245 -0.25059605 -0.43794668 -0.16698538 0.32451808 0.012070372 -0.0064983508 0.51780766 0.13398318 -0.16667527 -0.2969289 -0.18269005 0.20604041 0.35098588 -0.06896843 -0.5044582 -0.22101356 -0.25640193 0.17303771 -0.31032944 0.07411242 -0.23187667 0.0612541 0.26546374 -0.13161698 0.20867468 0.326245 0.36255234 -0.029948846 -0.21791247 -0.3119786 0.05505893 -0.28138804 0.12577309 0.13335095 0.13235514 -0.0214887 0.25623927 0.12278128 -0.105626285 -0.13362911 -0.22613302 -0.20985453 -0.25453475 -0.0693509 0.13603 0.07944451 0.26020807 -0.23366877 -0.46349505 0.37728575 0.14919597 0.13269924 -0.3917913
rm-####b -0.35551286 -0.44036105 0.23181254 0.20550254 -0.035034686 0.17447439 -0.062459514 0.17322724 0.24042518 -0.041086495 0.06218521 -0.010729253 -0.13235962 0.11028252 -0.111750245 0.1258724 -0.13848804 -0.031409398 -0.051059905 -0.29433295 0.3392687 0.07387082 0.1121656 -0.19078822 -0.69683456 -0.17715874 -0.22508052 0.120978005 0.177393 0.38070902 0.33690503 0.024781069 0.17528073 -0.15514907 -0.19365339 -0.46420234 0.10404098 0.3209079 0.08368018 0.1573375 0.34518445 0.26518777 0.07298659 -0.19869643 -0.07380204 -0.026529228 0.17179884 0.28408486 0.19986592 0.09144438 0.30125076 -0.23086919 0.19154814 -0.10317513 -0.18291475 -0.29998273 0.12717198 0.1986116 0.21684457 -0.19282931 -0.1486393 -0.25398022 -0.4316638 -0.051589426 -0.3100907 -0.31014547 0.020192292 0.44168085 -0.23324572 -0.014094103 0.2613425 0.23337872 0.11255931 -0.0092874365 0.37176776 -0.26875687 0.062311675 0.0595998 0.013620333 0.018403891 0.24024309 0.44685018 0.078343466 0.023611741 0.3021746 -0.16880512 0.17377177 0.13905984 -0.09573471 -0.21260941 0.00624255 -0.24930023 0.1457783 -0.18054458 -0.15640074 -0.1427697 -0.16444905 0.18300572 0.1384397 -0.25103125 -0.65399694 -0.24906006 0.03629775 0.2910152 0.017696263 -0.04859241 0.22893621 0.1760336 0.16451566 0.16236237 -0.048632424 0.38688135 0.28964385 0.12998705 0.055137433 -0.015707029 -0.23705305 0.1045452 -0.013830556 0.2662107 0.10144263 -0.21611676 -0.23871826 0.11869863 -0.332518 -0.285044 0.1864446 0.122905664 0.13712198 -0.31240496 -0.13530648 -0.25142345 -0.19003941 0.06922348 0.09648431 0.1377836 0.46066588 -0.092830926 0.47521552 0.24317412 -0.1788884 0.009589192 0.22349063 -0.19828674 -0.35588232 -0.29097962 0.019861609 -0.17211391 -0.156839 -0.020085376 0.07668706 -0.10801453 -0.12366573 0.15646708 0.20430487 -0.05585288 -0.08430443 0.028350443 0.0020872178 -0.123039074 0.02552483 -0.2318851 0.007762578 -0.3512404 -0.04995654 0.2924381 -0.19904494 -0.059654 -0.22740825 0.17162701 -0.41899845 -0.13461903 -0.45061594 0.10872889 0.12443696 -0.31054023 0.4721423 -0.17337129 0.13208523 -0.080067985 -0.3058032 -0.18496205 -0.114884056 0.263616 -0.15618166 0.15269284 -0.34925503 0.0506092 -0.09840538 0.14920148 0.04285389 -0.13008574 -0.075876415 -0.032655068 -0.1894646 0.25130874 0.011436837 0.2237279 0.017503189 -0.26726207 -0.08904308 -0.053445473 -0.06445959 0.048940323 -0.06276006 0.062301274 0.042031307 -0.10954745 0.19703117 -0.11001067 0.39203906 0.28662232 -0.183897 -0.24807765 -0.02164735 -0.19826864 0.27252987 -0.22342536 -0.08403121 0.09350614 -0.34631965 -0.08861118 0.11934623 0.01883897 -0.01722179 0.14146066 0.17239825 -0.12335668 0.011770271 0.22344542 -0.30169526 -0.136675 0.08792998 -0.048529238 -0.16955079 0.27664036 -0.065718986 0.32973662 -0.24126758 -0.34826055 -0.05881975 -0.28503358 0.021372862 -0.061156515 -0.18291336 0.1969556 0.15140432 -0.09348429 0.06546335 0.04642213 0.12636344 -0.025164563 0.023024121 0.10027705 -0.005191318 0.12565595 -0.059921093 0.20599306 0.3848668 0.018027835 0.0709818 0.3065817 -0.27766615 -0.08356605 0.26738185 -0.098843135 0.45939726 -0.37241775 0.10838122 0.37372854 0.14339255 0.016329903 -0.06291669 0.50496286 -0.010390983 0.011080976 0.17797679 0.07729423 -0.020558758 0.22823243 0.022617877 0.10189322 0.2818408 0.11486143 0.30337304 0.14198314 -0.17074932 -0.15547568 -0.12387987 -0.14905983 0.11233921 -0.09741267 0.17451882 0.32191005 -0.09649235 -0.32287973 0.14328167 0.17451927 0.017484413 -0.24811684
dmpr -0.0203725 -0.4248119 -0.085053116 -0.07460845 0.16046272 0.24041896 -0.085223496 0.13199216 -0.20646502 -0.17349976 0.15001231 -0.059743263 0.05415265 0.22463728 0.32171673 -0.15198667 0.08808769 0.15720534 0.24947566 -0.043152668 -0.082313724 -0.34563452 0.24187231 0.04059278 -0.24965772 0.032776102 -0.48560333 -0.3451478 0.2237239 -0.0395687 0.2823699 -0.10606063 0.055977337 0.12001202 -0.1495248 0.5088156 -0.21642612 0.32588822 0.13170691 -0.11594446 0.070775494 -0.042061508 -0.16008238 -0.16259827 0.031971127 0.3931708 -0.21291421 -0.21475326 -0.019230988 0.06263993 0.24006753 0.23802827 -0.16875584 -0.10431076 -0.104867525 -0.2419886 0.041739017 -0.003924095 -0.17725694 0.07133656 0.43363732 -0.0414394 0.29573575 -0.33425748 -0.37140304 0.3320942 0.15607587 0.025463171 0.01921164 -0.1472784 0.24948412 -0.28736544 -0.12056179 0.34593204 0.45891026 -0.11063999 0.31372127 0.31269974 0.0046941293 0.15775335 -0.11902208 0.21087536 -0.35116857 -0.1374831 0.0035107622 -0.0134657305 0.14544475 0.0013509982 0.30633935 -0.2309254 0.3178392 -0.053036492 0.0064215763 0.0879689 -0.35359576 0.012793927 -0.26200688 -0.05617715 0.1365015 -0.121221825 -0.17691219 0.119157724 -0.18323568 0.15326528 0.49464765 0.13275757 -0.08895216 0.19250786 0.18120354 -0.3937505 0.18691581 -0.11820123 0.15946366 0.6034739 -0.14364302 -0.011074693 -0.017624492 0.102741174 -0.17669982 0.20683496 0.25239596 -0.048857447 0.4315666 0.4780643 -0.47653392 0.1468279 -0.63971883 0.1655409 -0.14484929 -0.08316893 -0.2669225 -0.21757746 -0.12214113 -0.044567272 -0.083352014 -0.08813969 -0.59855294 -0.053239916 -0.23954816 -0.27102274 0.011150661 0.13473669 0.10220768 -0.22833656 -0.19987646 0.3642271 0.100986235 -0.56969136 0.46938622 0.07202528 -0.2838079 0.20367694 -0.20939463 0.1016153 -0.3493571 -0.2058677 -0.18319385 0.31054577 -0.056433633 0.34011683 0.4078964 0.09380079 -0.3469926 -0.17966788 -0.11900788 -0.015329837 0.027244411 0.12273046 0.5396947 0.22823311 -0.6162293 -0.36680683 -0.130583 -0.17761639 0.13047262 -0.6336807 -0.25463438 -0.46437573 -0.19539411 0.046709787 0.32951963 -0.19405529 0.37994045 0.14103124 -0.4818458 -0.11696168 -0.2993961 0.114305474 -0.5760731 -0.22645557 0.2269072 -0.25683156 0.05102193 -0.39283887 -0.28589767 -0.08787155 -0.29498574 0.30071148 -0.03235664 -0.013826337 0.07366077 0.11414904 0.0005745732 0.09825166 0.068279065 0.101926155 -0.27586257 0.20845717 0.24264337 -0.12656006 -0.1649022 0.43557236 -0.25057435 -0.36628377 -0.051698916 -0.19763294 -0.40131664 -0.38578895 -0.25069323 -0.13386123 -0.43508673 0.008256054 -0.72091794 0.40903777 0.43776083 -0.104956396 0.4171899 -0.20821251 -0.060907748 0.38792053 0.25739366 -0.29786274 -0.108589984 -0.025552843 0.39289045 -0.36006427 0.018198619 0.017550346 0.24753346 -0.33264357 -0.46404448 -0.25974974 0.29226142 0.19786997 0.5044827 0.0500169 -0.12817793 -0.25670782 0.17550622 0.22344191 0.31157458 -0.22764853 -0.24159168 0.3819941 0.08420826 -0.50750095 0.0016671473 0.23571773 -0.109562404 0.40434515 -0.43965054 0.030330675 -0.4421477 0.2827252 0.116280824 0.049397565 0.2115004 -0.03777504 -0.1926672 0.035228502 -0.018891407 0.069460295 0.08347613 0.44237787 0.041154426 0.23625118 -0.19767684 0.036609307 0.118607655 -0.13111582 0.10874104 0.18333618 -0.24359559 0.007672202 0.13174528 -0.4113477 -0.10392262 -0.49038976 0.080776356 -0.3928237 -0.008462804 -0.26795942 -0.046225183 -0.2123217 0.26876146 0.31180093 0.45619377 -0.21970807 -0.03515217 0.1561001
cmd 0.049886126 -0.49505296 -0.19085087 0.41212365 0.49774802 0.12715748 -0.3482377 0.21366483 -0.120524995 0.2957144 0.29572594 -0.4278936 -0.026471602 -0.015528808 0.15617839 -0.19136731 -0.2120144 0.24441534 0.18135671 0.019932486 0.013589063 -0.64511836 -0.21952486 0.1540577 -0.1982072 -0.22957875 -0.26446834 -0.09500068 -0.014472169 0.13756852 0.17354101 0.086425535 0.22776173 -0.32576394 -0.35316628 0.29220057 -0.18671401 -0.069172315 0.17738973 -0.16424336 -0.30802962 0.24125616 -0.01506979 -0.20406649 -0.121207975 0.1075506 0.18625061 -0.057010494 0.53311706 0.11036764 0.19953324 0.45278957 -0.23414537 -0.2626994 -0.28029227 0.1319442 0.18262523 -0.27177906 -0.10732523 0.07510346 0.1983061 -0.043300502 -0.057810567 -0.0987495 -0.08169172 0.27478826 0.33981556 0.12738328 -0.12864344 0.2656914 -0.296497 0.38626024 0.19114095 -0.3737326 0.3280443 -0.078762956 0.36022666 0.060234997 -0.059739057 0.032610033 0.17222762 0.039980374 0.25491667 0.6068922 -0.5384424 -0.16086982 -0.32895756 0.012280277 -0.0055509177 -0.021871332 -0.53596544 -0.013870096 0.14540194 -0.483383 -0.20434043 -0.52425647 -0.26879883 -0.22483611 -0.08502485 0.13009822 0.26373073 0.60299253 -0.122945316 0.03353674 -0.18961394 0.04959655 0.40351692 0.08709508 0.26924914 -0.55088663 -0.18792424 -0.077513374 -0.14418747 0.028534524 1.0363206 0.015166511 -0.61906916 -0.019755408 0.6119945 -0.30701137 -0.016625533 0.30007863 0.41870806 0.12546207 0.18012753 0.02636876 -0.22228126 -0.004077029 -0.28333962 0.05370607 -0.15765184 -0.34631148 -0.41019598 0.3409076 -0.23230511 0.21733606 0.07603869 0.020695308 0.48929852 -0.5377963 0.3147199 0.13855061 0.1912719 -0.36910173 0.2572009 -0.21257322 -0.4988587 0.05043191 -0.15110628 -0.019167084 -0.19236086 -0.039647106 -0.24967542 0.40292627 0.1704249 -0.65233374 -0.20410253 0.3548252 -0.06789413 0.14948659 0.42320627 -0.23396972 -0.54829246 0.0703499 0.030256016 0.33044618 0.09799397 0.24534419 0.119196236 0.07381031 0.0047959457 0.44197 0.26938388 -0.011916995 -0.5778738 -0.08831803 0.19523251 0.29204175 -0.22304805 -0.085666195 0.10198198 -0.27074906 -0.13319828 0.3653837 -0.44314364 -0.3265776 -0.09491904 -0.5582162 0.1095984 -0.25750753 0.090429924 -0.28729343 0.10237197 0.09636449 0.005140877 0.380244 0.12340135 0.17131332 0.34602183 0.07755497 -0.063080125 -0.36233607 0.24042057 -0.20236447 -0.46945179 -0.10019402 -0.20186497 0.7069616 0.18429688 -0.44874403 0.52159154 0.25710973 -0.20773464 0.053111788 0.43202597 -0.1732268 -0.517843 -0.24808297 -0.24399278 0.0030109454 -0.09779736 0.1278315 -0.4789484 0.4636041 -0.45736656 0.14661802 0.3210812 -0.57318306 -0.33890864 0.5077233 0.29276046 -0.17058726 -0.02575715 0.17902328 0.16562639 0.116785645 0.15353039 0.2216651 -0.29324093 0.07492611 -0.48110977 0.48231807 -0.063251585 -0.080949605 0.07129141 -0.0044353288 -0.64426076 0.17023697 -0.2428243 -0.01690068 -0.3038871 -0.18875518 -0.6260388 0.10387069 -0.118542895 -0.027659984 -0.23320231 -0.07380175 -0.21346796 -0.62825835 -0.14328687 -0.0747335 -0.22359808 0.25667477 -0.035230983 0.31432545 0.3264408 -0.32392877 0.76635003 0.29789755 0.22421972 0.36688253 0.3069755 0.5066735 -0.12956388 -0.5646082 -0.02279719 0.11662884 -0.39553523 -0.10253328 -0.08248774 0.029823469 -0.022980707 0.4244855 0.17161508 0.07983416 0.18270512 0.25981376 0.2931286 0.13086168 0.17506954 0.41325128 -0.05257528 -0.18096623 -0.055881225 0.033892646 0.17650446 -0.44780692 -0.26135653 -0.29704127
sup -0.1981592 -0.30390856 -0.14912017 0.22260283 -0.20953128 0.42289126 -0.25163072 0.28563938 0.076598614 0.06109472 0.24887666 -0.28134263 0.25774944 0.22840904 0.12705319 0.0058162757 0.41665792 0.061860144 -0.04078132 -0.41949248 -0.20501146 0.018003704 0.09520373 0.29515457 -0.007417194 -0.16546038 -0.5237449 0.044562213 0.36232483 0.006459449 -0.15943076 -0.22334988 -0.019267906 0.06760706 -0.23144612 0.23287386 -0.18094099 -0.17513368 0.2583618 0.13406585 0.05420613 0.2404585 -0.22484638 -0.038728245 0.36463577 0.028803764 -0.08331544 0.32250848 0.2230866 -0.24105214 0.4037413 0.11003783 -0.013212591 -0.39489865 -0.40959942 -0.1356023 -0.31380305 0.2295912 0.096947774 -0.13481139 -0.100874156 0.09949605 0.08588429 0.11500884 -0.22926253 -0.026422245 0.0058129407 0.1907529 0.026174469 -0.16312674 0.17536998 0.06656905 -0.033858098 0.11731338 0.3568873 -0.36065456 0.33669615 0.11939151 0.16930301 0.10497482 -0.03593445 0.45717883 0.1633947 -0.09043722 -0.0026914373 -0.008152281 0.35093555 -0.15848671 0.22456028 -0.22901417 0.15589309 0.32439792 0.20060891 -0.14188905 0.16268314 -0.13846497 -0.0077043194 0.23720957 -0.04710921 -0.2872357 0.56978834 0.31051868 -0.35163063 -0.007884297 0.21645989 -0.08943175 0.03880975 0.4675027 -0.067152955 -0.015832067 -0.0016019025 -0.08954547 0.267141 0.16146703 0.46538103 0.27098203 -0.41014108 -0.16335396 0.1561001 -0.1031401 0.12926878 0.08187785 0.2833015 0.20087935 -0.25102714 0.2986244 -0.24370432 0.17794622 -0.22192559 -0.31236744 -0.12871431 0.009168655 0.28802532 -0.053111106 0.23538145 -0.34914094 -0.4390146 -0.20175247 0.059010122 -0.06787736 0.0046554296 0.28153884 -0.1703936 -0.023725793 -0.17194794 0.12172348 0.23982579 0.05082927 0.09868834 -0.031035472 -0.4588012 0.0421973 -0.32046008 0.116621 -0.13233005 -0.33955604 0.22370069 -0.42982835 0.05684374 0.13111861 0.23713097 -0.19535522 0.42159522 -0.25847104 0.1251447 0.098184176 -0.058354616 -0.05572995 0.3011199 0.3200765 -0.46904218 0.22651392 -0.29328978 0.22835746 -0.03701421 -0.66729444 -0.2603818 -0.40113246 -0.11382583 -0.29842654 0.027291687 0.1377501 -0.08173756 0.37037742 -0.3577431 0.04597475 -0.25671747 0.18225396 -0.24081601 -0.19411686 -0.2419093 0.11877599 -0.4229475 0.038507156 0.035183314 0.33301258 0.25435948 0.48732558 -0.35075998 0.1597842 -0.16280499 0.08834156 0.30245388 0.11277565 0.22454596 0.1717955 0.1345001 -0.06655737 -0.0006847219 -0.15718326 0.042135414 -0.11331844 0.21777277 0.18171473 0.30515945 -0.05769325 -0.12600772 -0.10019749 0.38119134 -0.10646625 -0.32933345 0.28762782 -0.18714647 0.4071746 0.047475193 0.40433544 0.108568236 0.02018823 0.04839847 0.41690987 -0.20709832 -0.538044 -0.5001394 -0.24732152 0.3158459 0.3331696 0.038068675 0.4032263 0.044970233 -0.0781859 -0.0288081 -0.42263842 0.15046301 -0.118523754 -0.15045725 0.039394338 -0.008665465 -0.5028042 0.22857258 -0.0038742458 0.096630976 -0.30732793 0.053968925 -0.08134793 -0.21704346 -0.2078688 -0.25580513 -0.0019577434 -0.02110485 -0.041891325 0.070981115 -0.42417154 -0.4911717 0.250825 0.54897153 0.28360185 -0.049301833 0.023645805 0.125585 -0.26540157 -0.28932574 0.17479391 0.12767543 0.32891577 -0.16462438 -0.42667794 -0.33225316 -0.0224068 -0.2086477 -0.20823592 -0.23314388 -0.07687613 0.110085085 0.45080227 0.04620759 -0.40723115 0.21182108 0.06931367 -0.056717522 0.111595884 -0.4050264 0.030919611 0.2607458 0.45832175 0.41624936 -0.45741838 0.23738632 -0.36731774 -0.14346285 -0.13999456
flo 0.23127382 -0.47714752 -0.28312016 0.10876456 -0.3686633 0.09043497 -0.1150748 0.026771294 0.8598401 -0.09806861 0.44876647 -0.070973925 0.09676498 -0.24634561 0.24810776 -0.09221387 0.18719195 0.07821713 0.18464741 -0.11510408 -0.08739075 0.0863253 -0.13994119 0.0003726512 -0.18105592 -0.3091777 -0.15018462 -0.2047139 0.16513602 -0.063250095 -0.029511718 -0.37215704 0.39502427 -0.20654933 0.53687626 -0.071652204 -0.25315458 0.09608294 0.382934 0.07635075 -0.07663049 0.22285157 0.26781848 -0.29975048 0.2922974 0.14342673 0.23788992 0.540844 0.21617731 -0.38743198 0.52221704 0.32067648 -0.40435955 -0.5142624 -0.20917635 -0.2479659 -0.037315123 0.51606226 -0.10696972 0.06917224 0.09546213 -0.0059774094 -0.06304888 -0.41644284 -0.1395809 -0.021408048 -0.14790313 -0.1937366 0.40421557 -0.6757179 -0.14476374 -0.07050429 0.002034107 0.46688822 0.09801706 0.05099593 0.099510066 0.027396224 0.09413521 -0.30750275 -0.03636718 0.5702158 0.10321225 0.22068116 0.49927455 0.2528902 0.10946062 -0.08894951 0.003606929 -0.24393986 0.3637191 0.2559574 0.4852976 -0.30987963 -0.053721182 -0.5196837 -0.053116735 0.26757893 0.22845037 -0.17216271 0.23004134 0.0898688 -0.055627365 -0.16904321 0.35575 0.044130746 0.3951154 0.4303272 0.28518504 0.25285137 -0.09871183 0.31878647 0.021785468 0.08294284 0.2358474 0.21410067 -0.43991244 0.4106008 0.15208921 0.1461947 0.3739708 0.1250601 0.100885205 -0.0009969005 -0.66899025 0.22828388 -0.47530988 -0.10564487 0.1105843 -0.468878 0.0117767695 -0.26012817 0.32338476 0.06383972 0.04065609 -0.40266967 -0.007836127 0.05104995 0.045565914 -0.34542 -0.17333859 0.32057902 -0.033506352 -0.13669084 0.10867712 0.47988978 0.110558994 -0.31287456 -0.29473847 -0.32664338 -0.049838595 -0.4582821 -0.27534986 0.0042075347 -0.3234731 0.0055774674 -0.2537526 0.07574337 0.057100765 -0.21817374 0.49828038 0.12882975 0.14557943 -0.11002675 0.16831875 0.06773373 -0.46039927 0.44841656 -0.1625712 0.42054886 -0.33590078 0.17954297 0.33951548 0.020026824 0.07070696 -0.34073573 -0.16399285 0.30369586 0.1699396 -0.080037 -0.2205198 -0.33455646 0.08778488 -0.0150538385 -0.15743428 0.07923878 0.12223504 0.09559181 -0.13659807 0.078686066 -0.22797506 0.10927276 -0.22661833 -0.3426267 0.28649873 0.07795153 0.07119091 0.30998448 -0.2974987 0.15786877 -0.0019121666 0.087504394 -0.03776858 0.2713868 -0.27376184 0.15395091 0.19266024 0.02915295 0.010509474 -0.27207866 0.040661264 0.41373873 -0.19868858 0.14624323 -0.048085306 -0.49006248 -0.2786677 0.16008252 0.08169687 0.19977613 -0.1975302 0.18857862 0.11667718 0.11754026 0.17436565 0.21511403 0.5337769 -0.3944356 -0.17010756 0.3496574 -0.13218884 -0.56608063 -0.55634403 -0.12303059 -0.013793694 0.2815291 -0.14262961 -0.008427273 -0.12697501 0.06323663 -0.2702793 -0.03626728 -0.23614934 0.24115644 -0.2751924 0.43225706 0.19814028 -0.017843774 0.21712439 0.020372506 0.46263278 -0.27596328 -0.049254905 0.22501771 -0.07958464 0.016562788 -0.39719573 -0.3643261 -0.11758907 0.14169529 -0.23557872 -0.20620316 -0.54859227 -0.29313314 0.10050107 -0.29216063 0.3796258 0.04943409 -0.05223863 -0.018250609 -0.42582798 0.12302873 0.0558767 0.50087345 -0.0035680237 -0.42457303 -0.13207223 0.16055247 0.042232774 0.2363181 -0.3618138 0.09693139 -0.022448203 0.08313409 0.35150492 -0.13263376 0.17889775 -0.15235856 0.40527347 -0.1849234 -0.15515603 -0.07383379 0.4005455 0.28939256 0.086860865 -0.36607012 0.6972524 -0.6209212 0.0523958 -0.066139214
zn 0.17747693 -0.46892318 -0.2070093 -0.20390312 -0.39460397 -0.09023413 0.37734517 0.43685296 0.037653513 -0.2253252 0.33111137 -0.46901396 0.33391458 0.062600344 0.11546325 -0.2853685 0.039731536 0.21840125 -0.23334806 0.030844165 -0.1990094 -0.35567254 -0.14555512 0.047547724 0.41136178 -0.17983429 -0.30599254 -0.077727616 -0.17244652 0.016643407 0.025956292 0.20149115 0.2588206 -0.029702138 0.14002001 0.41588175 -0.37719718 0.17036834 0.49601918 -0.24852264 0.13015495 -0.23376763 -0.41089863 -0.35813805 0.3653023 0.17785975 -0.034474924 -0.053574733 0.051497333 -0.0004734975 -0.32858616 0.0008099358 0.00705785 -0.38362256 0.17846517 -0.15971337 0.23655926 0.010278681 -0.1968171 0.40287897 0.48330233 0.24029528 -0.054469272 0.07207798 0.114615165 0.017587924 0.37997413 -0.1936499 -0.42174855 -0.115600154 -0.21358344 0.17942505 0.032820687 0.17603631 0.34251934 -0.09837913 0.36105615 0.1849351 0.08327933 -0.17760944 0.3486395 0.29225832 0.034487024 -0.07365423 0.20888226 -0.085203946 -0.05287648 -0.07282145 0.49241966 -0.17969461 -0.052877657 -0.21528624 0.2907616 -0.2522395 0.29489616 0.13584368 -0.22133149 0.17001744 -0.043207813 -0.14036004 0.52756506 0.71092117 -0.1766109 -0.3835905 -0.03159574 0.11026872 -0.25274855 0.054321907 -0.16852556 -0.56430954 -0.092939384 -0.22664511 0.03635976 -0.04766171 0.34267622 0.35719767 -0.029749006 0.2666626 0.33047786 0.17183265 -0.17619383 -0.13042653 0.2958892 -0.018293161 0.33592123 0.66075844 -0.4846264 -0.049166456 -0.5053872 0.22913285 -0.29805765 0.29132664 -0.1790902 0.42233804 0.12789235 -0.44096926 -0.49862403 0.55631095 0.021346226 -0.36813548 -0.37208888 0.03365661 -0.45031005 0.006861797 0.035529193 0.36827213 0.060890786 -0.23781309 0.044829376 0.21710956 -0.5077239 -0.12635753 -0.45164263 0.17796609 -0.017926116 -0.3104651 -0.061327193 -0.18136917 -0.023314971 0.35421768 0.44528705 -0.20472836 -0.17565301 0.1079138 0.22601987 0.1399902 0.35142052 -0.32424244 0.303732 0.031693462 0.0049216417 0.23811805 -0.12205749 0.17173381 -0.19761671 -0.5405683 -0.38649267 -0.2629958 0.26243097 -0.42612612 -0.19224562 0.1303511 -0.3478264 -0.14721672 -0.25132126 0.30148193 0.0894873 -0.20135957 -0.1199194 -0.34531164 0.10569245 0.42870674 -0.37438595 -0.053509586 -0.016728187 0.014361851 -0.26897082 0.3258759 0.034579355 0.5703573 -0.043056726 -0.06383952 -0.13181077 0.074971154 -0.084430195 -0.018877387 -0.5031001 -0.022815056 -0.300016 -0.23091061 0.06585696 0.2673094 0.0144786835 0.0056080357 0.18780822 -0.40085214 -0.24836789 0.27086636 0.26108828 0.0630308 -0.12768894 -0.1415101 -0.6166951 0.20937814 -0.03875757 0.25861284 -0.16081417 -0.3505838 -0.23370373 0.27200168 0.16909114 0.21015848 -0.15663978 0.1218141 0.18867388 -0.05756347 0.502177 -0.07927594 -0.47625658 -0.23225763 -0.60878843 -0.18572277 -0.048672553 -0.012941769 0.09792571 0.35937497 -0.6194895 -0.43717986 -0.42496625 -0.0155026205 -0.010055323 -0.23079944 -0.03172027 0.43668747 -0.024867788 -0.01659785 -0.11284471 0.07941752 0.101819 0.056335833 -0.2695938 -0.3578971 -0.12785126 0.23986782 0.20717743 0.2553416 0.06018155 -0.35072193 0.046801012 -0.34281585 0.27536932 -0.061994474 0.51260966 -0.35865355 -0.053342726 -0.04922576 -0.18111293 0.21040584 -0.060960345 -0.114186816 0.27223876 -0.06850063 0.44245154 0.20519443 -0.3359037 -0.32418963 0.12156179 -0.15532899 0.13122919 -0.032785572 -0.27654725 -0.38952664 0.34402418 0.12964502 0.16270873 -0.5468876 -0.18053739 -0.26934892 -0.07397418 0.017950159
t 0.101444356 -0.04957853 0.0017979605 0.0309463 -0.7964516 0.70067567 0.10092715 -0.2606209 -0.26370475 -0.05101188 0.1976498 -0.5796996 -0.12723015 -0.3441917 0.1398563 -0.12439711 -0.10163904 0.03666247 0.059950832 -0.19542347 -0.41137612 0.14604722 0.29760385 0.017465394 0.51677436 0.3393569 -0.22225694 -0.1203274 -0.3788407 -0.016674185 -0.30292898 0.040194813 0.115645856 -0.15171318 0.16979152 -0.2281636 -0.23377496 0.26025578 -0.30900446 -0.22219574 0.0074602263 -0.041738085 -0.30726758 0.0649493 0.15664093 0.1822986 -0.22285455 0.28214872 0.054440197 -0.076168 -0.01849525 0.15823099 0.15542607 -0.14039955 -0.13629861 -0.59061795 -0.3044833 0.34617007 0.05611173 -0.3578556 0.3196165 0.1848914 -0.37010357 -0.38566214 0.31469637 0.3840484 0.04754902 0.18778008 -0.029238526 -0.11410852 -0.45411023 -0.2259425 -0.4601252 0.8280913 -0.048948795 0.27406648 0.27628443 -0.13205333 0.12822674 -0.41154066 0.40552658 0.558909 0.1776599 -0.5121951 -0.40584055 -0.021463208 0.10766465 0.23775212 0.27260217 0.06304314 0.13162522 0.18261632 0.34716523 -0.22500485 0.5586642 -0.09333775 -0.16080561 -0.081438795 0.009550181 0.16473594 0.21820557 0.27581924 -0.050062224 -0.40691128 -0.5744665 0.019069312 -0.07179951 -0.319251 -0.035294745 -0.15392813 -0.03306637 -0.30216932 0.07430859 -0.09671289 0.3549947 0.42173535 0.06873021 0.12298079 -0.17314735 0.032462705 0.29201764 -0.15587881 0.20728515 0.048266567 -0.05649059 0.3923888 0.22295186 0.34450004 -0.038141284 0.1631601 -0.17976606 0.5331572 -0.3045852 -0.16643704 -0.30222973 -0.26555032 -0.3673045 0.3306581 0.08292748 -0.22549976 0.34125045 0.20932215 -0.25956407 -0.340998 0.3580537 0.23392956 -0.14414336 -0.27566662 -0.09071364 0.35312733 -0.3489976 -0.02043759 -0.5454614 0.04391709 0.17799172 -0.1399699 -0.23231146 -0.27091858 0.19138734 -0.07067142 0.2771585 -0.13321345 0.16189492 0.2937612 0.16746184 -0.11457172 -0.07760962 -0.06506357 -0.054517422 -0.09422147 0.44517964 -0.43731213 0.059070215 -0.38849992 -0.17825706 0.089033835 -0.29667062 0.068736486 0.28664455 -0.043385204 -0.14900893 -0.14398193 -0.24805927 -0.20619616 -0.21731974 0.25425282 0.08659249 0.50910926 0.48939806 -0.13509874 -0.20630048 0.6140397 -0.15144634 0.0618842 -0.08409054 0.41572627 0.09575697 0.084456526 -0.08494107 0.19535328 0.1564718 -0.35812584 -0.062208988 0.12746291 -0.23998769 -0.3084563 -0.5104201 -0.028859736 -0.12736331 -0.24775188 0.22030142 0.23915 -0.0972321 -0.1007559 0.1092001 -0.6629673 -0.17228276 -0.1163444 0.4778727 -0.54827696 -0.23031548 -0.32289442 -0.20161432 0.09442677 0.42663956 0.6145418 0.23246679 -0.32644814 -0.20007691 0.71601015 0.22273684 0.40673807 0.4211738 -0.07104388 0.4277178 -0.23441595 -0.030349338 -0.26331246 -0.09961981 -0.24987178 0.036636513 -0.08587186 -0.20037885 0.17011048 0.2727172 0.17090501 -0.24301982 -0.653137 0.24583627 -0.271292 0.057166845 -0.6672677 0.14577414 0.36832568 0.39062223 0.49818727 0.18038146 0.13621332 0.17961006 -0.010466177 -0.23014712 -0.08372552 -0.26919615 -0.042620827 -0.16625232 -0.23849675 0.2634596 0.05360547 0.038208824 0.15804149 0.58055794 -0.039233938 0.23499125 -0.1860203 0.49513802 -0.020900624 0.34326747 0.52201444 0.33714485 -0.18976384 -0.28117716 0.03503428 0.03054846 -0.044026807 -0.5670529 0.56277746 0.15774526 -0.052969094 0.50102615 -0.9232583 0.065001756 0.2535194 0.3410611 -0.086773194 0.06642789 -0.4668495 -0.17017257 0.13576853 0.110528946 0.099534355
ef# -0.22065349 0.08245394 0.1642829 0.16211349 0.2909036 -0.28337502 -0.12638915 0.13060698 -0.095194265 0.22676185 0.36259758 -0.4155827 0.10820148 0.43232897 0.45966524 0.3578301 -0.20321895 0.04374726 0.52994704 -0.03787362 0.16752258 0.15495384 -0.4285505 -0.39438206 -0.19113855 -0.555813 -0.42296574 0.28411156 -0.057284407 -0.14765961 0.4485942 -0.23236798 -0.05450153 0.24637389 -0.43992355 0.3198859 -0.103922926 0.14560694 -0.07451985 -0.52383864 -0.13113882 0.18950374 -0.112112865 0.063619144 -0.20054516 -0.010008587 0.0019263643 -0.5559694 -0.4346716 0.09288542 0.58352023 0.09094402 -0.25444338 -0.18751216 -0.3393372 -0.14521952 -0.48412627 -0.3635898 -0.5007558 0.37378246 0.38528726 0.0032929005 0.5933857 -0.061095774 -0.016245145 -0.26290238 -0.26413083 -0.23496631 0.33305398 -0.02051405 0.4310854 0.84987307 -0.13978565 -0.041439004 0.20115934 -0.028469613 -0.23887165 0.29408112 -0.2305761 0.65553254 0.17293225 -0.3021559 0.6148493 0.25953394 -0.19528113 0.24345443 -0.036038745 0.09840903 0.15324643 -0.13529544 -0.13595526 0.05238502 -0.32246968 0.18937641 -0.22797172 0.34152845 0.27407354 0.40906668 -0.34561533 -0.52584076 -0.23998293 0.3016742 0.11159882 0.37972894 0.3373753 -0.33525902 -0.3556455 0.19450738 0.030515963 -0.21379915 0.34928265 -0.15475325 -0.24470413 -0.5330634 0.66517055 0.12886493 0.23516995 0.2848889 0.27667046 0.42249826 0.29062247 0.105617285 0.072851494 0.30669892 -0.31328237 0.039285034 0.20076624 -0.5627208 -0.09203077 0.49844393 0.22830936 -0.07072264 -0.29581556 0.09578047 -0.18247274 -0.023173027 0.047701117 -0.15267035 0.44476882 0.10831997 -0.027766576 -0.25677198 -0.22391693 -0.20587222 0.09203757 -0.12472165 -0.3792085 0.19519633 0.5332091 -0.23013946 -0.27204648 0.27328435 0.22317082 -0.017679999 0.2954926 -0.22443408 -0.2056957 0.116504446 0.50710714 0.5026987 0.2634569 -0.19937056 -0.1082552 -0.27153972 -0.4086493 -0.092925005 -0.5796078 -0.027571948 -0.079134844 0.12666517 -0.006778447 0.3486121 -0.25914028 0.22097106 0.31875113 0.027177561 -0.15294833 -0.55613405 0.24835296 -0.36160588 -0.42060027 -0.37052652 0.58318746 0.5472569 0.11641206 -0.36898965 0.12041915 -0.18704507 -0.2887874 -0.1763176 0.20952685 -0.14479196 -0.30655771 0.04675048 -0.31372002 0.32779866 0.046519555 -0.18342352 0.020536153 0.038589478 -0.24783315 -0.60048354 -0.12588489 -0.056799628 0.0044435808 -0.06780753 -0.17499736 0.22520597 -0.27786243 0.13142361 0.059861895 -0.16812581 -0.3586552 -0.36629742 -0.17801537 -0.06994522 -0.33595106 -0.04655396 0.09062645 -0.24446991 -0.6166867 0.06532127 0.04833737 0.3028044 -0.2971376 -0.21458833 0.10356805 -0.44167578 -0.029148998 0.32633483 -0.2765805 -0.5036994 0.20208248 -0.20987806 0.44581252 0.21368672 -0.23402067 0.06830229 -0.08171141 -0.3536592 -0.28926337 0.22185817 0.43851247 0.23236178 -0.633503 0.05842842 0.030259019 -0.47489977 -0.35182294 0.3512181 -0.30271968 -0.33163345 -0.3181175 -0.1517531 -0.07453682 -0.21498153 0.30826226 -0.11027518 0.29063812 -0.15485677 0.49499965 -0.036002595 0.13386093 -0.19831373 -0.23990756 0.22997859 0.2121003 0.2501403 -0.11015654 0.19213885 -0.2861098 0.48788196 0.39379364 0.23377994 -0.053731993 -0.2959418 -0.51685745 0.41391736 -0.029514354 -0.3594964 -0.25469992 -0.14494927 0.28800708 0.44051045 -0.47112185 -0.12828815 -0.010565359 0.12143288 -0.19951005 0.19121374 0.28794482 0.02399633 -0.18887249 0.122171246 0.085454114 0.055576917 -0.32947567 0.07437638 -0.33102033 -0.31669676
vfd -0.093342595 -0.052802213 -0.05753338 0.4133208 0.036627866 -0.06553149 -0.26357666 -0.09101332 0.083866596 0.254168 -0.23215465 0.18367589 -0.41251215 -0.19267228 0.29859367 0.095582716 -0.06889107 -0.20790818 0.06901735 0.09840163 -0.043891355 -0.14158832 -0.41749755 0.17156698 -0.4319839 -0.092164844 -0.6448837 0.026136015 0.06271776 0.54248816 0.39383405 -0.33157015 0.06686452 -0.20267308 0.1342286 0.37516612 -0.37546661 0.35807616 0.43455252 0.1793357 -0.16412605 0.37295184 -0.19828436 0.10604301 -0.08689974 -0.25341493 -0.21087967 -0.053093433 0.23883995 0.0510032 0.33102852 0.082430705 -0.4056344 -0.4867528 0.38285622 0.09511388 -0.29461923 -0.20532185 0.17961738 -0.08806753 -0.10403618 -0.12830913 -0.1432151 -0.23871677 0.30259353 -0.36809307 -0.040710866 0.29122838 0.57455206 -0.17291069 0.0011747432 0.23884827 -0.10588385 -0.024124384 0.14388002 0.29429588 -0.115324326 0.20086738 -0.025478242 0.38118806 -0.22234155 0.13488695 0.19316815 -0.15958638 -0.071601056 -0.33218136 0.3187897 0.4008375 0.04224177 0.08847795 -0.033449735 -0.26148742 -0.2064972 -0.0028767195 0.11224278 -0.0027831297 -0.30132657 -0.17888127 -0.44534588 0.26968095 -0.4650124 0.13346142 0.16906175 0.6128477 -0.14756018 -0.15831451 -0.06639046 0.18050183 0.43215674 -0.29871234 -0.19684243 -0.099040195 0.09792023 0.25445718 0.129017 0.18976006 0.2065132 0.19646356 0.5324138 -0.0775921 -0.044877566 -0.11982195 0.35867694 -0.07651707 -0.0019718967 -0.19797671 -0.016052991 -0.055747293 0.2073352 0.1757793 0.046648517 -0.16875058 0.13194394 0.33815175 0.06019508 0.25790727 0.19962601 -0.034699272 0.21369778 -0.23961218 -0.15255208 -0.23862597 0.34243798 -0.43928272 -0.19832344 -0.18394424 -0.5179052 -0.25335157 -0.0050451052 0.31891617 0.06553693 0.3907015 -0.11499972 -0.10358336 0.16369964 -0.4532278 -0.36814207 0.1363778 0.14039837 0.2834506 0.5105028 -0.10672142 0.2476225 0.07639156 -0.36199573 0.13683341 -0.15651019 0.017535651 -0.44680667 0.13716921 0.029475873 -0.24412097 -0.059355624 -0.23117836 0.41522107 0.34130493 -0.09052127 -0.15044749 -0.15390185 -0.1835548 -0.04617829 -0.24830492 0.49481684 0.37299615 -0.12354958 -0.3285928 0.35305938 0.22576196 -0.17036751 -0.122803874 0.0040434753 0.29065046 0.26133585 -0.24825734 -0.062035415 0.46273398 0.14557801 0.50834286 -0.03241448 -0.20628111 0.054924093 -0.04103998 -0.35694942 -0.108009115 0.0778593 -0.19027884 0.32397005 0.21317141 -0.030638425 -0.5360001 -0.17300755 -0.19619748 -0.44966015 -0.20251958 0.16582467 -0.11700696 -0.16993332 -0.07831134 0.25951695 -0.18646924 -0.313317 0.09879237 -0.17070006 0.040178135 -0.16573378 0.11103167 0.39948726 -0.5672955 0.021618413 -0.10411732 -0.038814656 -0.004619567 0.4795985 0.38201928 -0.02828828 0.15197356 -0.10189528 -0.14432096 0.10445628 -0.09250402 -0.17891861 -0.267131 0.2800972 0.18738033 -0.28298566 0.44832394 0.061360683 -0.11767778 -0.15792595 -0.22705081 0.15896797 0.008379734 -0.20923 0.4323936 0.20248853 -0.25561145 0.36492568 0.28991455 0.043428488 -0.015774587 0.12719329 -0.17849334 -0.1265573 -0.18260509 0.19671857 0.15455437 0.2671318 -0.33310378 0.23415901 0.08612143 0.27575642 0.0061868457 0.27757904 0.25954786 0.15314594 -0.5575261 -0.08901035 0.21865328 -0.20347802 0.01555836 -0.41702288 0.09197957 -0.07407536 0.25352782 0.08552536 -0.03816954 0.121314995 -0.46842393 0.16712835 0.043387823 0.40824986 -0.20489264 0.014473729 -0.06567047 0.037900146 -0.06308859 0.26325026 -0.23316143 0.045966767 -0.38221377
power -0.048053842 0.015275092 0.079878494 0.484732 -0.12755398 -0.22051775 -0.07183554 -0.0206499 0.24746703 0.37104824 0.35929477 -0.38629293 -0.32570368 0.45880717 0.51734227 -0.20378679 0.42387217 -0.41692966 0.48458952 -0.111438915 0.21977699 -0.07445656 -0.019262481 -0.05945419 -0.27062368 -0.22242786 -0.02879616 -0.48699802 0.28527445 -0.14041619 0.9716593 -0.711654 0.014389778 0.20803146 -0.020084271 0.24881047 0.019385712 0.42734057 0.3201338 -0.19162579 -0.22271626 0.028092021 -0.03199675 0.012158462 0.48375508 -0.32064375 0.4278385 0.108807065 -0.06391259 0.22969116 0.23108849 0.02011018 -0.5149197 -0.16858809 0.0322039 0.012401173 0.43647087 -0.4271082 -0.46726817 -0.01930659 0.28357282 -0.2833356 -0.27210718 -0.05078527 -0.1201766 0.1362152 0.12965517 -0.3657049 0.14049484 0.011249099 0.70962375 0.34553203 0.09040288 -0.5162724 -0.067423254 0.07059187 -0.13852124 0.33129844 -0.22299089 0.1486717 -0.08603283 0.34945154 0.51476765 0.44039482 -0.22300203 0.40041515 0.16168498 0.19498509 0.19058032 -0.3746354 -0.608358 0.47174233 -0.30520603 -0.20906202 -0.055426084 -0.15727012 -0.28272706 0.30293033 -0.6240399 -0.097777925 0.34006113 -0.039429132 0.069759876 -0.21148582 -0.26817858 -0.33149794 -0.42647704 0.1890269 0.23824097 -0.23940064 0.1187616 -0.035760343 0.038822718 0.019679006 0.6162802 0.18958247 -0.1491611 -0.3200023 0.50607663 0.3374147 0.663449 -0.12169994 0.42915338 0.20759228 0.34369144 -0.21085966 -0.0014281381 -0.12655161 0.110399246 -0.10809669 -0.33714864 0.11296041 -0.09825716 -0.0019702504 -0.5011693 0.01082857 -0.25879207 0.29412952 0.006987111 -0.53949237 -0.26308122 -0.4789603 -0.34349576 -0.20368662 0.29190737 -0.012734134 0.006785883 -0.025598971 0.0011697559 -0.41404408 -0.09892734 0.69411594 -0.18770479 0.439573 0.095932506 0.059565827 -0.36938888 0.3220135 0.368185 0.4505706 -0.24424873 0.35149655 0.24036086 0.080207996 -0.20945707 0.057240274 -0.17505473 -0.17590961 -0.28231987 -0.058489695 0.043670837 -0.021055857 -0.25437033 0.6764429 -0.15797767 -0.46598333 -0.06012186 -0.08152036 0.11824823 -0.23636177 -0.2811997 -0.15543687 0.1752339 0.21876715 0.023784235 -0.028668959 0.008632947 -0.019604579 0.37407142 0.09687281 0.3836321 -0.15475729 -0.30026424 0.083520316 -0.15737551 0.095462136 0.17157626 0.4904083 0.21303666 0.551545 -0.5520245 0.07050909 -0.00024330553 -0.05304543 0.05998389 -0.15620531 0.32507482 -0.023233786 -0.44370604 0.30535296 0.08753549 -0.060154494 -0.100852445 0.2818985 -0.43502063 0.25158933 -0.1552414 -0.23656207 -0.008515538 0.16257076 0.016629646 0.2783294 -0.09567797 -0.022030631 0.3547289 0.13832565 -0.36251542 -0.25299338 -0.29379505 0.19459976 -0.8308778 -0.17705841 0.039569035 -9.386574e-05 -0.2174193 0.07054966 0.3121204 -0.010808034 -0.08571439 -0.2936524 0.18982384 0.39547855 0.19442934 -0.035335436 -0.049968794 0.27337474 -0.553367 -0.10230449 0.26015848 -0.046640713 -0.21062778 -0.07056191 -0.16364142 0.5088385 0.37993872 -0.0644146 0.5690203 0.5364487 0.10179084 -0.3564557 -0.09343068 0.17976135 0.051533412 -0.13520241 -0.20997304 -0.18715297 -0.27961934 0.07035421 0.09433138 0.8536429 0.19940571 0.20448977 0.36481646 0.36455667 -0.48472354 -0.009713435 -0.3577392 0.51672864 0.2107545 -0.38435996 0.3765093 -0.18993095 0.06725725 -0.103320055 0.008393745 0.1452464 -0.112765566 0.034388773 0.08038994 0.2846348 -0.085156426 0.14223611 -0.20362438 0.20055473 0.23134403 0.101779625 -0.54498816 -0.4629669 0.19176161 -0.038769137
ef##-## -0.3178623 -0.8847377 -0.14963011 0.17638342 -0.1124953 0.27616036 0.4304221 0.38026345 1.0507544 0.030962523 0.32329857 0.26942238 -0.11924976 0.19887708 -0.11296561 0.4603515 0.023662606 -0.26665065 0.45700297 0.046435844 -0.18545657 0.026799282 0.0048525617 -0.28690577 -0.59506035 0.055133548 -0.060747672 -0.31925738 0.010875395 -0.26543057 0.41855773 -0.30004713 0.36088195 -0.21885067 0.14215514 -0.55849165 0.27502 -0.27845946 -0.24443242 -0.051196866 0.021780245 -0.1592341 -0.1730868 -0.20453894 0.3793015 -0.13776602 0.3473174 0.50508296 0.062137447 0.07518331 0.76703286 0.36859915 -0.3464998 -0.3275287 0.21382566 -0.17487764 0.5023958 -0.044949602 -0.016818246 -0.3911534 -0.20211588 0.100053534 0.1678889 -0.059990536 -0.3004121 0.040497836 -0.1858177 0.26637986 0.28572837 -0.18592423 0.13432474 -0.5357064 0.5006153 -0.16207439 0.37977824 -0.28321096 0.14402366 0.6330035 -0.28257886 0.14898308 0.12079135 0.47589698 -0.09650604 0.43723053 -0.13397908 -0.046444952 -0.09976724 -0.011535318 0.16934003 -0.22905996 -0.5718777 0.35375625 -0.58367383 -0.5445096 0.18148287 -0.010795658 -0.14691265 0.48875487 0.52185637 -0.14155509 0.30312645 0.26874727 -0.042801745 -0.24779555 0.14103441 -0.18849972 0.12660895 0.20114163 0.21171889 0.31666294 0.04809373 0.52407014 0.07049405 -0.10331763 -0.009236987 0.19821863 0.35206503 0.2443447 -0.4383498 0.78461725 0.4789867 -0.19649158 0.3773114 0.25996035 -0.25147605 0.025311109 -0.6148383 -0.062195037 0.15084614 0.2062734 -0.16345908 -0.18103331 0.19339907 -0.29163066 -0.09708447 -0.43647784 -0.31568918 -0.20659359 0.2020488 -0.6946665 0.09519898 0.04868667 -0.17297061 -0.33918315 0.0019673805 0.21134022 -0.34392568 -0.6855153 -0.12531276 -0.46450743 -0.06660401 -0.25332138 -0.32835782 -0.34039477 -0.14312038 -0.023143686 0.3080992 -0.37514913 0.5824465 0.2676008 0.16571675 0.5451268 -0.31693712 -0.09530769 0.4000698 0.26201075 0.20560522 -0.017470505 0.10611194 -0.14698434 0.15402405 -0.010713084 0.07670656 0.16824809 -0.18690309 -1.2917403 -0.8401667 -0.24005745 0.45360285 -0.11595899 0.022557056 0.15827471 -0.54147446 0.18495345 -0.34328958 0.024271281 -0.2981044 -0.2633294 0.025448514 0.20856221 -0.5137687 0.062289592 -0.5401728 -0.30276835 -0.70792407 0.16293582 -0.1286797 -0.20259504 -0.13472521 0.262513 0.30741614 -0.2532605 0.14860567 -0.016339302 -0.15412366 -0.3130887 -0.00245852 -0.4501869 -0.053854104 0.07866852 -0.2638266 0.45930597 -0.124959305 -0.66085887 -0.24830648 0.1867803 -0.021398036 -0.6794025 0.18295264 -0.09274146 -0.6889534 -0.6470649 -0.13446742 0.6720285 0.2540256 -0.19143276 0.21938004 -0.10222559 -0.16840099 0.1629477 -0.095566526 0.35758948 -0.38907513 0.005848166 0.4021321 0.09057185 -0.011726151 -0.016564671 -0.16422825 -0.638178 0.1202246 -0.25427043 0.019669605 0.047594197 0.19891298 0.23360923 0.14380829 -0.5847735 -0.3230605 0.36970964 0.49435297 -0.7470022 0.019116178 -0.070701614 0.5932943 -0.31954005 0.17282899 0.1799509 0.2151624 0.37495217 -0.09623959 -0.2888839 0.24557322 -0.20054655 0.6811323 -0.28942582 -0.28011343 0.3228139 -0.0127437115 0.38134235 0.3880579 0.09496033 0.42571297 0.69911975 -0.39863473 -0.32140735 0.08866865 0.7322842 0.54920655 -0.375327 0.43291646 -0.5101633 0.21328531 0.09055426 0.61892885 0.5799891 -0.3030395 -0.77898705 0.39892763 0.04499645 -0.5564582 -0.4688658 0.3353003 0.925153 0.39869303 -0.38324332 -0.357982 -0.10242327 0.5225545 -0.4006403
easp 0.043008026 -0.15732574 0.046013214 0.43026415 -0.36328623 -0.2755572 0.57793176 -0.16021563 0.38626647 -0.040663987 -0.21917133 0.16647734 -0.13833791 0.3447445 0.23388144 0.25333214 -0.18174617 -0.6198684 0.43725616 0.0922543 0.14670451 0.44706878 -0.2494335 -0.41483825 0.026751837 0.059319966 -0.35859144 -0.19091788 0.09236289 -0.050478525 1.1141745 -0.14874439 0.1249287 0.28718355 -0.3523472 -0.43122596 0.20200321 0.023052221 0.08652464 -0.18372647 0.44014457 -0.089766555 -0.23651384 -0.23256843 0.08338768 0.33029643 -0.20630975 0.15882398 0.2817049 0.29973507 0.3459642 -0.17479627 -0.20323685 -0.23615414 0.07573304 -0.3106089 -0.006166697 -0.26828837 0.16458894 0.015249253 0.27477598 -0.05346239 -0.0755293 -0.31959352 0.28924456 -0.29631788 0.040623274 0.33995277 0.06872762 -0.086854436 -0.47089583 -0.08053834 0.34689707 -0.117127605 0.1762066 0.2207422 0.0014644802 0.42428973 -0.42445597 -0.50586283 0.4354906 0.31356576 0.062266305 0.15231739 0.10071132 0.0030049523 -0.057673387 0.14143528 0.36522484 -0.16825877 -0.00083184004 0.49611393 -0.34400153 -0.18514824 -0.010000506 0.4744145 -0.34804153 0.17416605 0.41294914 -0.06146378 0.37928262 -0.20883378 -0.1652761 -0.26259696 0.146667 -0.093053296 -0.16475575 -0.024442613 0.55922234 0.3417559 -0.07385832 0.053457525 -0.43784866 -0.06350666 0.571219 0.4356242 0.0053279535 0.13448556 -0.07983566 0.632189 0.5151693 -0.2689384 0.4014079 0.22638458 0.1997133 0.47961584 -0.43144166 0.030168273 0.04346323 0.13504992 -0.2679294 0.19377972 -0.0096034445 0.34624505 -0.36609948 -0.109282024 0.0059009907 0.067402735 -0.056672014 -0.7020116 -0.35972536 -0.2170496 -0.2094604 -0.0516094 -0.18479598 0.41692856 -0.38849306 -0.18069133 -0.25074512 0.026043657 -0.36988264 -0.10295657 -0.51736706 -0.28189287 0.08075167 -0.17389216 -0.21653949 -0.23838964 0.61222696 0.5502335 0.27090025 0.29027897 0.0062065856 0.20932946 0.060977526 0.008998804 0.16579516 -0.19644885 0.042456 0.06409544 0.3806895 -0.39223203 0.11011118 -0.067364156 -0.055529147 -0.895623 -0.4917475 -0.11967858 0.31203315 -0.21481718 0.06285609 0.416306 -0.31424782 0.37575173 -0.6793826 0.08843989 -0.13289595 -0.30279756 -0.18050528 -0.086557835 0.225883 -0.18898739 -0.38667014 -0.43513387 -0.3449244 -0.07754664 -0.46425125 -0.20011424 0.23736162 0.43824515 0.09936019 -0.17225625 -0.08907707 0.35784236 -0.1395936 -0.09456326 -0.062310014 -0.16693354 0.061880924 0.3453318 -0.25453 0.12412001 -0.00024018683 -0.42693606 -0.3011905 -0.05294409 0.041866694 -0.22299309 0.06166079 -0.17847002 -0.24282828 0.0027482444 -0.2533436 0.43417862 0.5689752 -0.25144115 -0.21070217 -0.12255848 -0.5168486 0.4989842 0.11909089 0.35054836 -0.3291753 -0.23191893 0.06769077 -0.038418796 -0.15779164 0.44619417 -0.06965787 -0.5131622 0.43637016 -0.35404694 0.35939577 0.11887777 -0.048781887 0.075576596 0.0730473 -0.35390022 -0.07330767 0.36745304 0.19287306 -0.6949097 -0.17068885 0.50779116 0.14409713 0.12788357 0.36351997 0.026080476 -0.20247437 0.5845052 0.038646687 -0.06651512 0.15263945 0.0010476817 0.028861865 0.26407006 -0.24022956 0.113455646 0.16178545 0.12215828 -0.11352292 0.07460298 0.08461513 0.5633767 -0.27643463 -0.26265568 -0.10714729 0.61520886 0.41869146 -0.02189436 0.11517895 -0.29654872 -0.08681965 0.24285087 -0.005108973 -0.014369542 -0.023523096 -0.8536686 -0.16564776 0.020166744 0.14602621 -0.06485426 0.5256771 0.39069602 -0.1522287 -0.07903384 -0.15212749 -0.21411605 0.38265 -0.03146784
db -0.20456809 -0.18796375 -0.052872896 0.30378586 0.170085 0.077981845 0.38899624 0.48782083 0.20569529 -0.6366803 0.5762543 0.020817485 -0.12282104 -0.14627826 -0.251437 0.56038374 -0.038245995 -0.038745515 -0.051370118 0.22452135 -0.20954372 0.3734069 -0.057150908 -0.78381854 -0.07743383 -0.065492675 -0.30194908 -0.22921866 -0.033007555 0.18004173 0.15134685 0.4504019 0.13849686 0.06996964 0.09211006 0.040492058 0.03474441 0.14395505 -0.120912135 -0.044010226 0.36977738 -0.117773324 -0.49257645 -0.08362915 0.37703735 -0.13951673 0.19709402 -0.2179094 0.22161214 0.09779231 0.28978667 -0.06265468 -0.18106496 0.07752288 0.07455212 -0.2752524 0.67762154 0.44801393 -0.037326317 -0.3540092 0.061409652 0.6024182 -0.02010614 -0.30154446 -0.23087204 0.22955942 0.46906352 -0.075308055 -0.20817225 -0.23544288 0.3687282 0.16361777 0.03889316 0.03805683 0.4108132 0.06093364 -0.030611776 0.11878316 0.03574464 -0.09389306 -0.1998991 -0.13429326 0.13055241 0.47747678 0.13577841 -0.14235112 -0.5374568 0.3896774 0.27853677 -0.24112293 0.09328767 -0.22668616 0.078986086 0.26637545 0.20508978 0.50801855 -0.1953353 0.26192436 -0.081780404 -0.12026605 0.11797948 0.4578537 0.46018377 -0.19171755 -0.32510668 -0.06550122 -0.44358027 -0.34443536 0.32563436 0.23871852 0.035848547 0.084170975 0.08078484 0.30354097 0.14729716 0.15251449 0.23437308 0.47985125 -0.47739556 0.28341675 0.2395298 -0.17760575 0.29495803 0.30451506 0.0077906963 0.2109969 -0.15881673 0.64556926 0.003980889 0.67412573 0.3440905 0.24229953 0.1424493 0.29959968 -0.19827396 -0.10279168 -0.1216863 0.2093188 0.13879812 -0.68483967 -0.15140966 0.14632457 -0.43219757 -0.615106 0.088552535 0.24273863 0.44125977 -0.27113852 -0.15310238 -0.28684247 0.06447981 0.004004247 -0.32273623 -0.40333682 0.15614042 0.33511972 0.07342463 -0.068769984 -0.04898533 0.21508744 -0.018657828 0.38232556 -0.23788936 -0.0851856 0.06689014 0.03083478 0.094369136 -0.1900024 0.25330153 0.07833964 0.13823254 0.31213441 0.13687961 0.11297105 -0.49464428 -0.3210423 -0.43958372 -0.35788873 0.2132234 0.13631448 0.6363339 0.13221559 -0.4637359 -0.05225997 -0.13509217 -0.17462283 -0.3051508 -0.38688922 0.0016160923 0.18398663 0.14353918 0.047978774 -0.2881942 -0.14785255 -0.31586787 0.25229093 -0.5865041 0.4219992 0.51600665 0.07773076 -0.10944663 -0.041653235 -0.40944633 0.01746411 -0.37500027 -0.364389 -0.32021406 -0.8157558 0.25662622 0.32127684 -0.22144793 0.04406626 0.10162134 -0.296697 -0.26087725 -0.16246477 0.5481332 -0.10354097 0.033801448 0.23942761 -0.30208603 -0.06194171 -0.039804637 0.17153402 0.4676507 0.0019983836 -0.15132411 -0.27461773 -0.57225335 -0.23099567 0.2911207 0.17875186 -0.37284604 -0.05487149 0.11389075 -0.27907324 0.15191016 0.00044409963 -0.112301216 -0.14878373 0.12621133 -0.68397146 -0.26364413 0.106223725 0.44641447 0.6213809 0.07205121 -0.029013367 -0.4505007 -0.25918838 0.06587501 -0.07029059 0.44655907 0.41404745 0.57031107 0.12682551 0.9755528 0.28637615 0.3347094 0.41519192 0.11289448 0.08614841 0.041955285 0.27369127 -0.1509734 0.093901284 0.133663 -0.3248146 0.17477974 0.20537083 0.5226506 -0.036791753 0.06413118 0.24858892 -0.5544383 -0.068075135 -0.011099521 0.57781035 0.3685476 0.08485859 0.3961802 -0.05029449 0.10513513 0.33216593 0.10775454 0.5504807 -0.018189233 -0.5236819 -0.30344626 -0.30236343 0.1715603 -0.52529407 0.1968927 0.36957887 0.5285892 -0.29063472 -0.16441903 -0.31460038 -0.3354033 0.35729596
htg 0.09855112 -0.25427112 -0.017857755 0.06384531 0.1690114 0.059536915 0.1897907 0.14944549 0.24337852 -0.29350188 0.13814947 -0.2421834 0.24756771 0.136157 0.21567926 0.25858903 0.19701779 0.12938035 0.08655012 -0.22599111 0.10294218 -0.20371337 -0.11773163 0.27665347 0.035137434 0.0898416 -0.22488678 -0.091396324 0.17097743 0.20166588 -0.13864794 0.013444388 0.0007963988 0.04678622 -0.08423493 -0.01351439 -0.15044631 -0.09579016 0.1643637 0.2985311 0.11287456 -0.07176061 -0.48581144 -0.23220396 -0.12919636 0.005655763 -0.04408647 0.19026566 0.033170428 -0.016898263 -0.47016793 -0.010452002 0.102928095 -0.2734847 0.148449 0.051670164 -0.011309581 -0.054998394 -0.08240191 0.041003022 0.13616127 0.1018208 0.019286124 0.30912954 -0.04652379 0.122285314 -0.10831312 -0.10863592 -0.016831689 -0.016226571 -0.2120581 0.10508827 0.045009658 -0.1378033 0.64758366 -0.07138461 -0.19987443 -0.18271641 -0.165045 -0.2019074 0.59676194 0.2404038 0.088743255 -0.1348016 0.14506945 -0.2201007 0.050403498 0.46712744 0.06561538 -0.18054369 0.281938 0.034490224 -0.029381502 -0.5934289 0.24384615 -0.14926781 -0.02638553 0.2462829 0.41682625 -0.11313813 0.20360084 0.28612137 -0.029329589 -0.14508067 0.05957992 -0.033129707 0.15859932 0.18622969 0.13432224 -0.060106117 -0.25765622 0.25506228 -0.082028404 0.28399226 0.2548412 0.024559699 -0.2513823 0.060168948 -0.1430948 0.5629504 0.019249292 0.2574629 0.41100535 0.337093 -0.022113455 0.0037662422 -0.040071044 -0.08874608 -0.05550574 0.21648014 -0.23662247 -0.114673935 -0.33541062 0.21061467 0.51561475 0.10016988 -0.25253436 -0.3101433 -0.06301006 -0.24322012 0.022340892 0.13437657 0.4182147 -0.20454966 -0.07499142 0.271762 0.16416405 -0.29844818 0.2140999 0.19099197 -0.29732895 -0.57982725 -0.36030018 0.15678754 0.44859898 0.010485844 0.15906991 -0.4165724 0.14464849 -0.05747707 0.3917706 -0.252507 0.120674 -0.07650561 -0.018794231 0.48559055 0.30845296 -0.18462113 0.2106554 -0.06337614 0.026260216 0.1186013 -0.17758903 -0.33297157 0.06059078 -0.5720438 -0.08706632 -0.21163645 -0.004318141 0.32106534 -0.058757484 0.42759916 -0.25710565 0.34631702 -0.24898897 0.28083032 0.13284709 -0.107354574 -0.287749 -0.30517137 0.07417001 -0.1791142 -0.080377325 0.22050942 -0.05240424 0.11887046 0.1370944 0.057357773 -0.050024174 0.2850193 0.4219164 -0.3407754 0.16479805 0.23699021 0.1179763 -0.2957586 0.113548115 0.32672328 0.16038722 0.0840386 -0.027758589 0.08945547 0.13488585 -0.51175714 -0.014785922 -0.1480624 -0.17190062 -0.070988536 -0.084328145 -0.057508387 -0.47600296 -0.13428596 0.00288382 0.5295965 -0.121623166 0.022623891 -0.12273757 0.21336663 -0.6559554 0.56630427 0.43121514 0.16819589 -0.43953004 -0.10129298 0.31764668 -0.023160364 0.2359638 0.039068945 -0.31511638 -0.31388107 -0.18994427 -0.2092846 -0.23657513 0.015121915 0.14509113 -0.1907798 -0.4119168 -0.094070464 -0.20497327 0.346014 0.22655796 0.007919079 -0.09932746 0.20344445 0.10179012 0.013249004 -0.22428067 0.07978309 -0.3341703 0.3976281 0.05763721 0.045358717 -0.42829347 -0.07667241 0.4108242 0.20280346 -0.018465 -0.15681191 -0.24238521 -0.08083473 0.21857673 0.20631106 0.30697507 0.08060313 -0.21713077 -0.39547497 -0.057924826 -0.395614 -0.1873053 -0.088536955 -0.1878011 -0.03342107 0.29145396 0.30281022 0.28561726 0.21738139 0.06969901 0.010297249 -0.20706479 -0.39172846 0.28969646 0.0025109865 0.1561764 0.18465404 -0.09493772 -0.38546187 0.4279091 -0.02040258 -0.099960506 -0.26334888
vlv 0.07048797 -0.2930788 0.14275937 0.0784744 -0.03066728 0.4198537 0.123651214 0.30710948 -0.11576614 -0.38035822 0.29276523 -0.22070512 0.024951927 0.15486804 0.23218057 0.108779185 0.13903777 0.08233449 0.03086971 -0.17969175 -0.19532329 -0.22753555 -0.14010753 -0.2807691 0.09023032 0.03989955 -0.548974 -0.11710195 0.03738952 0.07461203 -0.20535079 -0.104800574 -0.1886489 0.04909449 -0.051232815 0.07233218 0.10592355 0.043824047 -0.22359873 -0.16013911 0.14602736 -0.32112223 -0.1335652 -0.26639494 -0.021474537 0.09363584 0.11738647 -0.1149315 0.2142113 0.0060850517 0.5982404 0.40744993 0.0059206807 0.20033336 -0.30225265 -0.105957694 0.1331826 0.10361147 -0.23374972 -0.16627713 0.20458731 0.59789306 0.1758132 -0.4372248 -0.24993446 0.44532898 0.15652798 0.020106392 0.04059713 -0.17106438 0.35911748 -0.38463503 0.1540801 0.4043666 0.23304811 0.19550213 0.011735342 0.0036643122 -0.0429382 -0.09531395 0.0026822428 0.2675946 -0.22077745 0.4362798 -0.23422034 -0.09663138 -0.41817603 0.52235126 0.38020682 -0.57800424 0.3159643 0.2891471 0.16452652 -0.20634604 -0.04575174 -0.22292896 -0.1372788 0.23870334 0.12900008 0.009962049 0.4242722 0.35039476 0.11980561 -0.24028923 -0.035329267 -0.081195556 0.017037598 0.062590554 -0.15362617 0.18149553 0.39117077 -0.054081008 0.1393141 0.24554136 0.17430961 -0.07642532 -0.4820871 0.103874005 -0.012464586 0.019085348 0.35339028 -0.07198872 0.2446155 0.07202112 -0.79071015 0.53940237 -0.4366379 0.38024086 -0.018522931 0.23949105 -0.1806182 0.052361917 0.108545884 -0.28846243 0.21333916 0.07183363 -0.3926528 -0.10630212 0.36854076 -0.30118832 0.45175773 0.4975939 0.1458357 -0.7464861 0.09531052 0.16351435 0.18143545 -0.52871186 0.13035671 -0.31556374 -0.019910138 -0.07821348 -0.5170719 -0.09609992 0.15300103 0.098120905 0.13911708 0.20536882 -0.31726968 0.07348427 0.073877096 -0.10194983 -0.25396907 -0.11522647 0.24801096 -0.20571895 -0.13068065 0.19073647 0.27869374 0.014370497 -0.17816499 0.35631645 0.19192697 0.083736144 -0.36075485 -0.33344635 -0.3215487 0.1910599 -0.2551496 0.043728713 0.435634 -0.31287783 0.061183043 -0.078996226 -0.61685777 -0.41213498 -0.20331822 -0.24434206 0.041764576 -0.023641821 0.27685004 -0.18891516 -0.19882536 -0.25435904 -0.12187604 0.44708204 -0.37427264 0.21734586 0.17339295 0.25242937 -0.21537723 0.21896955 -0.046010684 -0.065874204 0.05810668 -0.36285895 -0.4604612 0.11478988 0.26603252 -0.10996628 0.19387552 0.18493465 -0.027551813 -0.16449946 0.12714092 -0.38975525 -0.07519161 -0.0924085 0.22374731 0.15317851 -0.40604454 0.11960458 -0.103274845 0.3842403 0.10798346 -0.04857725 0.49295056 -0.17976487 -0.3118586 0.27770862 0.40043002 0.28119215 -0.44242993 -0.13476656 0.14548574 -0.265561 -0.17569174 -0.008663305 0.18001242 0.07492707 -0.22837627 -0.40597802 -0.051464014 0.30193022 0.43830702 0.08775304 0.24028365 -0.36293393 0.18638736 0.06341329 0.32675865 -0.23343205 0.29243115 0.20683067 0.06456709 -0.021976227 0.45918822 -0.073261574 -0.10477751 0.26522434 0.096374534 0.23196872 -0.5950005 0.40391284 -0.15573443 0.12629278 0.38742375 -0.22804494 0.040605426 0.24337913 0.31856936 0.3965444 0.06950867 0.63578045 0.19951737 0.060185496 0.031746093 -0.061040726 0.6839582 0.19790648 0.07282201 0.17979418 0.15535393 0.41884708 0.09155606 0.13895914 0.08091918 -0.49485555 -0.11101119 -0.2775248 0.40849766 -0.05976118 0.1102626 0.072243676 0.37620354 -0.3301166 0.18889998 -0.49036378 -0.49256614 0.4942055
box -0.10155841 -0.3892167 -0.039190948 0.45602933 0.3115132 0.44667557 -0.25561422 -0.048116572 0.3875777 0.19756196 -0.10018298 -0.018364081 0.21077082 0.31244877 0.24263465 0.09415013 -0.070640214 -0.13984172 -0.027975572 0.12347481 -0.040934138 -0.056742135 -0.026348986 -0.23615357 -0.17303236 -0.009819635 -0.5972802 -0.32865986 0.23418014 -0.18398108 0.45328677 0.13538359 0.35240698 -0.1699809 0.27670234 0.35708928 -0.25737545 -0.023804236 0.31008574 -0.16462955 -0.25179994 -0.17227988 -0.0813499 -0.33131608 0.02840479 0.4069329 -0.25705215 0.14152123 -0.08392855 -0.32562 0.36158225 0.43174723 -0.4386 -0.30872276 0.06942184 -0.5392551 0.097283766 0.10301148 0.23761107 0.15351173 0.13291131 0.32413542 0.122175954 -0.26221886 -0.102870055 0.11403398 0.113894194 -0.026769364 -0.21381041 -0.21293229 -0.19943097 0.26697373 0.1586032 -0.2649094 0.33862215 -0.12784044 0.4978341 0.25348118 -0.012642009 0.1324662 -0.19779675 0.6055244 -0.36295328 0.29138535 -0.15233871 0.2025904 -0.11340982 -0.14628091 0.19044034 -0.16394132 -0.066377 0.21357125 0.14649756 0.04990305 -0.34527895 0.3085756 0.07099896 -0.22629601 0.32779872 0.022987226 0.2260068 0.29858324 -0.02987204 0.041480385 0.04219616 0.18336396 0.0821975 0.010808309 -0.06661021 0.06306361 -0.26729771 -0.16541536 -0.07285753 0.1542998 0.37382174 0.32916364 -0.16512403 0.23764642 -0.03981358 -0.22582416 -0.3180343 -0.018292705 0.14059463 0.097559914 -0.087386325 0.49973464 -0.25307012 -0.26067466 -0.25410783 0.4111419 -0.29264238 -0.15132561 0.0028284364 -0.13924217 0.04243574 0.038001396 -0.57578415 0.04029592 0.57743627 -0.32941192 -0.3163319 0.07350175 0.13294643 -0.030520769 -0.2851184 0.14723295 0.0022713232 -0.45891792 -0.22253594 0.17476813 -0.20755932 0.18183185 -0.108997025 -0.1619693 -0.18429342 -0.036499403 -0.22694744 0.13332398 0.0032431835 0.27539262 0.46483135 0.07448548 -0.03528589 0.11102521 0.41609508 -0.024300277 0.012153802 0.27147388 -0.20013042 0.09384408 -0.5771645 -0.13083798 0.08474413 -0.2052629 0.1369146 -0.25557524 -0.24431497 -0.38171268 0.04938167 -0.34476238 0.16178523 0.13489638 -0.19843702 0.07892192 -0.04349221 0.047428064 -0.33790585 -0.3066541 -0.13851409 0.17949335 0.13341288 0.105265796 -0.33435768 -0.49031934 -0.14921115 0.0057093175 0.029957235 0.6119984 -0.17558941 -0.07957298 -0.0790634 -0.23641069 0.4672091 -0.17525017 -0.046292454 -0.063969366 0.12131626 0.40535334 -0.34786415 0.17994876 0.2178637 0.24310385 0.11883384 0.108449414 -0.30969748 -0.29233035 0.20958509 -0.099635884 0.5262695 0.1684167 -0.20168202 0.45648754 -0.45459396 0.41868758 0.14509152 -0.24712957 -0.078486376 -0.006393324 -0.0029279748 0.2763648 0.07541317 -0.17478281 -0.46765104 -0.13573988 0.4934863 -0.061692834 -0.33807337 0.1906562 -0.12534378 -0.24678546 -0.27770427 -0.34710577 0.16132721 0.2275392 -0.12660362 -0.025064714 0.19060947 -0.4746203 -0.02865039 0.25231758 0.047124963 -0.60481554 -0.3549007 0.05335977 -0.03664174 -0.6109606 -0.102579966 0.28582546 0.22105715 0.059825517 -0.022041297 -0.2787378 -0.44169003 0.06904987 0.3653688 -0.11627504 0.33644262 -0.40233788 -0.3104678 0.33835056 0.024678785 0.19972247 0.47746542 0.7021666 0.13360097 0.20076098 0.25756982 0.025369858 -0.1797089 -0.07028913 -0.06290177 0.23656836 0.49643755 -0.08521162 0.38611004 -0.34242955 0.0172729 0.050566576 0.049946737 -0.20672569 0.04581918 0.12764415 0.32172784 0.42480808 0.22261673 -0.5426313 0.23876067 -0.47840694 0.26119417 0.21426328
mode 0.33210614 -0.11887562 0.42987934 0.23454398 0.022309197 0.17150581 -0.08687983 -0.045354493 0.25658166 0.28144306 -0.08264279 -0.3374047 0.46112657 -0.15918581 -0.25973627 -0.37590343 0.3024719 0.06963665 -0.26511878 -0.26772326 -0.16691948 0.03568794 -0.45946246 -0.22749153 -0.4745323 -0.27518862 -0.4153374 -0.43914577 -0.16703346 -0.33391792 0.24891222 0.07149107 0.45080757 0.15994757 -0.30205518 0.23403993 -0.0014868882 -0.10351924 0.37489462 -0.3669341 0.13860635 -0.015400396 0.08882046 -0.11924653 0.27499995 0.034914907 -0.16659503 0.36812165 -0.095380805 0.24099512 0.35616416 0.22002745 -0.13657674 -0.44184345 -0.2842761 -0.5105579 0.117775686 -0.13159947 0.24905519 0.5890138 0.014669186 -0.06253703 -0.1093492 -0.19017604 0.15095022 -0.11095529 -0.24504237 -0.033032577 -0.122521445 0.19495226 -0.26384497 0.31746218 0.34576306 0.041087285 0.12786674 -0.16535953 0.0032834501 0.18431285 -0.37606958 -0.04800727 0.26930797 0.63716084 -0.38355207 0.1691621 -0.14219563 0.18004906 0.29467082 -0.10663145 0.07332812 -0.6673868 -0.18166058 -0.03697899 0.08246249 -0.27667335 -0.14354594 0.41969857 0.2784311 -0.16441298 0.21605645 0.085787065 0.09261016 0.28423262 -0.106878445 -0.2795361 0.025835415 0.004894629 -0.003098009 0.014624572 -0.21328036 -0.009938997 -0.3094013 0.0109625505 0.060047545 0.060934693 0.113287315 0.059674647 -0.6158598 0.36265546 0.15539631 -0.1266602 -0.56422967 0.092540205 0.5524735 0.12661348 -0.16208379 0.4633998 -0.41623372 -0.00431532 0.09441205 0.060392857 -0.6230043 -0.4346041 -0.4030623 -0.0442379 0.3681785 0.28035375 -0.57872087 0.0259272 0.37592945 -0.09129375 -0.4949593 0.34957698 -0.13288072 0.20956142 -0.25599506 0.0603281 0.030720342 0.001268802 0.19566159 -0.1641313 0.12134315 -0.07397309 0.13830508 0.07352956 -0.283669 -0.34116578 -0.45904833 0.3559909 -0.21203102 0.06338465 0.33988234 0.12385949 0.12448199 -0.16122642 0.090961374 0.29539806 -0.28155017 0.15323189 0.27764145 0.14695373 -0.40386274 0.014341696 -0.30401888 -0.10650285 0.10623284 -0.41538376 -0.5553229 -0.06713728 0.061004214 -0.30124655 0.0942601 -0.3720351 0.0040763826 0.3118344 -0.41630918 0.3127453 -0.089594685 0.11200033 -0.11678448 -0.1846698 -0.16609362 0.017395103 -0.0011575061 -0.49380088 -0.1941553 -0.3032586 0.4938957 0.70131576 0.22528806 0.18012874 0.059686128 -0.19705032 0.3523515 0.1551538 0.2863516 0.34724268 -0.149832 0.6153799 0.027451003 -0.23192467 0.10856339 0.3816942 -0.26502922 0.12923412 -0.10528903 0.2055821 -0.12973729 -0.028527405 0.46437243 -0.13014981 -0.13364613 0.25553 -0.33267736 0.5273645 0.31082216 -0.21145636 0.35703632 -0.31348175 -0.009659322 0.32960755 -0.041662402 -0.4231581 -0.26934654 -0.1927784 0.36280054 -0.21710952 -0.24674916 0.0007151789 -0.12083473 0.09656768 -0.49772367 -0.5854494 -0.033275302 0.27554047 -0.25495943 -0.03343165 -0.36920497 -0.5292138 -0.16569145 0.3267654 0.2970286 -0.6450527 0.08499064 0.36546493 0.30158842 -0.19452074 0.15117425 -0.076165624 0.20228 0.32257634 0.008383686 0.06504609 -0.23368338 -0.2939369 0.2879803 -0.008987706 0.3849622 -0.13168219 -0.34202513 0.18661086 0.3222963 -0.1785564 0.6506529 0.54233706 0.30769262 -0.05337396 -0.16422154 0.17179571 -0.0083923815 -0.46017942 0.3943184 0.44457525 0.12212978 0.11295531 0.333694 -0.05758372 0.06943697 -0.3657456 0.19140558 0.14771652 -0.3094024 0.41493323 0.41394186 0.47834337 0.1941567 -0.48506287 -0.016817737 -0.27511102 0.10376283 -0.058049217
wc 0.43963426 -0.099952444 0.2658543 0.097017996 -0.11226283 0.2849542 0.19531687 0.22043937 -0.118272334 -0.4057655 -0.09112187 -0.40515137 0.5053265 0.2013942 0.112686925 -0.33877662 -0.16647618 0.29981107 -0.19407693 -0.5479209 -0.2441719 -0.22859891 0.025359381 -0.23874304 0.25870016 -0.14501213 -0.14210267 -0.22510643 0.2364949 0.359198 0.426345 0.28758296 0.44427052 -0.30369708 -0.03315131 0.04407894 -0.4251385 0.23139857 0.48718655 -0.3124361 0.016354831 -0.14390387 -0.5214284 0.026014732 0.09652905 0.1487872 0.27568337 0.10173233 -0.15307929 -0.06384801 0.20905763 0.14702421 -0.14804494 -0.09145918 -0.17959774 -0.3236197 -0.10124172 0.059250288 0.004338196 0.28906944 0.40240175 0.4591387 0.079000056 0.353915 0.030872857 0.03408743 -0.41465455 0.25214684 0.22198784 -0.018756447 0.04421257 0.10301368 0.17692378 -0.36872366 0.23950402 0.038631726 0.46969312 0.20524976 -0.25376403 0.41501373 -0.08786376 0.6783118 0.010178561 0.16446012 0.01600589 0.29825923 -0.14995204 0.40676892 0.45123768 -0.420568 -0.28200313 -0.093446225 -0.34019643 0.08524662 0.09234341 0.35192823 -0.051740065 -0.07379636 0.06594036 0.113720655 -0.020768844 0.45453167 -0.30137226 0.037536286 0.0898637 -0.19374388 -0.41930982 -0.057984248 0.29682004 -0.12842157 0.18314207 0.3724247 -0.06394772 0.25535744 0.16990669 0.26445663 0.0056388383 -0.04827943 0.13421936 -0.20991942 -0.31693816 -0.5285714 0.40728873 0.4854364 -0.013756494 0.40689862 -0.49347237 0.037748363 -0.46137136 0.08936406 -0.37860233 0.035181336 -0.5083901 0.20862864 0.26053262 -0.119626485 -0.31213957 -0.082661696 -0.16911858 -0.24401568 -0.1378759 0.2672468 0.42587408 -0.19909544 -0.24692038 0.079075105 -0.16482449 0.0106690135 0.25938788 0.22547193 -0.15968981 0.18592188 0.094103485 0.013663013 -0.033868443 -0.22796765 -0.03444844 -0.4701696 -0.030333687 0.15229939 0.40344983 -0.24413425 -0.14259997 -0.043399625 -0.13796373 -0.025373256 0.11763828 0.41051376 0.101694725 0.009516958 0.034068894 -0.37529427 -0.2504219 -0.11407007 0.1487334 -0.085642196 -0.31382757 -0.28254005 0.22719783 0.08113808 -0.09617971 -0.20678045 -0.06273319 0.29809132 -0.35977995 0.25835362 -0.16330737 -0.00725166 0.045652557 -0.011321591 0.26595208 0.31166792 0.01713318 -0.16405079 -0.28128204 0.002741289 -0.15539564 0.1503502 0.13774256 0.056483265 0.16355725 -0.07597641 0.060195778 -0.06870353 0.21197245 -0.027474502 -0.27789903 0.53108144 -0.09765691 0.331817 0.25941575 0.12943214 0.14358541 0.1343996 0.31818348 -0.17226516 0.17376746 0.0404187 -0.030410998 -0.28833124 -0.5980061 0.3547257 -0.51019156 -0.06434761 -0.21122445 -0.39903316 -0.16893275 0.06419215 -0.3211177 0.28878903 -0.12382531 0.0975443 -0.29829732 -0.16225007 0.21534139 -0.097226374 0.071703844 -0.18025295 -0.078240514 -0.5568981 -0.18771379 -0.251976 0.15962282 0.19023694 -0.032242943 -0.35683435 -0.19033845 -0.47789893 0.0594689 0.26352024 0.30843902 -0.5251199 -0.13048762 0.33679077 0.5654384 -0.19430703 0.15220718 0.041192632 0.15850976 0.13591026 -0.26566952 -0.17975752 -0.2627262 0.24156322 0.1837655 0.3653019 -0.042391133 -0.31553972 0.35608435 -0.06321927 0.10707194 -0.08175417 -0.011673108 0.60694975 0.09893651 0.077367604 -0.20782293 0.046881843 -0.03477373 -0.03643395 0.38987854 0.29811078 0.43401748 -0.07570683 0.18909274 0.2086844 -0.124104336 -0.24109986 -0.32718897 -0.39503306 -0.20845023 -0.21971487 0.30390814 0.34087163 0.19203103 -0.577587 -0.31693068 -0.3439047 -0.21793585 0.06807227
adj 0.17673966 -0.46539205 0.2859965 0.13604002 0.09672919 0.061842427 0.31000423 0.41618016 0.0057029272 -0.59864444 0.10224471 -0.44167 0.5255758 0.37591657 0.14057983 -0.27282193 -0.054661732 0.18484493 -0.055196542 0.08021731 0.08544263 -0.5220158 -0.1822285 -0.36952496 0.24362177 -0.0996935 -0.46033612 0.0943686 0.29250273 0.44250903 0.43732747 0.18054616 0.41969758 0.010215869 0.26453638 0.48939797 -0.2586158 0.2289556 0.23057188 -0.20387426 -0.22970821 0.09332876 0.013905373 -0.031687714 0.13964386 -0.45230594 0.35190257 0.22323275 -0.33418918 0.029172728 -0.12716483 0.19785708 0.18827657 -0.2611314 0.053587653 -0.312578 0.2683402 -0.009756816 -0.06804584 0.20605738 0.45995352 0.45412648 -0.25755876 -0.044187576 -0.21599384 -0.10050374 -0.16436243 -0.32116798 0.13069904 0.2572939 -0.0014257149 0.22557609 -0.19608393 -0.3751932 0.006302106 0.5033777 0.28831938 0.14647368 -0.30517697 0.4589556 0.38354236 0.79594755 0.22545448 -0.31358713 0.28144768 -0.018170107 -0.029333029 -0.16986366 0.5067763 -0.24969874 0.08980243 -0.082643144 -0.47291017 0.107651934 -0.17608461 0.4443176 0.2968906 0.36058766 0.06966575 0.3422732 0.08327719 0.29169866 0.15277478 0.076847285 0.003574982 0.010174041 -0.3549243 -0.11750235 0.087612726 -0.22015843 0.08882779 0.26898813 -0.22509807 -0.054351803 0.07859571 0.010746737 -0.19697355 0.35349497 0.38368133 0.12568404 -0.18078321 -0.5176464 -0.027485471 0.5965824 -0.33567247 0.22137614 -0.19869512 -0.2900566 -0.23091355 0.60264146 -0.4548282 -0.30480462 -0.50011486 0.07004449 0.30573106 -0.37962237 -0.3389095 0.43134692 0.40954614 -0.45534098 -0.20582978 0.0014324931 0.34225878 -0.21226467 -0.23800777 -0.13672802 -0.2692411 -0.47048724 0.24498619 0.39740354 0.059677843 0.34784773 -0.12769823 -0.30960917 -0.15350503 -0.4898865 0.09590804 0.025038065 0.1561513 -0.44216925 0.06937249 -0.37020367 -0.5325925 0.29787734 -0.03292197 0.043488998 -0.05190849 0.273492 -0.11141622 0.030227134 -0.15422602 -0.03740198 -0.34252834 0.18735683 0.49264884 -0.31565103 -0.7155204 -0.35789916 0.44515508 0.019478278 0.4479117 0.15674332 -0.042751376 0.058820225 -0.31383663 -0.020604149 -0.41001648 0.070910215 -0.11561384 0.011899905 0.091005005 0.49306902 -0.30924731 -0.23410366 -0.09206144 -0.21194291 -0.475968 0.15836611 -0.16739477 0.14444153 -0.25784352 -0.38522965 -0.03545002 -0.40565065 -0.12839608 -0.10239668 -0.15846905 0.39483285 -0.18771268 0.16914895 -0.1308905 0.31761798 -0.15056475 -0.39527097 0.07215313 0.31157655 0.28985018 0.21270573 0.13013454 -0.19954115 -0.41979733 0.44367936 -0.476937 0.020961855 0.039238766 0.0155653665 0.27933145 -0.15694779 -0.4345196 0.41509038 0.29876038 -0.1364538 -0.5003624 0.24401559 -0.0143362945 0.044267215 0.14065236 -0.18633103 -0.20176332 -0.5111649 -0.5555254 0.11105983 0.022160258 -0.08917919 0.38839427 -0.3391722 -0.3143072 -0.7074974 -0.33745623 0.50851876 0.45249513 -0.2931834 0.049776502 -0.12180084 0.123222604 -0.56975454 -0.048610657 0.3622149 0.04137481 0.34649098 0.22859716 -0.13604334 -0.3399634 0.31006575 0.13690273 0.42169306 -0.051966645 -0.09842754 0.026107252 0.21238074 0.033468943 -0.2596649 0.08376969 0.44723943 0.2991361 0.21953005 0.06808945 0.3904319 -0.1007442 -0.5050899 0.4955138 0.41399407 0.5411608 0.31887844 0.3260415 0.37462676 0.18549421 -0.030616913 -0.2746135 0.009347835 -0.057809897 -0.26990741 0.21291472 0.3093656 -0.033683747 -0.12497947 -0.037110817 0.14968395 -0.1402792 0.11096864
#flehalla -0.094245166 -0.20775509 0.30158442 0.050137643 -0.43667376 0.107284755 0.17220189 0.21838553 0.4285133 -0.23145847 0.15012884 -0.1698849 -0.41621223 0.25213677 0.15757003 -0.018829383 0.09953917 0.009346979 -0.022529086 -0.12515895 0.15473871 0.08456071 -0.021639924 -0.1856323 -0.060172055 -0.13621368 -0.48338762 0.09685675 -0.013005608 0.056733504 -0.03710306 -0.43641844 0.097038575 -0.02637843 -0.13495079 -0.30199277 0.32341975 0.14122048 0.22740866 0.035424903 0.3145334 -0.15334448 -0.14039865 -0.38149217 0.29387447 0.0742307 0.095274985 -0.038386405 0.23192301 0.14404665 0.31958795 -0.0994464 0.25005934 0.123477265 -0.11784941 -0.046566837 0.22302368 0.11983562 -0.29131812 -0.3327596 -0.089953296 0.41457465 -0.17014986 -0.17219882 -0.08190979 0.17298815 -0.07370849 0.12837696 -0.037859518 -0.17959721 0.24932678 -0.18176359 0.11985841 0.100084126 0.10170167 0.11187228 -0.018445114 0.21911587 -0.22273205 -0.3932007 -0.033526093 0.41900405 0.07955816 0.22032294 0.114513814 0.0059004487 -0.21777649 0.0824972 0.12289897 -0.30696407 0.32799146 0.1870663 -0.03941114 -0.25765628 0.118193045 0.21353957 -0.14882082 0.3159595 0.11338837 -0.30619112 0.028602144 0.17999007 -0.0578842 -0.08408622 0.06602329 -0.32360858 -0.09087452 -0.097525656 0.11869859 0.27810726 0.21624066 0.29366806 0.26263088 -0.12630968 0.46348512 -0.14008194 -0.27097163 0.025371572 0.057556808 0.37843055 0.5243085 -0.17526402 -0.0261433 0.01598159 -0.6109635 0.24856971 -0.3919358 0.18380482 0.39395413 -0.1004795 -0.21366417 0.16422817 0.22014193 -0.021696411 0.0731711 -0.074797496 0.049507495 -0.16185229 0.2502816 -0.115625344 0.24119473 0.20456184 -0.084006354 -0.28226918 -0.07700372 -0.101215705 -0.07299992 -0.19130279 -0.2434339 -0.30485314 0.021487234 0.11285699 -0.2236255 -0.0007677662 0.33278772 0.12030902 0.024123166 -0.33506346 -0.0036113667 0.12542708 -0.20678517 -0.013879833 0.015793467 -0.18608016 0.08868057 0.007868025 -0.007814918 -0.12727502 -0.054616548 0.07623363 0.14724445 -0.05019809 -0.116817884 0.39584655 0.057971306 -0.12853105 -0.46650985 0.011897145 0.29921904 -0.18734418 -0.10725579 -0.18216054 -0.052185286 0.17673025 -0.1893941 -0.12007593 -0.21263859 -0.22486983 0.057996605 0.39338017 -0.0070301145 0.13606496 -0.28307006 -0.020182705 0.058780868 0.26745558 -0.44827947 -0.03560538 0.07154825 0.24421562 -0.22796522 0.006423276 -0.21189328 -0.040769085 0.0426966 -0.3652055 -0.20021904 -0.26161906 -0.25682136 0.039177842 -0.061367787 0.3065398 -0.097284704 -0.1311924 0.14410132 -0.08110955 0.029283365 -0.13142684 0.1851896 0.013887733 -0.5369778 -0.0992237 0.22408535 -0.066872016 0.05056146 0.230858 0.1997723 -0.17714435 -0.37286952 0.00023561053 -0.04130419 0.2360501 -0.21740735 -0.3327959 -0.13331388 0.028662065 -0.06168965 0.067737475 0.2053793 0.0082257185 -0.08512251 -0.28720832 -0.08409455 -0.13340345 -0.1728134 0.18587759 0.22215459 -0.46835452 0.1817687 0.10349079 0.13177627 -0.15301535 0.3818472 0.092286624 -0.09283498 0.18140894 0.29356894 0.08771123 0.28922877 0.22578761 0.2655704 0.22522976 -0.15873498 0.18130046 -0.07647046 -0.07710224 0.0220028 0.18199742 0.14894523 0.16434033 0.112464674 0.1555723 0.26143372 0.46102756 -0.028151458 0.023886977 0.08186375 0.31676283 0.50008804 0.17124966 -0.046090323 -0.13487956 0.19505985 0.29012948 -0.07034681 -0.0040959804 -0.014364456 -0.5063752 -0.10562637 -0.14527266 0.14211692 -0.12086047 0.22040218 0.40996844 0.2760764 -0.25525528 -0.026495779 0.016539948 -0.29363877 -0.05400309
