ap&m 0.060730875 -0.42402217 -0.6110152 -0.73057014 -0.20962527 -0.27646378 -0.0006573119 -1.1319346 -0.3554105 -1.2419316 0.63171655 0.30646953 -0.030454025 -0.59292084 0.7983638 0.8463019 -0.67103153 -1.3602184 -0.5913684 -0.14982598 -0.70817006 0.9173404 -0.6530099 0.0020971536 1.3110672 0.43081254 -0.24150467 -0.88647157 0.5193378 0.053672694
rm-#### -0.84576535 -0.009329384 0.655205 0.40425405 0.54566896 -0.5926204 -0.12709673 1.0693942 0.046993047 -0.46439248 1.5959272 0.66432405 0.16514838 -0.75829196 -0.7686858 1.298815 0.44687897 0.4407162 0.16120742 0.38662025 -0.6922568 0.07566331 0.010581937 0.34961155 0.5039889 0.04959901 0.89350635 -0.79242796 -0.31599233 -0.36053103
c -0.29626364 1.6454599 0.41043583 0.4002623 1.0704813 -0.926728 -0.7352372 0.81892735 -0.17150277 -0.6218226 0.94861174 0.09612551 -0.9276822 1.5523485 -0.49700576 -0.071948975 -1.362577 -0.46708015 0.25030443 -0.26911882 -0.04009346 1.6137891 0.18550558 -0.73828924 1.7511289 -0.2864607 0.8312791 -0.11816419 0.79505354 -0.91032153
max -1.196927 1.0942519 0.3486052 -0.45663768 -0.33271208 0.06769496 -1.1468259 0.46509632 -0.44431487 -1.208341 -0.23899698 -0.7218211 0.21511297 -1.7238994 -0.58378106 1.0534463 -0.44941914 -1.7789936 0.1569382 1.4958998 1.1315919 -0.22924821 0.4737157 -0.89079696 0.651831 0.40720972 -0.49092144 -0.16089413 0.8297742 -0.38641208
stpt -0.38687772 0.3367398 0.58764803 0.14416967 -0.38350153 -0.80206543 -0.70081216 0.8874758 -1.0911716 -1.9591728 1.5955752 0.48804885 1.2097661 -0.41085038 0.07066768 0.44069237 -0.792949 0.3126926 1.0630618 -0.31167573 -0.8901134 1.9671628 -0.12412711 -1.2021489 0.6245814 -0.53968984 -0.52089125 0.47832927 0.24471846 0.6428814
o 0.33677885 0.49677098 -0.29723868 0.8697657 0.42249906 -0.7071829 -1.8973361 0.29175833 -1.3290377 -0.9569414 0.040917303 -0.18716 0.81739044 -0.71117175 -0.4359644 1.1399298 -0.17665438 -0.22048391 0.17002143 0.5029891 1.3790592 1.8299763 -0.5314798 -1.0190752 0.61457014 -0.43710703 -0.004784974 -0.53762645 1.0323671 0.31316888
h 0.6578233 0.5156972 -0.35611972 -0.8551973 2.046233 -0.81243014 -0.91647977 0.77462 -0.009382852 -2.0963237 0.66373235 -0.51623935 -0.5495651 0.13167103 0.16475008 -0.4411468 -0.73979574 0.11889593 -0.4755157 -0.1971007 -0.33143777 1.2886682 -0.23623161 -1.7703977 0.71818995 -1.1604273 0.3191638 -0.57986486 -0.5077297 -1.745274
min -1.0432645 0.46624085 0.65811837 0.41661257 0.18847094 0.52289605 -1.7137592 1.0545266 0.15436274 -1.2664146 0.51503986 -0.06540979 0.26961365 -0.32361877 0.17211083 1.602758 -0.94510245 -1.0583384 0.2169613 -0.7843183 0.94031566 0.81090415 0.28637782 -1.4468343 -0.5233152 -0.31790107 -0.9591421 -0.039879944 0.6556165 -0.07370685
rm-####b -0.6684155 -0.12682308 0.4775322 0.71437466 0.8273893 -0.31755996 -0.43372634 0.4420363 0.759477 -1.0985137 0.95109034 0.6969066 0.8405211 -0.23240925 -0.62617284 1.5250472 0.2167771 0.6176991 -0.0061138896 0.53774637 -0.63853765 -0.1595866 0.21046513 -0.17963511 -0.13675286 -0.831227 1.385108 -0.5065555 0.20503123 0.3467801
dmpr -0.47126058 0.9524321 -1.4993552 -0.24941202 0.5770229 -0.23307954 -1.883765 -0.051943865 0.24183962 -0.28455925 -0.34053448 0.9128941 -1.9049922 -0.12343312 -0.44207495 0.24643691 1.1777889 -0.23763418 0.56641686 0.46610352 -0.2961729 0.58065397 1.2135825 -1.0168234 -0.006312525 -1.4072025 -0.48322427 -0.66667473 0.62301326 0.047651555
cmd 1.5464513 -0.01165367 -0.28487828 1.0847431 -0.094747595 1.4647003 -0.46075633 -0.91614544 1.2348977 0.4035412 0.13012864 0.83713967 -0.87645364 0.23504625 -1.9580303 0.59560895 -1.003021 -1.9085225 -0.09609571 0.43297088 -0.8287152 0.565678 -0.061707605 -1.7423879 1.1371739 -0.0459233 0.2832676 1.2760493 0.76202637 0.13124254
sup -0.19587608 0.6954388 0.39194134 -0.24033682 -1.0103452 -0.39750853 -0.40313837 0.7134412 1.7111923 -0.1894463 0.82749736 0.21655808 -1.2105623 -0.123719424 0.80822814 1.1045556 -0.48609734 0.5158658 1.2556795 0.9804188 0.66706353 0.5671469 1.0555224 -0.12851347 0.059368502 -0.7914761 -0.50427336 -0.127051 1.2871438 -1.1731776
flo -0.53903407 -0.49537373 0.53398675 0.21181965 0.5872999 -1.5734752 -1.1915241 0.28428867 0.8999276 0.009081834 1.0167106 1.0630932 0.12696554 -0.43853417 -0.16126056 -0.8596577 -0.35992187 0.78945357 0.60798997 1.7678195 1.1673025 1.0147216 0.15609957 -1.3796563 1.6345899 -0.482102 0.4635182 0.65842676 -0.53035533 -0.36499608
zn 1.6901387 0.45526308 -0.089238316 -0.7697851 0.58132565 -1.8120912 -1.2378705 1.9638264 1.7288857 -1.3521518 -0.24138461 0.17661116 -0.33891955 -1.0673496 -0.8168736 -0.16763988 0.039507158 -0.82690614 0.4637305 0.56532115 0.4314572 0.11956331 -0.3977426 -0.6034547 -1.011762 1.1004353 -1.0381752 -0.09451796 0.89820653 -0.41908205
t 0.15288097 0.40557215 -0.8943363 -0.39478582 -0.39386198 -0.74988204 -0.096700326 1.0374444 1.1651578 -1.5795066 0.043230563 -1.0669456 -0.97080725 -0.67518467 -0.40823397 -0.500863 -0.2036347 1.0347412 0.84556365 0.8297853 0.24083659 1.6699809 -2.2034245 -0.02195735 -0.8649416 0.65977335 0.38585547 -1.3548123 -0.029137678 0.687078
ef# 0.6674445 0.66954887 -0.03232999 0.80223835 -0.785603 1.4342521 -1.0065981 0.35364616 -0.79724365 -0.28544545 -1.9427294 1.8377624 1.3569478 -0.004140049 0.40009877 1.0317657 -0.3165914 -1.5890825 1.0824121 0.37097877 -0.8778229 -1.2519866 -0.23697044 -0.97345746 2.3986795 -1.1033888 0.1980045 -0.8866546 -1.3386747 -0.015017443
vfd 0.40377077 1.0969136 -0.0068715713 0.43968698 -2.1999123 -0.040195324 -0.50563365 -1.905286 0.7796447 -1.2701421 -0.84128976 1.7381233 -0.8284099 0.6642247 -0.8243549 -0.047236014 -0.61454725 -0.10879022 -0.45354655 1.3424103 0.23193254 -0.4439315 -0.62131274 -0.5200727 0.16191262 -0.12988889 0.8927571 -0.49747732 -0.49685472 -0.035605587
power 0.816619 0.10959835 -1.1920764 1.9844435 -1.9160463 0.028742667 -0.7444183 -0.6925813 -1.2806215 0.2342817 -0.91731167 0.46285138 -0.7156249 -0.22777797 -1.7907896 0.35337964 -1.519687 -2.351369 0.8248917 -1.5594062 1.0140733 -0.6532008 -0.9710596 -0.40099946 0.13132825 -0.45061806 0.09154824 -1.063898 -0.5946597 -1.0527893
ef##-## 0.92811805 2.1754365 0.07054663 -0.013172705 0.0020845875 0.5175279 -2.2635727 -0.8086028 -0.14952935 2.2285254 1.3525141 -0.54620343 1.4522073 -0.7134772 0.36245406 1.702561 -0.97382075 -0.6893763 3.0475645 -0.21610835 0.47320694 1.138286 -1.5232852 0.9886344 0.15459478 -0.65105534 0.63315433 -2.5445838 -0.9132466 -1.0212777
easp 0.60393184 -0.56947815 0.13486655 0.19646545 0.002550064 -0.5121858 -2.0101118 -1.3039237 1.5157123 1.0577368 1.1611377 0.67464346 -0.6350459 -0.7600897 1.3694626 1.4166802 -1.8796948 0.94519144 2.0708776 0.6051344 -0.95969135 1.2637546 -0.9054463 1.5281537 -0.7693995 -0.6503035 1.0834246 -0.6117423 -1.2584645 0.015642136
db 2.4773319 1.132535 0.4852395 -0.5759259 -1.4200151 -1.5145952 -1.3752722 0.45297924 -0.35852548 0.29994428 3.0293903 -0.4435422 -0.012783617 -0.4722142 0.6589276 1.1667619 1.5708488 0.8413811 1.3004186 1.3178978 -1.4371352 -0.6600798 -0.21544446 0.36701205 -1.2089043 1.4953185 0.2381297 1.393807 -0.90485203 1.060725
htg 0.99830264 -0.38920155 -0.59327734 0.05124681 0.18367255 -0.7238612 -0.27886745 1.3893646 1.4816744 -0.7219623 0.8691793 -1.1066426 -0.93458915 0.41364563 0.008367645 1.9829597 0.0010669603 -0.16830951 0.86121064 -0.53466886 -0.71362776 0.1717745 0.37480298 -0.8714195 0.9084758 0.11113783 -0.33954602 0.13718796 0.48861474 -0.2480899
vlv 0.0728248 1.106034 -2.2958164 0.15198202 0.38295627 -0.7362835 -1.8847924 1.038372 -0.40540403 0.81546843 1.5491582 0.92029864 0.41504848 0.057433717 -0.40205702 0.39108756 0.9343958 0.24251743 1.3187238 1.1423312 -0.6846866 1.042075 -0.44164494 0.0015395551 0.31434524 -0.4979731 -1.268196 0.9984724 -0.031049652 1.2360644
box 0.8047337 -0.3898931 0.41238284 0.5266101 0.91861206 -0.82045954 -1.8691083 0.17203695 0.8009929 -0.81337583 -0.4892002 0.731298 -1.6828213 -0.26254612 -0.004314506 0.34524798 -1.0921211 0.16771643 1.3760632 0.6812987 -0.35999507 -0.3498386 -0.4796603 0.66538256 0.45872974 -1.84672 -0.8860719 -0.12549321 0.92147577 0.82873607
mode 0.0893694 -0.69347674 0.089762956 -1.2092228 1.4684333 -0.5581224 -1.2690833 0.20668325 1.0699141 -0.84318286 -0.49039766 0.9678762 -0.7361681 -1.1161368 -1.2849854 0.108681165 -0.78154236 -0.85061157 0.95301926 1.3870313 1.0569057 0.6327401 -0.61895156 0.6290637 -0.436044 -3.3081594 0.34002137 0.3022591 0.8491069 -0.90077215
wc 1.5271071 1.5708654 -0.27430356 0.44601122 1.9046648 -0.34220982 -0.7282267 0.54729456 0.85660976 -1.1128774 1.0230211 0.45048922 -0.8471793 -0.22037804 -0.43819803 0.06369013 -0.109107584 -0.8991856 1.9531771 -0.22112587 0.5943055 -0.6916614 -1.10037 0.76308376 0.5731634 -0.4079528 -0.7416278 0.39690328 1.1004456 -0.32721183
adj 1.0995213 1.1861364 -1.7425995 -0.63386583 0.6148218 -0.5005405 0.30445004 0.7188377 0.53664726 -0.6792564 -0.1401625 0.308166 -0.3745116 -0.49021372 -1.1874803 1.4571759 0.44600865 -1.1994809 2.362265 -0.6912299 0.8721997 0.77861476 -0.112608105 0.86931366 -0.20660609 -1.6671293 0.73801136 0.0055130213 1.725802 -0.19596124
#flehalla -0.2301213 0.6760363 0.2857076 1.420433 0.71746695 -0.5125166 -1.4539288 0.03028908 -0.121539325 0.3000419 0.78865975 -0.58263445 0.9155162 -0.26454088 0.7321347 1.3266624 0.9949515 -0.3690095 0.768911 1.4857335 0.61363876 0.5645273 -0.8991478 0.2597701 -0.3349353 -0.33103314 0.5376772 0.27244997 -0.8148248 -0.047599107
clg 0.64604956 0.92184573 0.78863496 -0.09837033 0.36877364 -1.5480912 -0.17546056 1.2066405 1.2585813 -0.89990854 0.66585815 -0.39187276 -0.87027013 -0.52225804 0.8096295 -0.05957889 -0.21524762 0.2820776 0.83777297 -0.7797855 -0.31566995 1.1390973 0.7014184 -1.1431372 0.95808256 -0.24693981 1.1504669 0.17569806 0.17296247 0.65016264
rm-b### -0.1824257 0.15037769 0.8893587 0.7595635 1.0677906 -0.8101344 -0.15861085 1.3650571 0.031111503 -0.6544827 1.3977293 0.3666696 1.0992247 -0.52927333 -0.40683377 0.82253003 0.301696 -0.011909564 -0.36147988 0.5607937 -0.72888577 -0.19349419 0.53863347 0.6812482 -0.07846264 -0.80511713 0.30271006 -1.1205244 -0.3610797 -0.18153188
energy 0.84650683 -0.19051999 -0.036888804 1.4296265 -1.6562 0.76353216 -0.07193024 -0.60858214 0.17296648 -0.8029992 -0.37905675 0.65165603 -1.1924095 -0.9428682 -1.3444831 0.4549924 -1.5856239 -1.7522243 1.0253046 -0.041054316 -0.79336643 -1.3445156 -0.51832175 -0.5598747 1.5121176 1.2022086 -0.10297772 -1.5713935 -0.8844746 -1.6849954
m 1.20276 1.4881753 -1.5204942 1.4133489 -0.11248984 -1.227855 -0.5613514 -0.0835429 0.6952083 -0.5142626 -1.7164973 0.72501194 -0.47734934 0.7033685 -0.66079926 0.22960754 -0.6964692 -2.4160547 0.92863536 1.2994583 -1.612448 -1.3270712 -1.2158767 0.7674779 3.3131692 0.3048404 1.4575468 -1.8520066 0.7226111 -1.0324036
rm-####h -1.0400493 -0.17067173 0.277228 0.8181497 0.10874965 -0.43788067 -0.8144306 0.36974928 -0.43507084 -1.5748215 1.4782758 0.0137710115 1.730997 1.1325526 -0.41850534 1.6154568 -1.013019 1.2371892 0.21587676 0.59318435 -0.09051702 0.686942 0.36351198 -0.7511376 0.0061345105 -1.2714655 1.3109518 -0.71872216 -0.43274838 -0.55245
flow 0.67185354 -0.7290348 -1.3847238 0.3997064 1.1919464 0.5031364 -0.8437931 -0.14441708 0.72998935 -1.8247056 1.3755412 0.9973655 0.47267035 -0.056409955 -0.11744119 0.29673868 0.15594506 1.2585126 2.0201006 2.1435518 0.90932155 0.9201395 0.62745684 0.025634205 0.7373821 -0.07733523 -0.47561756 0.94841343 -0.4587925 -0.09326704
a 0.46663058 0.6143422 0.031130962 1.0111998 1.3079909 -0.94145 -0.6164159 0.5413403 0.09466097 0.21638656 0.5011946 -0.8785283 0.32801974 -0.54688036 0.8734534 1.0550352 0.3959332 -0.7798309 1.335475 2.0435183 0.93947256 1.1132925 -1.0370494 0.22779395 0.3621009 -1.0994182 -0.6230289 0.85239357 0.23333207 -0.04927061
occ 0.015107534 0.52150273 -1.0045183 0.51044035 1.3634685 -0.39311865 -0.9994737 0.44537163 0.30181852 0.40651393 -0.678152 0.5335295 -1.7529335 0.20180623 -0.8427537 1.1677742 -0.42494768 0.240491 0.9115659 2.1430779 -0.01949075 1.4305028 0.7493604 -0.19513258 -0.71096385 0.47535804 -1.0297071 -0.50034714 0.2618087 0.23150313
sa 0.95446676 -0.913074 0.25926572 -1.7242743 1.5342667 -2.2458935 -2.1099157 0.97274864 0.12435982 -0.2425499 1.6083333 -1.5459212 0.85782194 0.37432495 -0.8234708 0.31144813 0.7252569 -0.08036903 0.37089834 1.7854726 -0.6090213 -0.3609409 -1.6102699 -0.1689091 -0.48060378 0.7444211 1.6329958 0.08170604 -0.29942605 0.26425582
vp 0.85343564 1.3551754 0.2693936 -0.72413695 -0.25410876 0.5536599 -1.1979579 -0.6376896 0.2419656 -0.68353987 1.0669894 -1.6062763 -1.4078332 -1.0650328 -0.2658307 0.9867039 0.37922466 -0.7507895 2.0473192 0.30845177 -0.20050734 0.4543404 -0.7471818 -1.2086064 -0.6171545 -0.5639668 -0.43886542 0.4550865 -0.98881334 0.42089003
rm-####a -0.65626425 0.041135214 0.38733476 0.81114733 0.81434983 -1.007489 -0.27068204 1.1101441 0.28915402 -0.88409674 0.88670087 0.7917036 0.2415574 -0.47972482 -0.5991714 1.5094442 0.07460073 0.23663065 -0.44075012 0.25425607 -0.5871717 0.08405434 -0.13928194 0.3151573 -0.114634216 -0.5444887 1.1863073 -0.12037127 -0.14028212 0.087272555
ahu-# -0.19678092 -0.873512 0.04639038 -0.113999836 0.22336873 -0.6188805 -0.0016036246 0.57833475 -0.5776148 -0.8402214 -0.54388124 -1.8540162 -0.5036238 -1.9910057 -0.4587332 2.1741166 -0.18331274 -2.1737795 0.8010913 2.1723442 -1.5847232 -0.7553858 -1.1514777 -1.1696657 -0.88630337 0.7376781 1.9741575 0.9765948 -1.1678869 0.6141214
sp -0.68261117 -0.38714236 -0.12835325 -0.23788045 0.23198034 -0.69451374 -2.1975074 0.5128583 0.31138328 -0.71375483 1.3840448 0.47880694 0.075952806 -1.0893743 0.7019525 0.3866287 -0.3077419 0.23091726 1.5959346 0.25738794 0.695602 0.8633641 0.16617845 0.1980883 -0.01979075 0.39584157 0.1658964 1.0313461 -0.0030445047 2.8215196
rm-b###b -0.38626453 0.19885337 1.3674285 0.8802886 0.46085688 -0.8436381 -0.026520338 0.9134283 0.5403084 -1.6645534 0.7384483 0.59592855 0.8087859 0.15528356 -0.14473839 1.7998906 0.75577503 0.63828164 0.044729106 0.96877736 -0.3693842 1.0044912 0.3168381 -0.18635479 -0.42672154 0.19477648 0.7697383 0.011575991 -0.87384504 0.2090836
dpr -0.23763332 0.73195434 -0.47275215 -0.3780521 0.61039454 -0.4375415 -0.53425723 0.8668693 -0.67205834 -0.8183307 -0.6880263 1.1405174 -0.8326535 -0.35724804 -1.2812548 1.9777973 -0.488662 -0.62941366 0.84812737 0.5291582 1.4757543 0.62663114 1.0382795 -1.220843 -0.10965569 -0.9524806 -0.781622 0.42955682 -0.42524263 0.7899348
hx-#hx# 0.5610624 0.17511682 -1.2600513 1.4757508 0.37770241 -1.5690168 -0.7835662 0.24537478 0.6048033 0.82093304 0.95975506 -2.085117 -1.3463306 -0.86925346 0.30831867 1.3283559 -1.2855473 0.29771593 0.456997 0.75477755 -1.0579257 0.580455 -1.2417052 -0.08986672 -0.73292243 -0.4443927 0.2786388 -1.1922015 -1.443415 -0.14236552
mtw -0.23736599 2.0858552 -1.0227984 -0.9854809 0.7952607 -2.6909604 -3.4889724 0.34627986 -0.6523803 -1.5349512 1.3665854 0.20901462 0.31276175 0.32421008 0.91639185 -0.105935425 -0.94763035 0.06144655 -0.96365494 0.44322902 -0.6139058 -0.078486934 1.2964445 0.8733742 -2.3067446 1.1377207 -0.9935193 -0.91255724 -1.5918757 0.7551577
s 3.2636023 1.3077469 -0.18704145 -0.9359727 0.89782816 -1.0066133 -0.95465755 0.31300777 0.56255233 -0.6243257 1.8740917 -0.08291829 -0.5017915 0.79477346 -0.9123982 1.0393921 -2.315805 0.02659236 -0.6614579 0.6816172 -1.3477576 -0.037032444 -0.13711601 0.14805856 0.093315944 1.8125193 -1.5293307 0.8606368 -2.3814092 0.6713016
ef-# 0.9771508 1.7111299 -0.33500114 1.5124738 -0.25650507 -1.5250794 -0.4995542 -0.658885 1.2313851 -0.13372895 -0.5024861 2.0531707 -0.07927561 -2.0015156 1.773163 1.8880486 0.17494948 -0.5709493 1.3074968 -0.14593801 0.3335516 0.62542903 0.68007106 -0.054104283 -0.31233823 0.045655403 0.70812815 -0.52967876 -0.12421987 -0.8093194
esp 0.8924444 -0.20158057 -0.41947505 1.1944722 0.8310156 -1.2270801 -1.5486957 -1.1709285 2.0237699 -0.08561827 0.7230427 1.2208946 0.34934822 -0.2986127 1.3678848 0.30510426 -0.6736045 0.20583405 1.5229154 0.5248821 0.12189142 1.263816 -1.1803765 -0.057320684 -0.9686283 0.577081 1.0439929 -1.428446 -0.30033675 -2.183937
pb 1.3180209 2.1328304 -0.59568995 0.14957364 -0.3902256 -0.6717309 -1.6174734 -1.2777427 -0.60550153 0.6308009 2.4434962 1.7219474 1.6103127 -1.7974092 -0.060085624 0.09099946 -1.3087127 0.2049893 1.8891679 -0.057251915 0.70095545 1.2059647 -0.1945397 -0.8380551 -2.1434052 0.25846863 0.00282359 -0.6239291 -0.12054508 -0.69526416
hx-# 0.06394988 2.2596984 0.14523692 2.0530016 -0.920577 -0.6454209 -0.8124579 -1.7255635 -0.34105164 -0.082333736 1.8196565 -1.0379281 0.63881356 0.003272697 -0.2563374 0.07427596 -3.122809 1.1703581 0.49368173 2.148064 -0.46581367 -0.059926044 0.08711795 -0.99844146 -0.95137966 0.18207598 -1.2451445 -2.6007588 -2.2719371 -0.19602765
p# 1.5809709 1.4102516 -0.5123222 0.45343345 -1.4860866 -1.485777 -0.5314838 0.103988074 -1.2429277 0.043376878 -1.7467496 1.4018022 -1.092675 0.50674903 -0.21730801 0.37414634 -1.0608476 -2.0226698 1.0060152 0.12777835 -0.4349529 -2.952321 0.02678058 -0.5379692 1.1176504 0.84237474 0.039695527 -0.3560455 -1.4136405 1.4369353
sts -0.2879461 0.12108498 0.04894179 -0.1465303 -2.198043 -0.46674776 -0.9755024 -0.76995575 -0.28438085 -0.5121951 -0.7883816 0.7448798 0.16923879 2.6792815 -2.0341551 0.59044015 -1.4305822 -2.638078 0.50306547 -0.3153144 -0.6859643 -0.8478852 -1.6127533 -1.0073892 1.3949876 0.27522165 0.6367765 0.6416321 -1.8500481 -0.48864347
r 1.4848208 1.3939613 -0.844402 -0.52374715 -1.6322486 0.521972 -0.7972349 1.5544851 -1.1829689 -1.5484582 -0.7768618 0.5408134 1.5011853 0.49560595 -0.47068596 0.67533046 -1.2393842 -1.4187948 0.18389472 0.47516572 -2.2321737 -0.13100879 -1.1696113 -0.12253877 0.63339555 1.6686633 0.8167006 -0.81868327 -0.86736304 0.23358643
ftr 0.25782898 0.72736955 -0.7068746 -1.2700998 -1.100302 -0.67701006 -1.6255655 -1.224147 1.8331039 -0.7296621 -0.2620136 -0.96637404 -1.54454 0.4123861 -0.5412606 -0.31453413 -1.9467912 -0.33321837 0.49629897 1.0047145 -1.7041312 0.6960074 -0.36161655 -1.989953 -1.3640714 -0.3968226 1.367136 -1.6953818 -0.68144196 -0.7964366
ef## 0.95306236 1.6588346 -0.5736288 0.29448766 0.7878302 0.54774505 -0.85407805 -0.15718158 -1.128056 0.035060965 -1.4055529 1.6575551 0.9619594 0.3184556 1.0922137 -0.35899824 -1.0874454 -1.9850451 0.41197148 0.699823 -1.8277005 -0.69809926 -0.7176636 -0.37814268 1.8024698 -1.0083904 0.62194914 0.14563201 -1.8104488 -0.31516483
vfdvfd 0.06163665 1.779298 -1.4061916 -0.4437472 -1.3325689 -0.78489536 -0.25666928 -1.0283314 -0.19533439 -1.002307 -1.2810655 -0.026684048 -1.310542 -0.806551 -1.1915188 0.93272924 -1.4935029 -1.7542478 -0.7319465 -0.25878108 0.00724933 0.3111638 -0.21221028 0.41385555 -0.24388127 -1.5581734 1.8781574 -1.8583344 -0.4068447 -1.5955167
ena -0.55613387 0.48952344 -0.24277785 0.6120505 -2.685691 0.41137636 -1.14302 -0.8610156 -0.3802797 -0.5105011 -0.4537529 0.54407406 -0.99461716 -0.60875213 -0.8111924 -0.617074 -1.837104 -2.1685839 0.7402614 -0.7186761 -1.7398052 -0.41875935 0.28669238 -0.49375737 1.2771102 0.31531027 0.44896737 -1.013091 -1.9883524 -0.6850412
rm-b###w -0.15755484 -0.41045576 -0.19908245 1.5108794 0.35500184 -0.003203194 -1.0802208 0.62274903 0.44846782 -1.1033062 1.9236445 0.12260699 -0.47271279 -0.5330176 1.4159669 1.5372579 -0.33913627 1.7878627 0.85826117 1.6624054 -0.34365666 -0.042872828 0.5904438 0.2119762 -1.2952056 -0.70212513 1.1782387 0.8601826 -0.18805388 -0.19495207
chw 0.17509514 0.33275074 -0.22990142 0.20942174 -1.3234099 -1.0911264 -2.1418073 0.043593857 -1.125294 0.7340463 0.15203466 1.3293716 0.32870853 1.5037225 -0.061037425 -0.56345844 -2.4694402 -0.11816688 0.77635485 -0.08994968 -0.16879092 -2.528725 -0.62321347 -1.5854595 0.8413956 1.4518157 0.011678982 -1.3951911 -0.834092 -0.17669061
b 1.4412917 -0.14387266 0.65380543 0.52164406 -2.5076835 -0.6766764 -1.4877462 0.39797428 0.48803303 -2.0154345 0.008980389 0.43980882 -2.2396877 -0.7937607 -0.6001722 0.5321226 -1.7891135 -0.26430172 0.23830213 -0.6808345 -0.94898236 -1.4504211 -0.81193495 -0.8461149 -1.8669007 1.1713263 -0.32859674 -0.25330597 -0.6974977 -0.28597036
#flehall -0.5741312 -0.19558953 0.8799556 0.9656201 0.78332776 0.09840858 -0.23542015 0.88416606 -0.18315916 -1.1257656 1.183805 0.22744322 0.41714957 -0.38154054 0.021728138 1.4964135 -0.32284155 0.2756675 -0.47932467 1.2522937 -0.9961914 0.6727195 0.0406463 -0.72255355 -1.0367074 -0.34528708 1.2469304 0.041613586 -0.7633954 -0.695684
rm-####c -0.52111244 -0.539987 0.64595217 0.7513293 0.9576403 -0.77515525 -0.43610996 0.6035786 0.20503376 -1.0185062 0.68480515 0.45840347 0.66411114 -0.5702127 -0.37830043 1.6056674 -0.031043313 0.1365984 0.26544338 0.12542696 -0.7165633 -0.37849256 -0.20669964 -0.074864574 -0.26763234 -0.7649207 1.4977883 -0.4630409 0.2003886 -0.025450546
pos -0.1895672 0.6210794 -0.39124072 1.0451872 1.2015939 0.9218225 -0.92092913 -0.6796708 0.7264233 -0.50818074 1.0584564 0.49741352 -2.1922917 -1.0355641 -0.8706865 0.1209234 -0.0643637 -1.1188796 0.4958943 0.7307822 -0.2926676 0.10112959 0.7264351 -1.3422503 1.043188 -2.5824673 0.04908846 1.399117 -0.07374611 0.7280177
ahu# -0.49624738 -0.22918965 -1.2015814 0.20974195 -0.10586572 -0.122351855 -1.0404212 -0.8448853 0.24631569 -1.0963652 -1.933958 0.47622427 0.48461038 -1.2372451 -0.18245775 -0.8346138 -1.008753 -2.0568142 -0.11605235 2.282376 -1.5985854 -1.8026681 -2.1048245 -1.3958064 2.053679 -0.43692553 1.3263507 -0.5719164 -1.989546 -0.6595439
l 1.5911161 1.2894245 -0.46766022 -0.08702729 -1.022649 0.7504799 -0.747412 -0.32873812 -0.77733904 0.030328752 -1.0326777 1.1054455 1.8346226 -0.2872153 -0.0638828 -0.3806341 -0.24681453 -1.6971368 0.5492621 1.5242971 -1.4147011 0.11464205 0.10527754 -0.64955103 1.821705 0.16979198 0.7640226 -1.1566156 -1.3678732 -0.63225067
curr 0.88960844 -0.5245415 -1.7704046 -0.41745418 -0.3954656 0.29699323 -1.2771351 0.97002494 -0.16512467 -0.9709819 -1.4220576 1.4955835 -0.15575966 -1.6727858 -1.8836769 -0.49821168 -0.41639027 -3.1171846 1.0351127 1.7997276 0.24131599 0.5580843 -1.0604558 0.46131998 0.6547508 0.7363743 0.8551982 -0.53063035 -1.1636068 -1.1870855
lmt 0.48488665 0.29742426 -2.0142095 0.44225913 0.9929625 -1.2132398 -1.8990457 -2.654805 -0.119390465 0.9185122 -0.43815106 0.9368176 0.6260384 -1.6928637 -0.67269325 -0.65324724 0.19277753 -2.7407196 2.3895485 1.8679924 -0.023878703 -0.23914866 -0.19013204 1.8402628 0.5762436 1.105847 0.9419658 -1.0357666 -1.851077 -0.47661144
crac-# 1.8434899 0.11360098 -1.6631427 2.030297 -0.7335045 -0.26889366 -0.28348592 0.9286826 -1.722869 -2.1454499 1.5707984 -0.6665467 0.01223865 1.3451735 -0.15292011 -0.44251862 0.799393 -1.5461856 0.2459683 1.0211481 1.7295374 -0.8082093 1.7476565 0.2730505 -0.7152386 -1.5519882 0.28526857 0.005578449 -0.79186964 -1.0028416
mig-### 1.2962617 -0.027397092 -1.8713206 2.5521357 -0.69557744 -0.20136307 -1.1527299 -1.311165 1.2034198 0.26151672 0.82001036 0.13231744 1.2067603 0.34551883 0.44795564 1.3275893 -0.044893987 -1.3222129 0.4094871 -0.09216634 0.6958731 0.26467755 -0.51635075 1.1168264 -0.83881444 -3.3108246 -0.022238063 -0.7305919 -0.5769772 -0.23659223
capacity 2.5630765 0.35953704 0.6255841 0.9920365 -0.25682402 -0.33125842 -1.3631048 -0.4014691 0.14867845 -0.904862 -0.052638024 -0.51670074 -0.6427281 0.47629428 0.11105461 0.3883624 -0.3248751 -1.7914969 0.2883029 -0.9360188 0.27954948 0.7878074 -0.35636437 0.42518166 -0.504748 -2.0507522 0.0013804066 -0.9777567 -1.121599 -1.143882
ef-##ef## -0.16047598 1.7505693 -0.34416643 -0.075904846 -0.33778432 0.146929 -0.6887176 -0.79326636 -0.2557073 -0.13274221 -0.74642736 -0.19731134 -0.91109353 -0.42469925 0.587323 1.1446222 -0.9680816 -0.7746517 1.0955731 0.27460647 -0.3350484 0.5867618 0.160008 -0.39801443 -1.6259562 -2.121669 0.80305064 -0.41237727 -1.5569205 -0.124717064
dx### 1.8707336 1.7806818 0.8871314 1.0912995 -2.405366 -1.6396395 -2.6685665 0.70100766 -1.3591208 0.67411137 1.1836683 1.4370846 -2.2215297 0.27989358 -0.02589177 0.5465279 -1.5959928 0.076203 0.2488346 -1.3827547 -1.1769373 -1.1083189 0.30719268 0.58701646 -2.6185555 0.14655837 -0.7613169 0.22906376 -0.823432 0.7371563
p 0.73544395 -0.47800142 0.015832447 0.8799454 -2.9691594 -1.8794135 -2.2283785 1.1154144 -0.53425944 -0.12085178 0.7399774 0.28861222 -2.2488148 0.22393155 0.18839028 1.5199777 -2.2759423 -0.4222987 0.56321704 0.1263189 -0.051575568 -0.29070413 0.06434052 0.21979144 -0.5166971 2.7091627 -0.085721575 -0.3823828 -1.9306898 1.8878244
rm-b###wb 0.002792569 0.58645743 0.98673713 1.3081305 0.9622421 -1.5158534 -0.13096343 0.55160373 -0.4354733 -1.4133445 0.42277333 0.54670453 1.4752406 -0.41849765 -0.022934593 2.2980337 1.2361188 -0.633951 1.1287098 -0.6370784 0.32542694 -0.0090457965 -0.33591187 0.11342395 0.87369865 -0.83565867 0.9151478 -0.27161747 -0.48407054 -0.25243223
ef-## 1.3518729 2.4007704 0.06165249 0.8355248 -0.23164153 -1.0016688 -0.5452398 -1.0282484 0.6058152 0.82273865 0.1731121 1.2329165 0.021540552 -1.6554263 2.0719304 1.8117479 0.805048 -0.3660458 1.8553389 -0.1924028 0.48066762 0.7269377 0.61262536 0.3723371 0.08027739 0.102689266 0.93353194 -0.8639512 -0.38642073 -0.9000933
current -0.458165 0.64247745 -0.40492025 0.18249327 -0.29694694 1.2024416 -0.6764094 -0.46243382 0.6395009 -0.5521728 -0.082348414 0.0057401867 -0.9446637 0.059578527 -0.84466785 -0.097879864 -1.2381375 -2.6694672 1.6140442 0.10067074 -1.113183 -0.7459953 -0.59205014 0.31477392 0.60871744 0.5629523 1.4508511 -0.87162143 -0.12144226 -1.6841729
sys 1.6531512 1.0024192 -0.9334403 0.4976077 -2.4843984 0.6097126 -0.69845307 1.2852454 -0.9335918 0.63811654 1.9212425 1.2945973 -0.5943006 -0.91195464 -0.19369578 0.29868084 -3.3267832 0.02654801 -0.12274119 0.24841295 0.1203589 -0.23569486 -0.017655715 -1.1636064 -1.7216773 1.3881772 -0.455961 -1.0132736 -0.9410064 0.1984644
run 0.2824669 -0.31480265 -0.11448646 0.28197455 -1.8012133 0.5809933 -1.3133608 0.78532875 -0.93630695 -0.005330639 1.4224771 2.4072096 0.4642718 1.7894915 0.5045518 0.006004795 -2.1857493 -2.927926 0.8834484 -0.28156784 -0.40123758 -1.0275285 -0.23358123 0.46041647 0.9613388 1.1893431 0.27788827 -0.40553054 -1.4400884 0.7243469
reset 0.48305863 0.7840048 -0.5604787 -1.0946255 -2.3104265 1.1156837 -0.8053534 0.7852039 -0.10731813 -0.9325914 2.5329752 0.3413169 0.11497266 0.09120322 -0.74699116 0.6504541 -0.7182439 -0.9539449 0.5528907 1.1536292 1.0227816 -2.138376 -3.0573485 -0.94422805 -0.30233037 0.74753416 0.5159928 1.0046248 -1.4067115 -0.9596552
drv 0.43780383 0.38471606 -1.3174514 2.3514898 -1.9662087 -0.23116866 -0.97457606 -0.97556317 0.07746135 -0.88154626 0.42695686 1.2550392 -0.5844498 0.14688626 -0.7558764 -0.2002565 0.4060875 -1.3740989 1.7288473 0.49531725 -1.1961344 -1.4000722 -1.0696019 -0.088029996 2.2529368 1.1930671 -0.082726166 -1.2866994 -0.47145385 -0.60610205
tmp 0.8699367 -0.3111311 0.02473956 2.311765 -1.3300442 -0.42001483 -1.1065538 -0.03144136 -0.21088436 -1.2403 -1.3234258 0.7520903 -0.053450745 -0.82549286 -0.25929996 -0.59829485 -0.5192923 -2.4773276 1.9865503 0.5455963 -0.6422174 -0.6866978 0.50737023 0.53638184 1.4150714 -0.08236843 2.3988168 -2.2697825 0.58152527 -0.80839854
co# 0.5912949 1.4039456 -0.13419555 -0.2870773 0.7204818 -1.1362405 -1.2907765 -0.6730773 0.23790826 -0.8738058 0.6041318 0.1710688 0.44687963 -0.8740936 -0.24994883 -0.5612647 0.42181706 -0.7264807 2.0373096 -0.22218224 0.35957727 -0.5776769 1.0791223 0.54553384 0.1912402 -1.5526332 -1.7121918 -2.5186412 0.3638118 -0.13738282
lvl 1.5489919 0.5198819 0.3988963 -0.07278144 0.845802 -0.4118033 -0.3177161 -0.85454124 -0.22185169 0.841868 0.30495775 -0.38608444 -0.7148739 -0.39667797 -1.3294547 0.47522092 -1.3353361 -0.23288122 1.6452322 0.7937208 -0.3827968 1.9959277 0.7171048 0.76768947 1.1419957 -2.2345798 -0.4144341 -0.7616577 -0.7748006 0.06408325
pan 0.5281519 0.69241154 -0.3005203 1.3495394 -1.4239318 1.2178453 -0.17710471 0.064405315 0.59211427 0.3966195 -0.116636954 1.146773 -0.93128234 -0.7755757 0.084011525 0.006200471 -0.5601156 -2.944504 0.5417465 1.2008592 -0.7938975 -0.20884883 -0.66941166 2.0478013 0.5508998 -0.8374894 0.6263242 -0.0178056 -1.2510229 -1.3336132
lock 0.6504078 0.87677723 -0.56125754 1.9264141 -0.0890663 1.2035762 -0.7610374 -0.8421022 -1.5956597 -1.7515187 0.39216143 1.8498777 0.23573218 -1.2388296 -1.4214514 -0.9858604 -0.59392333 -2.9397879 0.86115247 -0.03841777 0.27270055 -0.0054032584 -0.029951224 0.72957766 1.2798364 -0.34846908 2.3337293 0.25280118 -1.7302599 -0.7632112
static 1.0997039 0.52993554 1.188014 0.15023342 1.0854486 -0.27815259 -1.5915428 -0.057401743 -0.51407593 -0.89770216 0.45750767 -0.3982408 -0.60270095 0.12910603 0.2495537 0.41875583 0.39407215 0.5189294 0.89850396 1.1096811 1.4673599 0.24941683 -0.48214996 -1.2574184 1.1818424 -0.5099649 2.0416944 -1.74676 -0.8656201 0.6198159
rm-####e 0.59522766 -0.6541103 -0.1380402 0.9796017 0.44433793 -1.2210947 -0.41963705 0.6872611 0.38338843 -2.419654 1.3118193 -0.015564617 1.7515707 -0.03012704 -0.35714146 1.4868604 0.68952733 0.514422 0.70860535 0.1247266 -0.26600835 -0.2485485 -0.24867797 0.24727398 -0.7911867 0.16374701 1.538054 -0.75918543 0.33713457 -0.4349247
rm-####rm#### 1.4816203 -0.024685338 0.5496383 -0.68891096 0.3472905 -1.4281651 -1.3634751 1.083945 0.73901576 -1.1133597 0.44512153 -0.43866226 0.4539482 -0.57748353 -0.6719552 0.33959264 0.3139739 -0.80145854 -0.25241426 0.6646379 -1.1871377 -1.0079515 -0.19034514 -0.017497715 -1.7965903 0.26694715 0.116196975 -0.2845457 -0.15257567 -0.9899088
dp 0.6605233 0.26954466 -2.2234175 0.17671144 -0.6620238 -1.055299 -1.3175471 0.13803004 -0.72027844 -1.3627185 1.6381209 1.0440108 -0.67706543 0.8921355 0.19244482 1.7586352 -3.8441176 1.1854243 1.3353461 -0.96846974 0.06544981 1.246449 -0.15202087 0.2944613 -1.718023 1.0958314 0.49615106 0.3253976 -1.3954688 0.287586
ea##sp 0.5080892 -0.29391247 0.2682527 0.6706508 -0.07652709 -0.10563841 -1.5071292 -1.3140703 1.2283001 -0.29073176 0.906112 0.89692473 0.38833442 -0.6197202 0.34192452 0.28405187 -1.4927002 0.2753199 1.5031383 0.51741487 -0.26860332 1.7334967 -0.9512024 0.5007082 -0.9924538 -0.9611956 0.17056577 -0.46502325 -1.1995343 -0.56697667
last 0.40356296 1.7334265 -0.7684455 0.6249459 -1.0565735 0.007943446 0.106985755 -1.1056055 -1.2151107 0.1272038 -0.11237783 0.4632671 -1.0320108 0.5171407 -0.84726644 1.0557408 -0.19933115 -2.1104405 1.3741205 0.615506 -0.5026706 -1.4483453 -1.792265 0.44749814 1.9783 -0.016689941 1.2432739 -0.15562521 -1.0738137 -1.794272
flt 0.6206704 0.90262824 0.75048816 0.74512756 -0.377075 2.0151665 -1.4704349 -1.4922003 -0.45543814 -1.2686617 -0.19253232 0.266912 -1.6280932 -0.1971155 -0.78698677 -1.2221708 -1.9220815 -1.594959 1.0995464 1.2803385 -0.89293015 -0.98719513 -0.017327122 0.15279824 1.2174106 1.0743331 0.6289593 -0.7414642 -0.97814566 0.11037185
easf 0.18839213 0.66597366 0.66299415 -0.4480324 0.9628466 -0.48622856 -1.4578698 -1.4614007 1.6088467 -0.24764517 1.1341654 -0.3699384 -0.892203 -0.06234297 1.492236 1.519416 -0.57093906 0.37009543 0.8739995 1.1030192 -0.21176875 0.74704623 -0.13659795 1.6281029 -0.17762005 -1.3561692 1.608037 -0.32402518 -1.1165771 -0.100055076
freq -0.96885407 1.4767777 0.59070843 -0.65655184 0.3171038 -0.33624616 0.1514476 -0.42327812 -0.045619942 -1.6713337 -0.0011974449 0.5242874 -0.08823596 0.2576017 -2.005739 -0.80814695 -1.4513779 -2.441249 1.4962311 1.3215266 -1.4818914 0.13619998 -0.9952573 -0.15406264 2.4141102 1.0372384 2.083887 -0.0919649 -0.6865096 -0.8590342
bb### 0.50128794 -0.0054569477 -0.18274832 -0.13477752 -0.8592507 -0.12435039 0.23189408 -0.21895257 0.57152194 -0.70181745 1.6781216 0.22991672 -0.41687897 1.3099842 0.40111357 1.6809524 -0.33677638 0.28448352 1.2102184 1.1648588 -0.4030267 -0.6066837 0.65041214 0.080067456 -0.5888193 -1.21286 0.45419776 -0.93439204 0.37788033 -0.38920128
rm-####j 0.22337028 -0.3752099 2.0921757 1.1269017 1.2886424 -0.26421306 -0.85711575 -0.26025507 -0.20922725 -1.303048 0.5808556 1.2178757 -0.34227997 -0.18891665 -0.36272064 1.8725716 -0.72733015 0.8756391 0.014861075 0.22891201 -0.016898891 1.2276189 1.7380513 -0.71846825 -0.7267874 -0.07297458 1.1797482 -0.31484845 -0.7478125 -0.50980264
fwdrev -0.0033722133 0.9179263 -1.0708836 0.99081606 0.50443953 -0.09055091 0.7280505 -1.1362978 -0.68893796 -0.6931938 -0.89072907 0.4118025 -1.2760063 -0.44346914 -0.83174545 0.15691166 -1.5467871 -1.9826354 1.5276103 0.6828325 -1.2841455 0.07844055 -0.11230461 -0.38144305 0.21231371 0.82412237 1.2747265 -1.9074 -0.26787776 -1.5172936
rm-b###c -0.53512394 0.64285547 0.69164246 -0.24910997 1.1813449 -1.3408846 0.7516151 1.82755 0.11436556 -0.831211 0.96352696 -0.08423009 1.6739637 0.14858091 -0.7441371 1.622424 -0.14898133 -0.48569754 1.0402185 0.6522664 0.36630064 -0.18476976 -0.89128673 0.27971014 -0.19510315 0.08419239 1.5275544 0.34299302 -0.9759989 -0.65982854
#### 0.46906957 0.0050055105 -0.15735215 -0.07246594 -0.86997783 -0.13047294 0.27704418 -0.22896333 0.59810394 -0.692214 1.6873256 0.211742 -0.37519494 1.32387 0.39988643 1.7742515 -0.32205328 0.2788169 1.2618169 1.2224047 -0.366713 -0.62086314 0.6657493 0.008648684 -0.5867422 -1.2459426 0.46285075 -0.9295232 0.37299442 -0.363151
sa# 1.4057518 -0.10896617 0.224491 -0.45225042 -1.0366046 -2.0214574 -0.99027556 0.30834237 0.8220519 1.2832742 0.6776559 -0.35341376 -0.44433254 0.8221227 -0.3482938 0.70447 0.49985898 0.03090305 1.7924825 1.0617847 -1.017248 0.7265368 0.7152767 -0.25367942 -0.14936633 -0.47426063 1.3054802 -0.1800636 -0.3521265 -0.53017277
s-# 0.680606 -0.6113548 1.1478597 -0.11569798 -0.08764256 -0.8725981 -1.1688673 1.7965736 0.44525674 0.3109093 1.4479303 -1.7277055 -0.18205883 -1.8796272 0.24570441 1.481714 0.7424712 -1.0239753 0.5040893 1.0343262 -1.1305968 -1.0072347 -1.5232036 -1.2510946 -0.89809066 0.44633213 0.42337945 0.09693354 -0.91134906 -0.4677005
rst -0.35423678 2.2999628 -1.633154 0.85226125 -1.6528271 -0.5603757 0.2095048 -0.43805784 -0.85587645 0.5683166 0.43834284 -0.5956867 -1.1561781 0.38883764 -0.9746545 0.9738484 -1.3257326 -1.9522669 0.775133 1.5322498 -0.21714301 -1.5721416 -3.043342 -0.30695373 0.5825586 2.1403556 -0.34086886 -0.35799587 -1.9708282 -1.612528
#fl 0.7188479 0.4556157 0.14661974 0.16465442 0.11187589 -0.83107096 -1.2682467 0.15982227 1.343397 -0.54724425 -0.66987455 -0.5455926 0.4419286 0.5417796 0.8027724 0.43771935 0.5457336 -2.1778564 2.102946 0.8260206 -1.5151446 0.6123158 0.8961902 0.16389515 -0.21955591 -1.3957745 0.43000466 -1.0245585 -1.1318187 -0.03281419
ah# 0.73005754 -0.0076986374 -0.17528574 -0.46647182 0.9747938 -0.8666789 -0.86559206 1.6304812 0.74958867 0.9671871 -0.681725 0.11848482 1.3433003 1.6891526 -0.12208119 1.9335947 -0.71951175 -2.9543405 3.0349548 1.3531486 -0.1500196 2.131511 0.77827644 -2.0672727 -0.42292243 -1.4532387 2.4174185 -0.36695492 -0.16434579 -0.7907854
dmd 0.4821609 -1.1226536 -0.03298859 -0.63409257 0.21795209 -1.3294758 -1.7284889 1.4801947 0.16655876 -0.9461793 -1.1245955 0.21145865 0.13832417 0.67410403 1.8589264 0.83490735 -0.3151499 -4.1922407 2.2597382 1.1701745 -0.0331458 1.0198944 1.9286152 -0.43253633 -0.03643496 -1.9341401 1.8850816 -0.9175908 -2.0782168 -0.0401148
ea 0.43943435 0.8078554 0.56078994 -0.79679936 0.705037 -0.23189259 -1.2673942 -0.9420394 1.2789387 0.054762468 1.2271507 0.7188845 -1.0940928 0.00857599 0.6683586 1.2666651 -0.33055103 -0.19949292 1.987016 0.80834556 -1.0755328 0.254837 -0.67129153 2.1546986 -1.4019446 -1.8499874 1.533414 0.53319305 -0.9945742 0.668456
f -0.15196733 0.67906004 1.0367948 -0.44163838 0.5367577 1.9005665 -1.833485 -0.9453895 0.08256022 0.056136526 2.705944 0.7459455 0.47150686 0.6212094 -1.2026702 0.15559319 -0.48937315 -2.4833803 2.1508114 -0.041595098 0.96083194 0.03182899 -0.4533563 0.0080288565 -0.35797438 -0.34758496 1.9377139 -1.0502211 -0.5066879 -0.46088415
oa 2.2962835 -0.29023772 1.3479433 -1.8387263 0.89207655 -1.111439 -0.65468454 2.6586895 0.5081592 -1.4342287 0.9701997 -0.5391507 1.1844043 -0.6507809 -0.7937548 0.36686063 -1.2541361 -0.66924524 0.26822695 1.1002729 -2.267743 -0.14344017 0.42439502 1.2254478 -1.378343 -0.49010172 -0.37647665 -1.773507 -0.6203447 -0.7715307
enbl 1.8566785 0.0033347986 -0.27850828 -1.3609521 1.090215 -1.74561 -0.84710467 1.0541327 1.0457646 -1.8620684 1.230724 -1.5528543 1.1471587 -1.1429816 0.11301481 0.45157114 0.011492465 -1.214023 -0.5920589 0.97596884 0.12044336 -0.99599963 0.28349102 -0.8141266 -0.9192754 0.8809942 0.6310977 -2.3471713 -0.07801906 -0.8221017
speed 0.6563588 0.7528871 -0.40583923 1.6970848 -0.4266443 -0.024033334 -0.13636868 -0.19860896 -0.58052194 -0.031284466 -0.3111948 0.91417694 -1.016598 0.08680353 -0.28586668 -0.016216394 -0.8502187 -1.5768213 1.4838296 -0.16732506 -1.5605575 -0.9039545 -0.12181969 0.0946252 1.7014443 -0.37020743 0.8392613 -1.0388359 -0.11995001 -1.2754732
rm-####d -0.4179866 -1.589202 2.03792 0.2772749 0.55573595 -1.3566824 -0.6481463 1.7270591 0.5011817 -1.5364364 0.16832511 0.45567584 0.08986145 -0.6471547 -0.7423366 0.92401314 -0.4674409 0.30982983 0.14973156 0.29344484 0.7515357 -0.2790555 0.068818964 -0.054662112 -0.63592756 -0.7127286 0.8395829 -0.58998746 -0.9167876 -0.7235111
alm 0.24229608 -0.25257477 -0.66465217 0.33272415 -4.008348 -0.6691624 -2.7602484 -1.1080091 0.022138707 -0.79393107 1.2647369 1.1956946 -0.9943295 -0.0057172845 -1.2061222 -1.4696221 -1.900674 -1.0252407 -1.0352141 -0.23609862 -0.46076137 -0.48117685 0.4909493 0.086441286 0.6805023 -0.0013046395 -0.38865092 0.4717051 -1.9218631 -1.150438
espit 1.1443335 -0.0069049345 -0.15573056 0.79676926 0.67851704 -0.692616 -1.4285979 -1.5604396 0.6798375 -0.48572952 1.3043886 0.90231323 0.6958249 -0.19253047 0.002052436 -0.34306073 -0.98100346 -0.39806202 1.3303411 0.42123526 -0.06485362 1.0215201 -1.072298 -0.043462384 -1.5055298 -0.20062268 0.20911941 -0.671232 -0.5159843 -1.7557364
diff 1.0758198 0.3271389 0.4931381 0.49720016 -1.3267325 -0.3112353 -2.464546 -0.09889735 -0.523622 -0.8627023 2.0107043 1.1014386 -0.8580474 -0.930676 -0.10053447 0.5566772 -1.328328 -0.12585169 0.67919695 -1.7057405 -0.08649985 -0.56745416 -0.044006914 -0.39657187 -2.110197 0.32425725 -0.3538625 -0.8047569 -0.59760666 0.9857348
fault 0.15370555 1.0286684 0.044218235 0.51350075 0.3065088 0.9031701 -1.024062 0.192554 -0.9055891 0.3218938 -0.24336521 1.4504837 -0.9209477 -1.1362221 -1.4283694 0.37701523 -1.2983115 -2.9024704 0.6528475 0.4367259 -0.23311086 -0.62569755 0.017774139 0.19741833 0.5598857 0.21549284 -0.86812234 0.12524557 -1.5270326 -1.5914415
loss 3.4290092 0.9370953 -0.24825159 0.6028409 0.24226512 -0.7717622 -1.8933927 -0.3040268 0.94978476 -0.08622545 -0.15793574 -0.51244515 -0.043495838 0.31395122 0.17417939 0.3910495 0.7486255 -2.2566125 -0.55529386 -0.40655458 0.9262136 -0.42270768 1.4286923 0.90162194 -0.32553166 -1.6272559 0.41333368 -0.98241425 -1.0166504 0.5607977
it 0.59672695 0.39057648 -0.38996378 -0.5278854 0.2802515 -0.83781767 -2.088918 1.0255237 -0.14311168 -1.1948669 2.1635816 -0.53319937 1.2198116 -0.6939546 0.15257095 0.68669534 2.2199106 -0.6954461 0.6531706 1.7310027 -1.5066571 0.40111178 -1.1296095 -0.22351988 -1.2182254 1.2429857 -0.31407657 0.7621308 -1.0592436 0.97644234
ef-#e 0.36436364 0.5875071 -0.3460471 1.0574119 0.54150856 0.2692831 -0.8756608 -0.021157034 -1.1633166 0.6077318 -1.3266354 1.0061346 -0.24598977 -0.0100593865 -0.50046813 0.6946252 -0.051245093 -1.4467647 1.7566178 0.81875944 -1.5738995 -0.64332163 -0.045505844 -0.3552475 0.79244435 0.416381 0.16354674 -1.1165328 -0.84496677 -0.550128
rm-####i -1.1788751 0.771225 0.50910735 0.36854988 0.24317987 -1.0818074 -0.7756183 -0.5552598 -0.12850602 -1.4708788 1.4404175 0.45950502 0.016024802 -1.0078322 -0.12857287 1.1154511 -0.034402777 0.4958949 -0.7122679 1.7634265 0.13447759 -0.08466508 1.9131619 -0.5055112 0.0020232212 -2.0851617 1.7722832 0.71987003 -0.55206305 -0.6141194
unoccupied 0.43890426 0.5266846 -0.20600355 -0.1642748 -0.093559824 -0.5776003 -0.2114884 -1.716671 0.646816 -0.7600308 1.6612049 -0.94582826 -0.80838907 1.3451958 -0.03984516 2.1516464 -0.14626224 1.4052753 1.8996218 0.9816863 0.7188915 -0.68738145 0.24183154 -0.45995697 -0.7309237 -1.3153105 0.255849 -0.5627415 0.81651914 -0.88408333
spd -0.3107067 0.20615824 -0.8247954 1.3705443 0.23267026 -0.078529775 -0.60445356 -0.8501998 -1.1442599 -0.437551 -0.64990157 1.1563635 -1.1336616 -0.02556803 -1.2806284 1.0677321 0.23972848 -2.5069497 1.252012 0.74318844 -1.3388373 0.12895644 -0.05466036 0.7607147 1.0871071 0.5771522 0.35662723 -1.3885672 -0.4931955 -1.4665414
zone 1.7916347 -0.24805531 -0.85994923 -0.57856363 0.52725863 -0.28584012 -1.3946581 -0.07185809 0.7465504 -0.207904 0.42245913 -0.19010808 -0.54582745 -2.56235 0.5663328 1.117131 1.3339102 -1.1674663 1.5065119 -0.519147 0.5767311 1.5061547 -0.8258879 0.3936729 -1.0992516 -2.568986 -1.2639917 -1.1389227 -2.8089073 -2.4881604
unocc 0.94622034 -1.20152 -2.2484336 0.56537575 1.1517392 0.663509 -3.158504 -0.9540321 0.10398026 -1.5465804 0.93555826 -0.3062028 -1.5504527 -1.083669 1.8917544 1.1264068 -1.9064342 -1.68801 1.7025459 1.1587923 0.70583117 0.1800249 0.28008106 2.099251 -1.0643682 0.059837133 -0.12738533 0.8843534 -2.5192595 0.563605
load 0.7218078 0.7060385 -0.9458433 0.4320708 0.57769454 0.15757598 -2.7467082 -0.16362311 0.3145222 -1.0604516 2.4949603 0.024479648 -0.6673414 -1.8479979 -0.29786897 1.4465877 -2.613891 0.42936426 -0.03957017 -1.2057557 1.0446627 -0.14547662 -1.3442223 0.42681462 -2.695524 0.21682395 -1.5486465 -0.7976941 -1.8319054 0.51777536
shed 1.0983007 -0.58071446 -1.910836 0.16194434 1.0130049 -0.8470171 -2.7163165 -0.64736384 -0.091374405 -1.0505598 2.8813367 -1.336853 -0.9343554 -1.8723718 -0.49808174 0.8261793 -3.0806503 -0.19090587 0.73404723 -1.2688686 -0.09824167 -0.5875013 0.5202009 0.6879491 -2.7621143 -0.45670816 -0.8255711 -0.6305046 -2.2314405 0.79466987
command 0.011313308 0.20651372 -2.4857101 -0.49271464 0.90393746 -1.1063559 -3.294471 -0.20181212 -0.86044735 -2.2399905 -0.06017463 0.3497391 -0.55166775 -0.6963672 1.2438005 1.2772794 -1.2268783 0.023804076 1.7878013 0.7612469 1.1813502 -0.18280658 -0.13604455 1.7047623 -1.6268746 -0.3863116 -1.0577722 -0.38244763 -2.7022154 0.21046211
p## -0.49762252 1.6917791 -1.0734792 0.0179919 0.084301606 -1.356084 -0.6517476 -0.60926485 -0.05366038 -0.84434646 -0.33347476 -0.056204047 -1.2021395 0.30823892 0.43036437 1.6607707 0.08861224 -1.6043491 0.46652615 0.6814318 -0.40141144 0.7353502 -0.06642608 0.39290076 -1.1228251 -2.016171 -0.63839084 0.23753478 -2.5509787 0.10981829
ss -1.7908248 0.42253935 1.8157378 -0.72687435 -1.5226611 0.3298654 -1.9138651 -1.3612638 0.24003586 -0.76032823 2.0136585 0.69064087 0.8078952 -0.18761593 -0.92171735 0.2603326 -1.240785 -2.384645 0.963876 -0.7021017 -0.5570664 0.20415056 0.7945625 0.660839 0.035223074 -1.7319975 1.1314665 0.37479034 -2.7083135 -1.2840619
#flw -0.660522 -0.22879757 -0.37899172 1.5719736 0.7849442 -0.67007834 -2.5992184 0.040328868 -1.0646262 0.015940187 1.9635429 -0.390637 0.84365386 -0.79239976 0.29527166 0.55915684 -0.081778064 -1.2255206 0.5448031 -0.2766238 -1.2398138 -0.18664603 1.7005544 -1.8314328 0.7083397 -1.7058948 1.116122 -1.2301863 0.122632615 -0.31166568
halla -0.41222215 1.1007304 -0.58089453 1.5858092 0.1082386 -0.29956394 -2.431363 0.015180563 -0.031063851 -0.21911022 1.5974348 0.34563324 -0.338085 -0.17980267 1.0831469 1.8286784 1.6352195 -0.2076067 -0.31949773 0.6315626 0.7892127 1.4947655 -1.613202 -0.81017995 0.017761538 -1.0110761 0.48188308 0.56324893 -0.98311406 0.48369616
torque -0.43410608 0.41509885 -0.322498 0.26567528 0.20470802 0.77529645 -0.6973985 -0.74188644 0.2887331 -0.88870615 -1.0396839 0.33657566 -0.22717746 0.40742943 -1.8086894 0.4727122 -0.2409552 -3.1041846 2.0279162 0.9521352 -0.20667683 -0.63715786 -0.94303536 0.5426076 0.37075737 0.8548992 0.5495307 -0.5606254 -0.7303412 -1.000464
bsmtw 0.27006626 0.16684644 -0.97237134 1.7372826 1.8580861 -0.4658567 -1.4362384 0.0460133 -2.0538292 0.2189718 1.1934552 -0.030348036 0.30609867 -0.03959905 0.17689154 1.9694661 -0.88919187 -0.353153 0.6680578 0.11758739 -1.1200002 0.10472939 1.7430123 -1.5136888 0.8090041 -1.6344519 0.8582742 -0.30298343 -1.2938178 0.13409804
hw -0.38907877 0.48540896 -1.5812252 -0.7604012 0.12232729 -2.1700058 -2.5938036 0.5589924 0.32379574 0.746531 2.1919422 1.0773453 0.097767085 -0.914651 -1.586488 -0.30165574 -2.77377 -1.2665693 -1.7300627 -0.74024934 -0.9838399 -0.4828616 -0.580386 -0.1902752 -1.5680666 -0.021021824 0.64775133 -0.27947646 -0.4471673 -0.37609285
ooclg 0.67840075 0.8797558 0.21894583 0.18313183 0.79544383 -0.70593184 -1.0846566 -1.0523678 0.28154325 0.17331856 -0.17942159 -1.146364 -0.6520588 -0.009069519 0.34011242 0.860412 -0.17379263 -0.020194957 0.8081781 0.30008668 1.0784843 0.3939152 0.048231255 -0.32319057 -0.026269753 -0.6049959 0.19251442 0.07114971 -0.21332605 -0.5363069
level 1.4452307 0.40344504 -0.7587412 0.092498444 0.4688126 -0.22026709 -0.22196183 0.114594564 0.9650162 0.18813302 0.17873777 -0.93600523 0.12746984 -1.0302274 -0.98581094 0.106139295 -1.3783194 -0.68582094 1.271851 0.7648221 0.049817037 1.9085602 1.2931285 0.6379015 2.3479333 -1.9376243 0.25756454 -3.1436224 -0.86473477 0.028020365
cm 1.076041 -0.04549135 -0.31784728 0.15916808 -0.42115852 0.29698148 -1.140367 -0.10832757 1.318865 -1.3901858 -0.51206225 1.4209574 0.7853067 0.7926465 0.20487905 0.89659727 -1.0777116 -1.0817652 -0.2683793 1.0916753 0.7581338 1.4953004 -0.73538834 -1.4799088 -0.18377668 -0.9894003 0.8508643 -0.18767971 -1.3747541 -0.36402872
ef##-##ef## 0.42684036 0.3311976 0.12905665 0.44336864 -0.8476693 -0.17204265 -0.16857685 -0.28994957 0.58305675 -0.44504222 0.767086 -0.13537301 -0.37811875 1.0253 -0.09179954 1.5482675 -0.010731743 0.5564932 1.3326293 0.7735661 -0.8077542 -0.611248 0.64701766 0.32535374 -0.9373478 -1.1558118 0.13206102 -0.48953518 0.32683995 -1.0833629
hall -0.85437846 0.20036139 -0.7429963 1.4125862 0.67292196 -0.01247124 -1.2443572 0.43740308 -0.6312412 -1.3874469 1.3171685 0.64445156 -0.6695598 -0.10620751 -0.4308841 2.3738966 0.49436823 0.23243564 -0.6773596 -0.49141377 -0.47320226 0.92343456 -0.8700809 -1.6214905 -0.1451213 -1.6236334 1.1058959 -0.79910624 -0.5888301 0.25244883
lo 0.8548459 1.3826078 -0.15971668 2.387381 0.15392655 -0.55082375 -0.5719446 -0.11090938 2.2431076 -1.0636526 1.0871228 -1.1929978 -0.32151118 0.50672233 1.0327812 -0.14480667 -1.9267836 -0.81775117 -1.2108492 2.7459521 -0.9617712 0.40084156 0.32997862 1.1506722 -1.1330749 0.66403306 -0.2964057 -1.3161936 -1.4951199 1.9064223
ah-#l 1.3796438 -0.14019619 0.7349505 0.47322488 -2.4175503 -0.53058463 -1.4736047 0.31461993 0.5585447 -1.8604786 0.032800555 0.38020432 -2.1814759 -0.74503404 -0.69178724 0.44769368 -1.6827179 -0.24528734 0.29470363 -0.5039578 -1.0335147 -1.4025021 -0.84538007 -0.82098097 -1.9197515 1.0928923 -0.14474402 -0.23030142 -0.6986055 -0.4008846
elect 2.9622414 -0.5604538 -0.19793802 -0.17734376 0.022007165 -1.0294026 -1.1781175 -0.7869433 2.4401076 0.0724107 -1.0202562 0.70270216 -1.2073599 -0.10210501 -0.00066105736 1.1004963 -2.401716 -1.5291543 0.9227298 1.6740377 -0.66670364 -0.17034185 1.0971853 0.6045266 -2.2517145 -1.1425804 -1.0738367 -0.10246795 -0.93455315 -1.4238423
rm 1.8777802 0.45037416 0.96101713 0.14837462 2.319717 0.14592937 -0.8226568 -0.24385832 -0.14052348 1.0773551 1.0212046 1.5963877 -0.7815449 -1.1806425 -1.2653285 2.0424306 -0.99864525 -1.597634 -0.30939478 1.5759308 -0.026287144 0.7606467 -0.2930989 0.17903002 -0.6191295 0.19284768 0.5337026 -1.4149609 -0.040342752 0.046460558
avg 0.69607085 -0.20775992 1.5421942 0.27579805 -0.36425635 -1.7179927 -0.22978865 0.112096146 -0.21272916 -1.5579637 1.604219 1.2932839 0.57483685 -1.6175524 0.2859772 -0.56715596 -0.63071215 -1.0904288 0.95343703 0.44356677 -0.6888123 1.5368518 -0.34099278 -0.74772656 -2.9083962 -0.85390115 1.502387 1.0215234 -0.31964457 -0.47189572
bsmt -0.2541679 1.1778451 1.5629108 1.4918643 0.2774327 -1.9320716 -1.8413767 0.15516824 1.5440503 -1.6619636 0.31144825 0.45426068 1.1266265 0.45806146 1.6189351 -0.71470225 1.5394773 -2.153928 1.7771133 -0.11863221 -0.7197922 1.9717 0.37329736 -0.94463474 0.42154106 -0.16344374 0.4506434 -1.6788442 -0.72214776 -0.48085308
ef-##e 0.30362487 0.49309227 -0.26647067 1.0654187 0.45037338 0.26930407 -0.9246184 0.028943269 -1.271163 0.49869666 -1.2740464 1.0579545 -0.27266198 -0.04589086 -0.5579355 0.72655046 -0.0044163843 -1.4532478 1.6908209 0.82184774 -1.6243744 -0.56673145 -0.032729995 -0.28613016 0.79186624 0.5371855 0.12841469 -1.1038332 -0.8384502 -0.5364991
alarm 1.8551102 0.9012512 0.36885533 0.9752252 -0.001273857 -0.15185569 -0.2688003 0.69295347 -0.28938457 -0.66631985 0.21247889 -0.018741688 -0.8472707 0.443878 -1.0964963 -0.55813926 -0.5891523 -1.3068817 0.6227756 -0.5583181 0.4833457 1.5390183 0.5624666 0.38405773 1.4192256 -2.5246108 -1.6124675 -2.70799 -2.123547 -0.78772026
ra 1.6561583 -0.58756477 0.06372057 -1.2560421 -0.069614105 -0.6724367 -1.5804462 0.83470976 0.75731856 -0.6069828 1.6926607 -0.37731516 0.71396166 -0.0070418487 -1.7180588 -0.04499535 0.9914646 -1.3199488 0.35050705 0.03024578 -1.5403198 -0.709996 0.26273414 -0.48869073 -2.086537 0.051066145 1.4171959 -0.7969935 -0.7426555 -0.27116576
stsp 1.1444296 -0.32540008 0.39087838 -1.1686312 -0.3334311 0.07873799 0.032898333 -0.32142854 0.070341684 -1.4310884 1.9148719 0.6941002 -0.32795334 1.3719078 -0.12669478 1.6285307 -0.38465992 0.8990338 2.6528487 0.77892214 -0.408262 -0.2790763 1.409318 0.047801316 -0.39544728 -1.6934872 -0.3152542 -0.12501077 -0.06839595 -1.1732079
s# 0.65417075 2.2595243 -0.10996799 0.026704187 -0.41357765 0.9344514 -0.19093893 -0.12292729 -0.84945506 0.65008426 -1.2311543 0.17018528 0.5439742 0.029036151 0.460723 1.146621 -0.9281387 -1.8033476 2.6798017 1.6481938 -0.7102557 -1.8161585 -1.4571518 -0.6470331 0.71760017 0.12673627 0.39660698 -0.45420352 -0.95669734 -0.71897745
sdwn 0.5344707 0.32091916 -0.5652747 -0.24886337 0.31105316 -0.56043434 -1.594417 -0.6250407 0.3838635 0.03280949 -0.30590916 0.37272307 -0.5803643 0.7542097 -0.6475449 0.9077231 0.8270226 -0.13326523 0.89206713 1.206324 -1.6288477 1.2563525 0.63266206 -0.5011363 -0.66898334 -0.28789306 0.8446578 -1.2855825 -0.6021893 -0.119545326
dx###b 1.3839589 -0.045639124 0.4128897 1.729342 -2.5807407 -0.5931515 -2.0714755 0.7439476 -0.7462727 -1.3253821 -0.7298725 1.8403505 -2.855911 -0.28218722 0.2302094 0.57267106 -1.2614053 -0.16115713 1.3890111 -1.775541 -0.45792603 -0.9739646 -0.667341 -0.7313731 -1.3459239 0.8314631 -1.1744812 -0.85128427 -1.0662034 -0.035297576
byp 1.7536404 0.13722482 0.58640206 0.031148521 -2.5843115 -1.0899198 -1.3313718 0.64522004 -0.23110025 -0.7761408 0.5450488 1.9486579 -1.9243087 -0.23288235 -0.5799489 1.8290383 -0.88364893 -0.30888993 1.2336531 -2.1725538 -0.40688932 -0.055626277 -0.8805413 -2.4771082 -0.44775507 2.0256484 -0.6746974 -1.550994 -1.9334036 0.46826565
b-### 0.4072263 0.02795192 -0.07544611 -0.12195941 -0.7907844 -0.07265963 0.18817797 -0.25129548 0.47585297 -0.6005649 1.4591901 0.16813208 -0.36044228 1.198361 0.33768576 1.5458395 -0.26485777 0.27819633 1.1383203 0.9880031 -0.338524 -0.6391707 0.52397 0.06635667 -0.5265534 -1.0768727 0.38445407 -0.8728456 0.30821824 -0.43857953
st 1.018633 -0.13191824 -0.3833452 0.09111655 -0.48009726 0.26821396 -1.1593629 -0.054845 1.2829049 -1.473454 -0.51514846 1.3249055 0.7665346 0.83538574 0.2018455 0.9375529 -1.1084746 -1.0979332 -0.2247561 1.0944778 0.8441228 1.500235 -0.8366628 -1.4470645 -0.15556419 -0.86503 0.82689875 -0.18129423 -1.389332 -0.44949418
osarst 0.2955669 1.975818 -0.6774323 1.0162278 0.071687445 -2.3252096 -0.14585699 -0.10870665 -0.23191483 -1.4220792 0.1086211 0.06825509 -0.49820942 0.7778993 -0.11311103 0.75201267 0.28756177 -1.0587138 0.3713193 0.9417 -0.16286747 0.820052 0.17293942 0.1401349 -0.32304358 -1.1101673 -1.8018681 -0.89871556 -2.740692 -0.5611974
ef 1.9918445 1.5072213 -1.544034 1.2094365 1.6434163 -1.3863183 -1.5110153 0.48677695 1.2343681 -1.469549 -0.3010903 0.41263476 -0.1522138 0.1999147 0.5560427 -0.21197177 0.79567075 -2.9375894 0.9123046 -1.3033247 -0.8900984 -0.56960124 -1.4137324 -0.70624316 -0.6715618 -1.4829671 1.3744582 -0.08207296 -1.3747618 -0.45223054
stgdis 0.009014422 0.88050175 1.6356833 -0.043529738 -0.24785861 -0.051804718 -0.65356946 -0.22919089 -0.6690992 -1.8157426 1.7217519 0.47285634 -1.6519898 0.3152932 -1.6693507 1.7253456 -0.9796823 -3.2922444 -0.5685918 0.28557834 -0.43244326 1.3008184 -0.44474807 0.33885992 0.05882259 -1.6529207 -1.0859326 -1.0037119 -0.27459797 -1.0347668
lobby -0.54970217 -0.40332064 0.9657173 0.722424 0.64080423 -0.85703963 -1.0500029 1.0747975 -1.0000604 -0.6225595 0.023303911 0.39329422 0.51075417 0.2081208 0.37750745 1.56863 -0.6927889 -1.2505573 0.93719935 -0.23296499 0.84114236 1.2517049 0.18365927 -1.844782 0.1465601 -0.9246639 1.3474934 -0.354311 -1.0890207 -1.1497506
e#### 1.15888 0.8673816 -1.6559259 -0.42081523 -0.4039119 -1.4173353 -1.667286 -2.066878 1.4307799 -0.016755957 0.3633719 -0.20697947 0.7656382 -0.02836608 -0.46718603 1.0772904 0.14078185 0.07239511 -0.1590437 1.7213553 0.8916894 -0.6213683 0.36189997 0.6171007 -0.6415835 -2.7244911 -0.03374832 -1.9319999 -2.1525385 -0.57192373
pwr 0.3816092 -0.5785893 -0.8435804 -0.40124264 -0.059313 -2.2406132 -1.7184666 -0.32833222 1.0427457 1.1232406 -0.905011 1.0082762 -1.3791597 -1.6456368 0.34855178 0.02815714 -2.711991 -3.3806753 1.6740122 -0.4212911 0.21665658 0.27360475 1.2206508 -0.8145165 -0.27373317 -3.8555608 1.3946772 -0.7543687 -1.0086002 -0.06904014
differential 1.8842223 0.36587352 1.1578468 -1.6806616 0.83129805 0.12219412 -1.3335357 1.1757193 0.02431031 -2.1652079 1.301575 -0.840032 -1.104195 -1.170177 -0.40508184 0.48289 0.87235653 -0.582204 0.24830368 1.8240659 -0.40041062 -1.6194458 -0.8716731 -1.1627493 -1.0188017 0.96242756 0.72801656 -1.0515046 -0.94476396 0.861986
temperature 2.364874 0.19096865 0.45615155 0.9331288 -0.18877758 -0.32484376 -1.2162532 -0.44250804 0.15919472 -0.7640476 -0.10410702 -0.51258177 -0.68126476 0.43231586 0.09994613 0.30450547 -0.26850578 -1.6342826 0.30461213 -0.90437424 0.31276375 0.7030451 -0.31100747 0.358293 -0.4932857 -1.9559814 0.01194297 -0.9886737 -1.144443 -1.0402035
hi 0.4800142 0.684993 -0.5342114 1.3660123 0.1738302 -0.68805444 1.2292064 -0.83279294 1.429415 0.73867214 1.2379915 -0.6188268 -0.7890624 -0.9785587 -0.5598975 -0.100594915 -2.1547046 -2.9375794 0.9685412 1.4684474 -0.82935303 1.0935733 1.199456 1.0448645 0.06288678 -2.19799 -1.395322 -1.6057576 -0.9093707 1.2528061
bldg 2.29522 -0.14396326 -0.20157817 1.6012757 -3.4823425 -0.2593133 -1.5279298 1.2840999 -0.42023486 -1.4037676 0.13575087 1.0907551 -2.013942 -0.55353826 1.253692 0.951102 -1.319669 -0.25880575 0.96045184 -1.3460802 0.91393644 -1.2816921 -0.7092842 -1.4426436 -0.86697507 0.7024221 -0.4279864 -0.89267486 -0.2863069 0.47035947
dt 1.4649986 -1.0284703 0.8440933 1.1258998 -3.0908065 0.442121 -2.0351322 -0.28809452 -0.012097609 -0.10167471 0.5159082 1.8987614 -2.8026335 -0.7326181 -0.017598422 2.0416768 -1.9729767 0.09717445 0.07222376 -0.6937599 -0.0651025 -1.2555233 -0.0641842 -1.05178 -1.1738721 0.5898569 -0.22832574 -0.4864294 -2.1168396 0.11063504
spdiff 0.33161595 0.81537396 0.072296895 -0.54852384 -0.6039202 0.65442765 -0.77335024 -0.06356594 0.49661717 -0.93477046 1.5740288 -1.209388 -0.82142943 -0.9072726 0.23290974 1.02664 0.48758182 -0.9206007 1.3636949 0.58194345 -0.47914156 0.3769208 -0.88984716 -0.90347105 -0.39274013 -0.45244998 0.32748887 -0.25173834 -1.427424 0.7589063
humidity 2.0043664 0.29341555 0.13471699 0.7335432 -0.11583888 0.16867651 -1.1876576 0.15265518 0.84330314 -0.78802735 -0.160607 -0.23888844 -0.948152 0.6452468 -0.6239318 0.32321912 0.0058429893 -1.5661283 0.24503013 -1.268656 0.76875985 0.35327893 0.11213375 0.4432132 -0.12970476 -1.4758507 0.08509959 -0.95253944 -1.2407497 -0.8308759
cooling 2.378033 -0.040148612 0.737834 0.49393398 0.5243612 -0.70832825 -1.8706738 -0.93480045 -0.041433223 -1.7447444 0.12773144 -0.68547946 -2.021217 0.75147337 0.40959454 0.07584648 -0.40412647 -1.1591616 0.71594846 -0.940597 0.67477936 0.9729883 -1.2053927 -0.5468665 -1.4297433 -2.6634512 0.2250467 -1.0742371 -1.040712 -1.7621896
on 2.2496252 -0.3652318 -1.5253423 0.8256637 1.428088 0.7712465 -0.6103099 -1.0083262 1.2623346 0.5218898 0.7423693 1.0637165 0.16684224 0.54569834 0.6032131 3.7133708 0.27652264 -2.7272975 3.349972 1.4781533 0.77499515 -1.5816565 1.0037801 -0.7495591 -0.3623419 -0.84299797 -1.2914156 -1.4392544 -1.2909803 -1.7429559
off 0.38688555 -0.014559549 -0.056764066 0.3151304 1.619213 -0.984054 -1.4535376 0.011475592 1.6539564 -1.5756156 1.9217016 0.036971185 -2.701224 0.9645229 0.70181096 -0.30808857 -0.62434906 -0.6465083 1.5055692 0.26090613 2.4902475 0.39475045 -0.64254504 -1.240326 -1.5014209 -1.6537777 1.1167179 -1.0215309 -1.2276548 -0.14667924
ebu#b 0.72489446 -0.21381532 0.0722651 -0.13146172 -0.35713145 -0.8527648 0.51684535 0.053319536 -1.5575026 0.005279395 1.506131 0.9138386 -0.64276487 0.51805824 0.16243559 -0.83300316 -0.89768714 -0.9221863 0.09381794 1.0461692 0.28749043 -0.09193141 -0.73424155 -0.17115207 -0.42471197 -0.57138103 -0.41810703 -0.14824598 0.4933999 1.1221547
rh 0.8300079 0.040988993 -2.0826168 -0.44903353 1.7376622 -0.66925526 -0.29063043 0.7884979 1.1709207 0.35830596 0.93076354 0.3450135 -1.306588 -0.38466772 0.27977732 0.8923134 -0.9837034 -0.5551468 0.8241675 0.030999789 0.1976672 -0.5040861 -0.42010298 -1.536284 0.13832304 -1.0628502 -0.4743587 0.2882012 -0.81996286 0.88270575
hwp# 1.2915169 1.3957593 -1.7200891 -1.3369412 0.37069792 -0.9367174 -1.6178557 0.54723954 -1.1468115 0.6407622 0.14793667 2.7196574 -0.7557004 -0.1361645 0.20241898 -0.015458801 0.4255618 0.40784505 0.026815657 0.95628244 1.2272077 -0.04399323 -0.52752775 1.032349 0.3473523 -0.29902887 1.5238018 -0.52319396 -2.4168508 0.10961827
enable 0.5811351 1.0453228 0.3241316 0.00558536 -0.4383151 0.8836597 -1.9477698 0.37950513 0.052351605 -0.24267891 0.8360832 2.0179687 -0.62458086 0.6116267 -0.19403276 -0.65027684 -2.3522136 -1.8997767 0.82044584 1.5941603 1.6180375 -0.6984809 0.5811324 0.30790636 -2.5710487 -0.6473372 1.7767475 0.24761899 0.24333417 -0.78208125
rm-b###a -0.33046067 -0.47153163 0.34491077 1.121316 0.584305 -0.6690201 0.1873721 1.1424173 -0.008076572 -0.24207348 1.9290601 1.6074021 0.13350649 -0.031099424 -1.0724168 1.2396047 0.79473424 -0.17159396 0.3312525 1.3833444 0.48522982 -0.3094366 0.13432932 -0.52481955 -0.14288889 -0.08069955 1.221782 -0.35931045 0.081703305 0.48972443
air -0.20042787 0.13398899 -2.093498 1.6888251 -0.37044764 -0.8111305 -1.2417483 -0.36970654 0.050156355 0.15523577 0.60359186 0.57428753 0.40389878 1.2832837 -0.2652102 0.9097355 -0.37728012 -1.5374707 0.9316339 -0.9640006 1.7737645 0.11947896 -1.0084655 -0.49612817 -0.43125448 -1.3205957 0.8188509 -1.8066803 -0.9674041 0.26706454
rf# 0.37993908 1.5639523 0.121942535 -1.3459632 -0.24960175 0.5709383 -1.400941 0.13540149 -0.7890745 -0.03372134 0.38490385 1.5220166 -0.72622055 0.48984358 -0.06250949 0.9473123 1.7603277 -0.46375906 0.42896694 0.7124742 1.1444852 -0.31792945 -0.43063658 0.705761 -0.8240181 -2.1238046 2.114478 -0.31037578 -2.065575 1.1631798
status 0.1645072 -0.2007385 0.045727648 0.23502032 -1.5506545 1.3094345 -1.1468713 0.22080961 0.13399847 -0.6244457 1.5693166 1.758934 -0.76399094 0.036008995 -0.9014121 -0.43718165 -1.7430258 -1.4260153 1.0414699 0.6464431 0.31577593 -0.8701505 -0.5367741 -0.6062945 -0.77934456 0.55707103 0.25361937 -0.12703988 -0.75940573 0.056014284
direction -0.48132902 0.22539042 0.33929768 0.05237169 0.031217733 1.5535752 -0.8800287 -0.07466317 0.73142785 -0.6838076 1.6971601 1.247007 -0.4234768 0.63788885 -0.2970193 0.30227992 -1.0332631 -1.9388403 2.0400379 0.5863267 0.16407694 -0.34336168 -0.11299068 0.07973731 -0.7123605 -0.3248975 1.4412408 -0.011867459 -0.41408035 -0.24368495
bsbmrh -0.010705317 0.00012311188 -0.0023345856 0.0006753462 -0.0059152627 0.010325377 0.00019845799 0.010067751 -0.011213293 0.007423984 0.00016250572 0.0045550647 0.0116187595 0.0072095697 -0.013047672 -0.0037806667 -0.012351333 -0.0002159003 0.014831943 0.006078942 -0.010351662 -0.0064728563 0.013457476 -0.006303823 -0.011369736 -0.012567714 -0.014408168 -0.015958602 -0.005339256 0.016430888
tocc 0.7298061 0.5461535 -0.56831735 -0.7244658 0.5240598 -0.25202733 -0.9664368 -0.20585383 0.857491 0.21231833 0.3552191 -0.012765168 -0.6614635 -0.32800874 -0.5501541 -0.11816316 -0.64511603 -0.7532598 1.3605802 0.029585587 1.3230948 0.42928445 0.5631752 -0.40429822 0.45545763 -0.7091169 -0.88332164 -0.5007756 -0.5237494 0.5914024
sf# 0.96914196 2.9390976 0.45350036 -2.377632 0.3035775 0.5629625 -0.8704946 -0.20668736 0.22116014 0.6472339 0.83749455 1.5322461 0.25533706 0.17897083 -0.44332716 0.9443686 0.80888045 -0.631437 0.7691745 1.3486465 0.47335276 -0.7313935 -0.23609477 -0.23190713 -0.7021068 -0.9914067 2.0296462 -0.48330173 -0.5620373 1.434927
inv 1.6365116 0.15863949 -0.0667504 0.77199566 -0.69730955 -0.71308047 0.38303477 -0.5215748 1.2146055 0.0062288935 1.7914308 0.71740353 -0.29620004 1.0879151 0.35639825 1.3216 -0.9746619 -0.60151017 0.5221497 -0.21326931 1.3417222 1.4311816 1.5148025 -0.35864425 -0.17594251 -1.1844195 1.4267865 -1.2244408 -1.0811687 0.90293986
byps 0.31260362 -1.4816098 -0.115847774 0.84998757 0.025995573 -0.24085425 -2.430882 0.63200694 0.41070783 -0.9440049 2.4009984 -0.9612505 -1.5261438 -0.5943862 -0.0054962984 -0.70575434 -1.0738381 -2.4758167 -0.40153408 0.33204028 0.2068469 0.11447645 -0.01043902 1.5774758 0.4523766 -1.8298067 1.3157468 -1.9836287 -1.4719322 0.37678808
dec 0.55335367 0.27145433 -0.24281506 1.69307 -1.8237321 0.87896514 -0.5090469 0.2585633 -0.6376997 -0.21771747 -0.10790942 1.2122765 -0.5528822 -0.053478118 -0.52072906 0.11662677 -1.4963115 -1.6818705 1.7482151 -0.10352113 -0.3628053 -1.410934 -0.37923312 -1.1487677 1.1785623 1.2425029 -0.5112833 -0.9113196 -1.0695465 0.29405385
output -0.060381737 1.3215914 0.5239653 -1.2113347 0.3252335 1.7114048 -0.9672859 0.10992438 2.2946274 -1.135435 0.08362922 1.0513456 0.8952548 0.7186231 0.22725137 1.2587439 -0.9017836 -1.4679642 1.5909277 2.9359925 0.8100102 -0.78197026 -0.63211673 0.12094662 -1.2389 0.11678085 -0.04368684 -0.9886201 -0.17573327 -0.4690531
ebu# 1.6616187 0.5647758 2.0728512 -0.6792138 -0.4416662 -0.5447936 0.26316658 0.48005038 -0.02370693 0.43886682 0.7026405 1.6576531 0.3679478 -1.210231 -1.120785 2.4927642 0.4472574 -0.36318645 3.439013 1.8936174 -0.03243092 -0.07491274 -1.0853597 -1.1420451 0.65925205 -2.0399983 -1.706434 -0.5259319 -3.0537171 1.2644341
zenith 1.1574932 0.66755223 -0.08508977 -0.16386928 1.1723037 -0.75898474 -0.21178524 -0.27593723 1.4713117 -0.9976499 0.86096543 0.84014016 0.5810466 0.40632018 0.38081342 0.7660067 -0.58685744 -0.95416075 1.2430819 0.2771797 -0.32349163 -0.22429407 -0.22425409 -1.6526368 -1.1984215 -1.3986329 0.026091281 -0.22954479 -1.6036192 0.2067262
fan -0.042824503 0.4927698 -0.09661785 -0.42278895 0.21225987 0.00819946 -0.795534 0.41214132 -0.43375832 -0.63227814 0.036073096 0.63766795 0.45374054 -0.81206626 -0.799114 1.3880582 -1.152437 -1.0602362 0.8482431 0.27503356 2.1964157 0.89896315 1.505248 -0.75456744 0.57002306 -1.5456163 -1.356663 -0.5981113 -0.68867373 0.91823983
cw 0.84974897 -0.5279928 0.45279586 0.16475013 -1.6028017 -2.627092 -2.204135 0.27976564 0.14856406 0.6203058 2.4912126 1.8311611 -0.7357184 0.08031711 0.09741875 1.5208981 -1.1870054 0.18185647 1.302068 -1.9833375 0.061512213 -0.8618827 0.8963822 0.30993474 -1.5001327 0.4686699 0.5555297 -0.12158389 -0.44625613 0.5746871
ah#-# -1.5734681 0.15752545 -0.8686038 -0.81198907 0.01659071 1.5199001 0.22172871 0.5695633 0.014406247 -0.8109915 1.084853 -0.08260181 -1.1385496 0.36529407 -0.08805264 0.74018955 -1.6806145 -1.7645067 2.9118552 1.0493242 -0.6056266 -0.0031519844 -0.46920672 0.43766436 -1.8383628 -1.3929882 1.821119 -0.12623711 -1.1850055 0.80164164
ll -0.44299793 -0.43803018 1.2539287 -0.4532177 -0.45349097 -0.86637896 -1.1867414 -0.5098431 -0.073814705 -0.6806858 0.06367296 -1.6135701 -1.3279791 -1.2855827 -0.8943245 -0.2235961 -0.24664603 -1.8442075 2.698859 0.12692282 1.2062532 1.4162642 -0.49091956 -0.2756593 -0.052629825 -2.4179366 2.2335074 -1.2888921 -1.9116305 1.6586813
dhw 0.9550581 0.11229071 -2.4669657 -0.02670507 0.2657575 -1.8434113 -1.459688 0.78349584 0.9269988 0.23735411 1.4578717 1.9951936 -0.35026088 0.67604613 1.0683771 0.6740829 -1.316828 0.21017596 -0.1698889 -0.47921345 -0.7003181 0.64476854 0.24572633 0.52094144 -0.20441484 -0.21730381 1.2240857 -0.14814058 -1.3095315 -0.5019164
rm-#xxx 1.5887642 -0.3778589 1.2490197 0.26564258 1.1258086 -0.58664745 -0.41685364 1.1032637 2.023405 -1.510887 1.4494616 3.2231238 -0.84879756 -0.847132 1.0798429 -0.6286885 -0.70618314 -0.27289113 1.1877033 0.5811686 -0.0091404645 1.0681502 1.5711424 0.51658696 -0.61911356 -0.772847 2.005793 -0.26960844 -0.8943591 1.1309649
fschw 2.0550866 0.54686695 0.11746483 1.3580083 -2.5046499 0.69782114 -0.846256 0.73105425 -1.006854 0.96869606 1.2640169 1.0261506 -1.0961933 -0.82254446 -1.21202 0.3440227 -2.523628 -0.7873235 1.3155614 -1.066657 -0.17279744 -2.0433939 -1.2036476 -0.9993208 1.2350785 0.46384385 -0.8184517 -1.4173605 -0.90363467 0.8053558
head# 0.41928065 0.9588102 0.2804631 1.1385348 -0.13895096 -0.64408326 -0.59257585 0.94918287 0.29660583 -0.5224904 0.9810467 0.58242327 -0.06827424 0.39059713 0.078333825 -0.1835373 0.2767191 -1.1764542 0.6012129 -0.2538576 0.7805592 0.23562044 -0.18479882 0.07140021 -0.7355407 -1.2797636 -1.2346617 -2.6418185 -2.623477 -0.2523148
compres# 0.6653614 0.23076943 -0.07274941 0.59505004 -0.2005038 -0.30368057 -0.4356302 0.10373309 1.2963948 0.24195346 0.6540112 0.4255164 -0.14599451 0.3591648 0.21137384 0.51268274 -0.59228 -1.609003 0.31552222 -0.28890276 0.8400792 0.29316568 0.06871444 0.3955797 -0.4605835 -0.6151673 0.24364108 -1.0240403 -1.5702659 0.5154778
temp 1.4496937 0.6170731 -0.17085618 0.7160031 -0.7953316 -1.4118617 0.30016315 0.5039548 0.29554477 -0.3254068 1.3032101 0.14790916 0.87867814 0.26996094 0.15516625 0.7141619 -0.25779653 -1.8970897 0.65189886 0.032350536 1.6940483 1.2620186 0.26026955 0.29847685 0.14982711 -0.2893769 -0.03161006 0.3460145 -3.0513067 0.0427098
azimuth 1.1297956 0.7019166 -0.1079381 -0.17730306 1.1858264 -0.7466667 -0.21678354 -0.30889866 1.5130976 -1.0058528 0.9039861 0.87093 0.5934647 0.38924474 0.36886543 0.69680196 -0.5263897 -0.9747201 1.2979376 0.28698206 -0.3502442 -0.18441728 -0.24312852 -1.6070638 -1.2503458 -1.370373 0.041806705 -0.2044459 -1.6220675 0.19756883
#th -0.24587435 0.7267033 -0.103014484 -0.0010625018 -0.26729235 -1.3774861 -0.54952776 0.3308633 2.0216446 0.7558566 0.73261344 1.4176424 -1.5861874 -0.7814897 0.59010226 0.0574433 0.16998318 -1.0779428 2.091778 0.7831141 0.5182146 0.49259594 -0.63317364 -0.7320559 -0.76414275 -0.48890916 0.05184772 -0.7486987 -1.1144733 -0.8154936
humd 1.2977322 1.3908216 0.10925414 1.3103529 -0.52374434 -0.8786335 0.17428955 0.24236657 -0.27280092 -0.9367308 1.0587963 1.1293858 1.0156126 0.07171415 -0.02431336 -0.35405007 0.078321904 -1.5000538 0.13906246 -0.07767596 1.5519251 1.045718 0.06262513 0.30831158 0.11825205 -0.74676394 -0.1664758 -0.7697271 -3.7732332 -0.027589913
pow -0.1041232 0.17471147 -1.8089561 2.0948768 -0.11910293 -1.3546712 -1.786019 -0.4977861 -0.17335044 0.15631779 1.1261004 0.6369794 0.18712209 1.5390552 0.435571 0.38453743 0.08290175 -1.7388623 1.7144953 -0.89446956 2.0745773 0.67053986 -0.65624386 -1.0677522 -0.59315073 -0.51524496 0.72786087 -1.2359151 -1.2274911 0.50861907
occsen 0.710542 0.441136 -0.65934724 0.33739042 -0.0053834603 0.01682227 -0.73345673 0.7681237 1.0937983 -0.2583988 0.30077118 0.22684327 -0.19861233 -0.5964842 -0.12838362 -0.38353038 -0.8854426 -1.063618 0.95135075 0.51976943 1.1262976 1.1012143 0.7259861 -0.1558838 1.1487727 -1.3425831 -1.2174973 -1.3755459 -0.44724774 0.33423868
noe 2.16444 0.6538934 0.16913491 0.76005685 0.6714501 -0.83255136 -1.2772237 0.59386444 0.53333694 0.27703744 0.36268717 -0.26841834 0.47896823 -0.027182724 0.943853 0.4441107 0.21690837 -2.295243 0.7339497 0.10163782 0.9346871 0.026943779 0.9819687 1.0156645 -0.7908082 -1.1273075 1.0975081 -1.1045523 -1.161253 1.28902
lotemp 0.37440974 0.58572 0.2897958 0.8190566 0.29945287 -0.33005837 -0.5577059 -0.1808674 1.4233181 0.06499801 0.58493984 -0.60568404 0.046469864 0.42578727 0.747241 1.2821501 -0.40591004 -0.9188223 0.08688101 0.20397557 1.6262671 0.3883954 0.05824837 0.26534712 0.23348784 -0.39768183 0.89972305 -1.1140708 -1.4333118 0.043526445
tempset 0.61088306 0.236491 -0.05674177 0.5347243 -0.20434286 -0.3037195 -0.39027894 0.10565238 1.1563438 0.23741679 0.6249703 0.31889656 -0.21496248 0.31716654 0.23358835 0.37950122 -0.5404853 -1.4258921 0.29266074 -0.26319453 0.78053397 0.33219624 0.06524422 0.35051745 -0.37518555 -0.67896056 0.24057433 -0.9518344 -1.4839613 0.52418995
dly 0.3097022 0.35311767 0.67619133 1.2741127 -3.7535744 -0.54029167 -1.584622 -0.7676527 0.09208958 -0.96846503 1.6866254 0.1633665 -1.5760953 0.2085018 -0.4556501 -0.06826498 -1.1110578 -0.29037613 0.555441 0.50173736 0.94499993 -1.1713685 0.04080121 -1.2535652 0.28138193 0.5567292 -0.19388635 -0.85219663 -1.0630467 0.8080663
unit 0.78002346 1.4490272 0.3944259 0.056193113 -0.6799121 -0.045084734 -0.66817737 0.018064829 0.6826714 0.7237789 -0.16491581 0.6852467 -0.5291065 0.41547284 0.6890124 0.22536679 -1.8070986 -0.9827466 0.18595506 0.5192286 1.3516698 0.16429381 0.6994535 -0.043100007 -1.8573396 -1.2165576 1.0217125 -1.1626161 -1.1874068 0.6638939
direct -0.70771545 0.21816027 -0.21623541 -0.57421744 1.0826896 0.63231915 -0.66855484 0.019998806 0.33681253 -0.4326474 0.6186641 1.711628 -0.5800911 1.0807469 -0.9177193 0.61373705 -0.51108456 -1.3855923 1.2164898 1.5038259 -0.29882184 -0.057792414 0.09193954 -0.16030371 -1.0482416 0.6927636 0.86652356 -1.3429252 -0.45653656 0.07770113
stbyfan 0.7312468 0.2461136 -0.044348672 0.5659017 -0.24132015 -0.29746598 -0.48350748 0.099808455 1.2168989 0.25997838 0.6224911 0.38014844 -0.20017298 0.37573504 0.2673455 0.4797037 -0.55299455 -1.4777905 0.24294972 -0.25036287 0.83294326 0.30386388 0.05583963 0.42572308 -0.4332607 -0.69777983 0.2948396 -1.0347807 -1.5236595 0.49060252
local-# 0.6928387 0.24179257 0.04371054 0.59403104 -0.24528141 -0.20893206 -0.4898007 0.10195601 1.2917215 0.30018157 0.642922 0.41076556 -0.17995778 0.3639635 0.30005738 0.52382255 -0.6916323 -1.569015 0.30569783 -0.311986 0.8791834 0.27479768 0.0217251 0.4085763 -0.3628114 -0.62439513 0.20639156 -1.0563424 -1.549346 0.49595493
hx -0.061976794 1.4148129 -1.095484 1.2010496 0.26047683 2.0340521 -0.70055693 0.059399124 1.304022 1.5999864 1.392639 1.5742041 -0.06287396 0.54210985 -0.49538493 -0.47869167 0.5233671 -0.86575246 1.1674926 0.83994853 0.85053957 -0.039981205 -1.1034145 -1.4960272 -0.4764177 -1.2602074 0.02579973 -0.75615215 -1.5692372 0.26543638
osa 2.2357543 -0.18313928 0.37422585 0.84269065 1.6806235 1.382921 -2.227532 -1.3815044 -0.055826034 -0.6476541 2.076952 0.3072002 -1.4979235 0.15838154 -0.12434736 0.21544589 0.47377908 -0.60360575 2.087067 2.3471112 2.0445065 0.44070998 1.4271549 -0.24508747 -2.737516 0.37119445 0.43011525 -2.0416763 -1.506496 -1.9546309
high 1.1678156 1.8467067 -0.79162174 1.6308436 0.12263063 0.98279643 -1.7048426 -1.3189605 -0.1483365 0.6985906 1.9026613 1.4942355 0.47586843 0.14025456 0.4991719 0.29016072 -0.092615254 -1.3691771 1.7788182 2.0944405 -0.45168638 0.82349646 -2.0853555 -1.8539138 -1.0284284 -2.8891785 0.52680725 -1.4104851 -1.6091135 -0.79272753
#rd -0.2182168 0.6870271 -0.25099435 -0.03934335 -0.39437854 -1.6649953 -0.015085181 0.08532577 2.3427334 -0.031551935 1.3533871 1.8914647 -2.1412325 -1.2461096 0.108816564 -0.35372528 -0.040839788 -1.4659604 2.263188 -0.52291054 -0.14915714 0.4512046 -0.8459785 -1.2226104 -0.8066328 -0.95987344 0.9885005 -1.0342945 -1.4564162 -0.5676009
flr 0.9432235 0.2977546 1.7660942 0.565627 1.235789 -1.7297652 -1.4637707 1.5805463 0.9969698 0.6925306 0.5582776 2.2734125 -0.6468391 -1.1254967 1.732503 -0.21135963 0.21505934 -1.6976174 1.5272534 1.7820407 0.019617338 1.3575072 -1.2767212 -0.25544983 -0.798274 -1.4189948 0.70792353 0.42496815 -1.3418902 -0.25561765
smoke 0.6610612 0.21171448 -0.08623572 0.5542045 -0.1853415 -0.27344382 -0.3734825 0.13359939 1.1468633 0.23308212 0.6226368 0.3804018 -0.14238366 0.413261 0.24962507 0.34956446 -0.5518299 -1.4666765 0.26094556 -0.27667573 0.8517179 0.29999912 0.035754994 0.38854238 -0.37577727 -0.60946083 0.2546143 -0.9506773 -1.5230798 0.5213941
capacty 0.6778993 0.17301843 -0.05320798 0.5023163 -0.22256932 -0.18889074 -0.43930668 0.16056535 1.0685545 0.27100897 0.596668 0.3331226 -0.23621309 0.3688108 0.19746469 0.33770344 -0.55456007 -1.4053333 0.2457681 -0.3388531 0.88192964 0.20785631 0.11416374 0.33309156 -0.45565695 -0.6533963 0.23444635 -0.9810703 -1.4489769 0.51177835
rm-bxxx -0.45739222 -0.52974564 -0.35754937 0.22036108 0.4036441 -0.7333683 -1.3085592 2.0180867 0.5891637 0.62334234 -0.86015004 1.3671017 0.0030998632 -0.09062288 0.7083027 1.0892148 -0.2601299 -2.834202 2.1139476 0.51539344 1.8755733 1.7365507 0.33653063 -1.8591801 -0.29434726 0.5510524 1.8869486 -0.6646276 -1.1020609 -0.9789604
hl 0.26319417 1.1375306 0.8062354 -0.996773 -0.75606406 1.1190405 -1.532427 -0.055174112 0.54335105 -0.5842036 2.5434303 -1.8063722 -0.75712943 -1.0029827 -0.73190624 0.826504 1.3473046 -1.4811062 1.4807851 -0.37380406 0.040547613 0.2098525 -0.72609085 -1.1461747 -0.51869404 -0.49587354 0.74139196 -0.20275117 -2.0277267 1.1238887
voltage 0.62329644 0.2379551 -0.23569499 1.7298007 -1.8769182 0.878786 -0.5728873 0.23647542 -0.67263997 -0.18255955 -0.16513725 1.2104136 -0.55125856 0.036984656 -0.4804189 0.098782375 -1.4989353 -1.651124 1.7923968 -0.12108079 -0.4087714 -1.5482187 -0.368936 -1.1227592 1.2126204 1.2491142 -0.40095532 -0.80907196 -1.0735136 0.28106236
tol 0.64353526 0.34224197 -0.34733942 2.7225611 -1.1399366 -0.00047036208 0.37639213 0.25891656 2.126604 -0.5919182 1.7248691 -0.12160827 -0.60146433 -0.43088892 0.66436726 0.537332 -0.7734016 -2.066725 0.3863464 2.2804983 0.6412783 0.48518416 -0.11872065 0.91519606 -1.7006614 -0.45010784 1.0923853 -0.22053581 -1.4980832 0.14232159
rm-### 0.16338891 0.67590386 -0.28799728 1.4904923 0.523498 -0.13376094 0.3497037 0.34753314 0.05440172 -0.16309038 1.8318521 0.656578 0.7433449 -0.47128344 -1.4581697 0.5110346 -0.09303535 -0.3865804 1.0382327 1.2715408 -0.1211439 0.76278245 1.0468924 1.2123402 0.65142286 -2.4810355 -0.2884747 -2.8887753 -1.9331603 -0.13399255
dir -0.0939648 0.6023675 0.33266798 1.3856359 -1.6744479 1.2435718 0.17221135 0.048864137 -0.7750055 0.31572703 -0.6889609 1.6609769 -1.1406283 -0.23364446 -0.621689 0.87463886 -1.7058195 -1.7303574 2.23541 0.49665627 -1.0402824 -0.84402984 0.048985317 -1.6752714 0.7006614 1.0169106 -0.32124525 -1.1100748 -1.5417417 1.0504844
lead 2.9291952 0.96680695 0.1379715 -0.21956338 -2.042004 -1.7426139 -2.0636334 0.93705535 -0.23588607 0.15244505 1.5485407 2.4283366 -1.9506667 0.86650985 -0.27081746 0.38437274 -1.459609 -0.4821415 0.4622184 -1.9551373 -1.7784522 -1.4897858 0.13644482 0.20887277 -0.6733807 0.5517175 -0.77018315 0.66085595 -2.0387685 0.90231997
wind 1.8116214 1.131468 0.74884254 -0.17148715 0.5962545 -2.0641048 -0.17321336 -0.50252366 1.5225245 -0.9335974 0.42767042 1.3893797 0.055153087 1.2280523 -0.31181312 1.1182123 -1.181706 -0.5166269 0.61639535 0.48831144 0.48081818 -0.8013197 -0.2237319 -2.73468 -1.1057882 -1.1572444 0.35584423 -0.37943172 -1.0713472 0.34996283
main-fan 0.6717273 0.20590532 -0.04855134 0.5639843 -0.21225321 -0.25493878 -0.38611814 0.055565942 1.1485981 0.22083235 0.61022633 0.31054488 -0.21585985 0.38245505 0.26421055 0.36962873 -0.5408903 -1.4278014 0.2121191 -0.2338229 0.8022461 0.30765882 0.07952954 0.420716 -0.40929794 -0.65281904 0.21840605 -1.0010489 -1.4492898 0.48174703
locl 2.0617244 -0.21141356 -0.6537328 0.45014066 0.26757753 0.3599989 -0.015516902 -0.8686525 0.6329348 1.0982772 0.8330149 0.9169493 0.10775953 1.0504816 0.6197676 2.8588989 -0.14756042 -2.5586362 2.2165563 0.6279597 0.98573875 -1.6087185 1.1089597 0.29631242 -0.5890643 -0.4367425 -1.5392299 -1.005186 -1.577519 -1.127505
stages 0.67919946 0.21034089 -0.063064 0.49350244 -0.18983845 -0.2816484 -0.4576299 0.12900689 1.229069 0.32173657 0.6176847 0.41522014 -0.21173114 0.33056593 0.27256027 0.47514632 -0.5900918 -1.483857 0.32274145 -0.2998715 0.89108825 0.27296627 0.022496486 0.386965 -0.52167624 -0.64720374 0.27435783 -1.0280807 -1.4533681 0.5018725
server 0.1538095 0.60460246 0.15918985 -0.41703296 1.479628 -0.92491364 0.3462438 -1.051897 2.5052915 0.17200029 1.3132658 0.5582378 -0.7559197 -0.57810545 -1.47209 1.1549796 0.97929525 -1.4570441 0.06319999 1.3666224 0.43553546 1.1991708 0.085853815 -1.516328 0.39649454 -1.7918714 1.015905 -1.2343358 -3.220071 0.057244282
roomrm -0.97996837 -0.24056633 -0.3975148 0.7659306 -0.35125306 -0.17277865 -2.601793 -0.23503903 1.1622669 -0.7888179 1.0126246 0.38402453 1.2943037 -0.6693682 -1.2880914 0.59933877 -0.6268773 -1.0495458 -0.4824943 0.76591533 0.49033386 1.1742045 -0.10052481 -0.5983339 -1.0040996 -1.4630609 0.5921216 -2.3803632 -0.11208192 1.2051206
acc 0.4376278 0.2806649 -0.12360439 1.6818857 -1.8832599 0.8767771 -0.52646005 0.2602701 -0.69308025 -0.26074842 -0.16598265 1.1196904 -0.5547529 -0.017410217 -0.5122476 0.18654932 -1.4162728 -1.6903542 1.7764914 -0.12184479 -0.36747316 -1.3900611 -0.44735885 -1.1286893 1.2095919 1.1121203 -0.48002118 -0.89568365 -1.0478903 0.33559906
enthalpy 1.1234862 0.69532734 -0.04373412 -0.13956335 1.2263397 -0.74481905 -0.20903395 -0.3056812 1.4480999 -0.96038574 0.9173626 0.86690205 0.5883736 0.3684828 0.3762285 0.80026263 -0.59193766 -0.9133554 1.2284373 0.29724088 -0.29671702 -0.19750841 -0.22115777 -1.6056322 -1.2412244 -1.4013073 -0.0369729 -0.23005661 -1.6310478 0.22742143
room -1.2294683 -0.8512479 -0.8892123 1.3284049 -0.17872854 -1.4008012 -2.0786483 -1.0804698 2.7058923 0.46008626 1.0969281 1.5283991 1.5643951 -0.7480587 -1.9265199 1.1164379 -0.43854612 -1.7823058 0.42026302 2.0152678 0.7214964 1.8249785 -0.42250216 -0.6838541 -1.2049061 -1.1881143 0.29097086 -2.6029189 -0.9580281 0.7659533
ld 0.25859544 -0.16546378 0.8870828 0.35657474 0.6120289 -0.59891737 -1.0232065 -1.8959465 1.066851 -0.27912498 1.3173636 0.287545 0.45496377 -0.767999 -0.18313083 0.9625664 1.1522475 -1.6623645 0.112747334 1.6701199 -0.65867996 1.4619366 -0.030481555 -1.0311661 -0.8379408 -2.3675628 1.0319263 -1.9476861 -2.1343138 0.72734463
hum 0.80172426 1.7052566 -0.23308048 0.9806618 0.23275305 -1.4097819 -0.1604231 -0.2599014 0.48678708 -0.37544182 1.2705901 -0.45175478 0.60828394 0.8691587 0.7686973 1.1608734 -0.8847048 -0.72768074 0.10357107 0.66604024 2.0643518 0.9563063 0.12844048 0.14379393 0.45490876 0.4750363 0.065050244 -0.4595717 -2.764533 -0.68280655
rf#ctrl 0.009672626 0.394459 -0.33221012 0.13937646 0.0029068238 0.15349355 -0.62526923 0.5914905 1.2857506 0.074222624 0.19262223 0.5201953 -0.48170096 0.040970087 -0.63530356 0.25578183 -0.06351351 -0.5029103 0.4494494 -0.0035178168 0.72354895 -0.2281342 0.5538543 0.10724243 -0.046119787 -0.012977403 0.229139 -0.5628721 -1.044639 0.24231185
fl 1.3562245 0.5151534 -0.5872267 0.42591923 1.7664841 0.41511706 -0.4865285 -0.3495938 0.42005458 0.22753824 1.6869081 0.5218221 0.26328057 0.13235293 -1.5741018 1.709736 -0.06700137 -0.112315044 0.47849852 1.0174435 0.59335536 0.9710363 -0.4891515 0.03729819 -0.15673554 0.18564826 -0.33209175 0.96561545 -0.47883657 1.7524862
hoa 0.4056658 0.9313018 -0.19609138 1.2476964 -1.9750493 1.1456208 -0.106518395 -0.048375905 -0.6533519 0.080515996 -0.6698581 0.96549547 -0.77783567 -0.1545637 -0.1737663 0.17166592 -2.0295963 -1.8530834 1.991508 -0.032396637 -0.64185685 -1.1902897 -0.010577696 -1.4758854 0.68693084 0.81141114 0.022591867 -1.0410753 -1.2707336 0.5918103
lim 0.73417073 0.04473919 -1.5011952 -0.16072576 1.0028615 -0.33691582 -2.5365796 -1.3976821 0.55010176 0.8421056 1.0601442 1.6821134 0.31674695 -2.109299 -0.5663732 -0.86542207 -0.8840107 -2.4191866 1.3934133 2.3025653 0.46818283 -0.059327837 0.26558232 0.8663325 -0.8055989 0.61746067 0.45102593 -0.14531082 -1.8406076 -0.19633795
standby 0.7010179 0.19298077 -0.08446609 0.5929073 -0.2691421 -0.19015673 -0.49896204 0.10889188 1.2493973 0.3451247 0.7696176 0.37368912 -0.256421 0.38982064 0.2858383 0.40438598 -0.57771724 -1.4428439 0.28836888 -0.30510572 0.8636988 0.30052742 0.0012522698 0.42042872 -0.4461098 -0.66417974 0.2604106 -0.9870284 -1.5638982 0.45468402
fltr 0.38744244 0.6978801 0.43846655 -0.72311586 0.31483778 -0.42826357 -2.8683293 -0.5616269 -0.2283584 0.2700117 2.5106468 0.2922419 0.02669585 -0.4368171 -0.8014264 -0.00058640627 -0.47714198 -0.60706896 0.80877984 -1.4807687 0.4798909 -0.17136177 0.2781862 -0.26801875 -1.5629255 -0.6651971 0.8556906 -1.0204037 -1.0517911 0.86441404
#nd -0.08965421 0.6169803 -0.29692316 -0.05475105 -0.38659173 -1.5684139 0.0884085 -0.0036149283 2.2466238 -0.03359742 1.3915678 1.912312 -1.9924443 -1.2067989 0.013986469 -0.31657016 -0.10917293 -1.4029455 2.184852 -0.5939804 -0.15560192 0.42319232 -0.8235437 -1.20553 -0.7935271 -0.9896717 1.0942854 -1.0701303 -1.5448464 -0.49136558
ah-# -0.32960692 1.4355567 -0.83859396 0.5657364 1.1627979 0.43585876 -0.80937535 0.42549005 0.42570865 -0.48846236 2.042403 -0.017590947 -0.6868503 -1.5248173 -1.05688 -0.5196708 -0.5788764 -1.3320216 2.0118413 0.7795914 -0.9175533 -0.66848034 0.21058069 -2.202931 -2.03741 -0.91458726 -1.1393908 -2.600714 -2.1538937 -0.038083404
dasp 0.3011682 0.4769879 0.9531989 1.1888422 -0.27125534 -0.6553394 -0.5852656 1.1763701 0.15485092 0.20716013 0.330455 0.290297 -2.0476215 -1.2642345 -0.73485065 -0.037661426 0.27429712 -1.1453084 1.0706216 1.3902992 0.54130125 1.7018474 0.37268883 -0.6534908 -1.2183027 -1.8993 -1.1034305 -3.2686634 -2.1843824 -0.113365375
rdy 0.9491076 -1.0199896 0.6945375 2.487112 -2.6711998 0.5703602 -1.174581 0.7104596 -0.05945208 -1.5274676 -1.1075649 1.5925586 0.43628117 -0.8569496 0.044712234 -0.85635483 -1.3334374 -1.9893591 2.313034 -0.01460366 0.0008914808 -1.5514381 0.5821064 -1.0464357 0.85809624 0.6191085 0.9240929 -1.8807933 -0.08869682 1.1620197
bsbmwind 1.6965902 1.1650468 0.31099886 1.0902498 0.6952144 0.4085068 -0.2241773 -1.382257 1.3899397 -0.74782425 0.09661153 1.9981754 0.33574408 -0.63468224 -0.22953923 0.9029823 -0.44914868 -1.4317862 -0.3611388 1.2802131 -0.12033725 0.82010406 -0.033203606 -1.166988 -0.011769682 -2.1241174 0.24860255 -0.92639345 -0.08593169 0.07548395
heating 0.61798245 0.15291195 -0.074644245 0.6105666 -0.27565855 -0.26817474 -0.4700067 0.13854414 1.3068068 0.2564298 0.6245806 0.39855814 -0.22036642 0.35690424 0.24861312 0.44207838 -0.6068036 -1.5668981 0.28799957 -0.23090252 0.81972367 0.30541208 -0.0117015205 0.4172261 -0.3961012 -0.6669615 0.23712137 -1.0273057 -1.5402062 0.5118147
hwp#ctrl 0.028524572 0.41110066 -0.36645484 0.060631517 0.019799653 0.1502369 -0.59997267 0.5931257 1.2712 0.04838402 0.23375428 0.4644268 -0.48406076 0.08678092 -0.6765345 0.22498232 -0.060554706 -0.49997607 0.48710224 0.009427559 0.6642035 -0.2208083 0.4983047 0.07127486 -0.03262806 -0.007822612 0.27514678 -0.5134159 -0.9936499 0.32202816
gain 0.30853856 0.14247595 0.28804624 1.2204502 -2.447189 0.3354665 -0.877067 -0.099715784 0.22575 -0.7782905 1.15172 1.0593776 -1.0713807 0.17813991 -0.7260942 0.16062905 -1.6363525 -0.28371423 0.7458349 -0.06336826 0.5824712 -0.96839595 -0.26408237 -1.2367195 -0.090537116 0.526571 -0.35751635 -0.8911091 -0.94749224 0.48636627
bsbmenthalpy -0.006520572 -0.00060967985 -0.014553292 0.008837428 -0.0103121055 0.0029025225 -0.012965599 -0.001444656 0.0015967271 -0.015250267 0.01630373 0.0025814918 -0.0051562805 0.0075533856 0.007847243 0.007233039 -0.01207647 0.000307159 -0.0080736 0.006175236 0.011246827 -0.008975887 0.00948602 -0.011779369 0.005569838 0.004597034 -0.0029152061 -0.005037221 0.015208689 -0.009179531
rm-####s 0.69589406 -0.4009745 -0.104501165 -0.546346 0.103764534 -0.754619 0.08019149 1.7538038 1.5931984 -1.7928572 0.9040809 0.022603408 0.21902415 -0.62854636 -1.0737782 0.13986735 0.3650859 -0.5825764 -0.38125837 1.0464082 0.029908216 -0.152401 -0.7659979 0.12519029 -1.6406047 0.3576626 0.76021206 -1.1422701 -0.6501531 -0.09151702
shortcyc 0.6010838 0.2069292 -0.10498559 0.5347792 -0.24066004 -0.2295597 -0.40917176 0.09040338 1.1574168 0.31404915 0.6300966 0.32765543 -0.12747934 0.31244233 0.21264163 0.4037073 -0.6014994 -1.3533285 0.3109168 -0.23040329 0.86468077 0.26960292 0.066173404 0.35348162 -0.43997443 -0.6282756 0.31998837 -0.97883767 -1.4956044 0.5589208
unitloc 0.58487207 0.21730465 -0.094635725 0.5484759 -0.26545566 -0.2568559 -0.44011205 0.08699766 1.0260918 0.2626503 0.66443247 0.3794938 -0.15059389 0.41152447 0.19985862 0.3647861 -0.5719734 -1.3960896 0.2608632 -0.30615538 0.8336434 0.25621653 0.0755013 0.33259863 -0.41087493 -0.62759227 0.22342803 -0.94483995 -1.4727532 0.5023494
humdfier 0.63401824 0.15347649 -0.097338855 0.5142153 -0.21521811 -0.22138527 -0.44289842 0.05112337 1.1421297 0.22151645 0.60312486 0.35493153 -0.25365484 0.31449145 0.20592538 0.3667222 -0.564553 -1.3645626 0.2313501 -0.22662558 0.8246284 0.28388932 -0.03854633 0.41009945 -0.4050169 -0.6819006 0.2567042 -0.9379042 -1.4869703 0.43680063
hx# 1.0167462 0.767125 -1.8954136 -0.7585203 -0.4429574 -2.2582462 -1.8956515 1.0532858 0.24929152 -0.12696621 1.0045432 1.6877003 -0.37723666 1.2801079 0.03001731 -0.16492622 -1.3812898 -0.0391847 -0.22949184 -0.21113403 -0.30172306 0.7975247 0.52916855 0.34427032 -0.28058726 -0.31842738 0.7148238 -0.31968993 -1.6710204 -0.20228204
leak 0.8823427 -0.011862283 0.99036473 0.27512032 1.2598405 -0.21028262 -1.1815033 -1.4797502 0.9971495 -0.6373249 1.1962765 0.3003493 0.42850003 -0.593734 -0.15571968 0.29172558 1.4887418 -1.8771764 0.0017772279 1.7549267 -0.64544934 1.3016042 0.04854092 -1.0439668 -0.8740335 -2.1509902 0.84305227 -2.044645 -2.5384536 0.6405823
shutdown 0.1025778 -0.7601499 -0.85862947 0.64855283 -0.26836798 -1.0112962 -1.0579696 -1.1244178 1.1806136 0.06883473 0.4656637 0.933064 1.0720907 -0.6161461 -0.7072843 1.0882802 -0.82297796 -1.009156 0.51363766 1.1150757 -0.19977476 0.9248252 -0.8068272 -0.49191168 -0.6632719 -0.41654631 -0.24862936 -1.3830622 -0.6658987 -0.2839404
