ap&m 0.5117504 0.38663527 0.41311383 -0.74474144 0.04927527 -0.40214074 0.10367291 0.3022211 -0.43656394 0.016064445 -0.15535486 0.54634666 0.2964147 -0.1881489 0.5200853 0.94770277 -0.09649039 -0.08237743 0.577619 -1.316581 -0.49423882 -0.10709647 0.12494981 -0.23748171 -0.11305754 -0.17073637 0.32604864 0.21578681 0.38182417 -0.280873
rm-#### 0.88991827 -0.19308406 -0.8127396 0.8555844 0.8690404 0.22182143 -0.28754342 0.5174521 0.8022797 0.65321654 1.3734435 -0.5624247 0.9326382 -0.36159658 0.977364 -0.298453 -0.20084572 -0.026013091 0.37747806 -0.08941508 0.21718006 0.44928285 -0.33988598 -0.7988379 -0.2608991 0.49917784 0.59902525 0.015754249 -1.1040895 -0.8175886
c 0.789885 1.7553408 0.1704661 0.1465346 0.21430075 0.65008736 1.2384341 -0.90511066 0.14066415 0.4431016 1.784347 0.22324064 -0.4882715 0.025621524 -0.24431384 0.078291915 -0.20256482 -1.0678563 -0.46897656 -0.5587672 -0.9957556 1.9006448 0.23692182 -0.4320781 0.22769317 0.10761129 0.7757215 -0.408708 -0.38563493 0.14614812
max -0.15936457 -0.17489333 0.3688535 -1.114456 -0.40801528 1.2337377 0.32784012 1.2463946 -0.9450507 -0.5266014 1.4548268 -0.2919873 0.64177555 0.25425878 -0.35207218 -0.67800164 0.6009152 -0.934761 1.4477481 -0.28439492 -0.7618189 1.11674 -0.7241063 0.3731725 -0.17007104 1.1523513 -0.7144262 -0.6478771 1.0321487 0.553111
stpt 0.50561035 0.15112658 0.36996943 -0.27839833 0.5737897 0.87503475 0.4501375 -0.34779438 -0.26228192 0.087656066 0.50238484 -0.4180276 0.48365578 0.55572164 1.1452672 -0.95263165 -0.1275165 -0.8504257 -0.3917388 -1.265926 -0.7705186 1.7752174 -0.7618136 -0.025088638 0.905427 0.00525493 0.4681741 1.6664231 -0.5990155 -0.9695177
o -0.41078413 0.45760527 1.2260802 0.077631034 -0.6153356 0.88035965 -0.45967326 -0.19420311 -0.646603 0.6933665 1.2320951 0.28239092 -0.2809297 0.26456288 0.5140351 -0.8397659 0.24133387 -1.4753578 0.8740295 -0.18212989 -0.5560277 1.4470314 -0.26629856 -0.665814 1.4155686 0.5032069 0.120666966 -0.11463683 0.25037274 -1.056785
h 0.9056297 1.1521509 -0.2364976 0.35310304 0.23372105 1.2630914 1.8838547 -0.7986787 -0.6923256 -0.220012 1.2873257 1.559276 0.047325253 -0.016254744 0.034837954 0.26655102 0.11132146 -0.8040322 0.25077382 1.0628127 -1.091704 0.29204884 -0.44895896 -0.29800883 0.6029382 0.08599149 0.42677563 0.19580281 -0.8223638 -0.009805978
min 0.88461506 -0.40538368 -0.13543956 -0.030407865 0.12822981 0.4910074 0.16951297 -0.7560787 -1.1700484 0.65868515 2.163414 0.20969965 -0.07081151 0.13798532 0.21524248 -1.0835868 1.230033 -1.4554529 0.82273215 -1.159793 -1.127812 0.67135125 -1.7298126 -0.8133626 0.047412924 0.14297459 -0.5072412 -0.37977836 0.17238504 0.18628706
rm-####b 0.5636957 -0.89083284 -0.68811595 0.5949266 0.34540454 0.7911123 0.1685154 -0.023409525 0.58842915 0.29468423 0.492268 -0.13873823 0.6261216 -1.2158 0.3114347 -0.354075 0.09195887 -0.20913793 0.48984146 -0.24085619 -0.1546754 1.42031 0.38418528 -1.389563 -0.032396425 1.1463299 0.6687294 0.37963495 -0.80804247 -0.51932734
dmpr 0.36303204 -0.6476802 0.584272 -0.7461283 0.7090157 0.1313638 2.2600622 -0.38932413 0.34441853 1.0944349 0.9227425 0.44408587 -1.6849542 -1.299395 0.12260566 -1.0270404 0.24932295 -1.0811815 0.13808182 -0.5933568 -0.4316899 -0.19771127 0.38206142 1.1592116 1.2285324 0.008489784 0.18463801 -0.6555938 -0.41249254 -0.7986458
cmd 0.17703786 -0.3581897 0.9434791 0.7626976 0.1395607 0.86775297 1.8706762 1.0342814 -0.2843368 -0.59378564 1.5598602 -0.6990273 0.43577847 -0.2469154 -1.4222733 0.7060585 1.034578 0.19341142 0.45431706 -0.8451373 0.48345685 -0.49858892 1.2941657 -0.79314315 1.5224893 -1.3504212 0.5159237 0.060074165 1.348871 0.17448899
sup -1.088469 0.1633095 0.08485632 -1.0003068 -0.06438972 0.41682467 0.8758326 -0.10445418 -0.44733736 -0.04124535 1.7266726 0.25597122 0.33265775 -1.0624865 0.041791804 -1.7915896 0.62579083 -0.5013345 -0.11122193 -0.16734055 -0.7024961 1.1709311 0.7946797 0.14473599 -0.6065275 -0.42415547 1.7036948 -0.5348334 0.5796713 -0.6972238
flo -0.3484805 0.36455566 0.6783443 -1.1110591 0.034409713 0.8264327 1.427002 -0.42479944 0.1572934 1.3814368 1.9095035 0.8963765 1.3905531 0.33825344 -0.6232795 -0.9235957 0.47784725 0.8182649 0.68711907 -0.61099684 0.85927886 1.538594 0.95667326 0.060388595 0.19255847 1.1835725 0.24015072 0.27712032 -0.16069722 -0.64506173
zn -1.0390028 0.68117034 -0.93008226 -0.062537715 0.007871579 0.061805937 0.9941314 0.36227682 -1.3486546 -0.61243296 2.0949042 -0.021680713 0.7862571 0.971248 0.34193698 -0.52259815 0.36270264 -0.0065122526 0.26546302 -0.31330353 -0.44026777 0.071872346 0.8816048 0.05009212 1.1852341 -1.3567663 -0.17940667 -1.5017736 -1.9769542 -0.5947906
t -0.5611876 1.4620329 -0.40625805 -0.41080585 -0.6366899 2.3756542 0.646913 1.3365555 0.37910962 -0.6147197 0.5634752 0.7399598 -0.1390103 0.6943728 1.9340504 -0.72225416 0.8158211 0.37530088 0.9424947 0.41311312 -0.54030144 -1.2415884 0.5269188 1.1238658 0.9916272 -0.21481739 -0.34314585 0.28336516 -0.6894727 -1.3394369
ef# 0.29229295 -1.8788525 0.13961163 -1.6843468 -0.37073934 0.41417137 0.6312128 0.46745133 0.53230923 -0.025055464 1.0903755 -0.75773054 -0.9518667 -1.1957309 0.3124172 1.7124487 0.8204784 0.09181276 -0.22375257 1.1662235 -1.4605958 0.352743 1.2597069 -1.093775 -0.43747914 -1.454001 -1.1535773 -0.64634603 0.11698894 0.34355658
vfd 0.44125348 0.14638266 -0.28263316 -1.1369659 -1.8425128 1.3813394 0.68267 0.33114386 1.5639235 1.0519363 -0.061492722 -0.3519605 0.57705015 -0.64861655 0.0011060168 0.055572305 0.14840242 -0.49295577 -0.2618245 -0.61852837 -0.94372463 0.006857395 0.90278196 -0.9489764 1.081094 -1.1987817 0.43635514 -0.041512057 0.5650026 0.7363307
power -0.81255585 -1.2661629 0.47931644 -0.58595884 0.7923475 -1.3676353 1.1020174 2.1649776 0.69077235 0.74486077 0.14021912 -0.7145927 1.6478705 -1.061473 -0.34941107 0.214996 -0.27967408 -1.4110119 1.3523816 0.5944369 -0.26616904 -0.5462435 -0.13422734 -1.317154 -0.051208347 -0.57289225 -1.1326988 -1.1028091 -0.5904389 1.3142228
ef##-## -0.8031367 0.90067375 -0.2166867 -1.3654717 1.0035708 -0.7324733 2.306347 0.3724246 2.2910702 0.6946788 2.26906 0.42606136 0.24838883 -1.1814147 1.1358203 0.67123383 0.776407 0.4481109 -0.4741049 -0.34268054 0.2572487 0.91207165 -0.1001175 0.060584962 1.4647673 1.5030465 -2.2849731 0.44307122 0.43164334 -0.5003635
easp -1.4345212 0.55369365 0.5739601 -0.0572626 0.6606007 -0.12889095 0.5982141 -0.8883738 1.1878788 0.5643871 1.225472 0.1642267 0.8283817 -0.18631952 2.0175724 0.555071 -0.16763584 -0.6174533 -1.5783793 -0.34246537 -0.2961698 -1.0249172 1.2872556 -1.8950113 1.3426381 0.5799827 -1.4213458 0.038418744 -0.8204703 -0.013151305
db -1.1673591 -0.6784758 0.6605563 0.11401059 -0.09224728 -0.66366756 0.23730934 0.83338976 0.92299694 -0.3320398 1.181224 -0.9671804 1.6765577 1.1739969 2.1453853 -0.6121542 -1.7706236 -0.095525324 0.5041991 -1.2047883 -0.6304088 0.6397941 0.32885772 0.88456386 0.35733247 0.47475123 -1.9197371 0.14061765 -0.93173665 -1.0830455
htg -0.09795141 -0.35089377 -0.36644322 0.021698754 0.4289168 0.33326966 1.197431 -1.5026516 -0.3168546 -1.1017623 1.8716934 0.18055013 -0.2090046 -0.071718365 0.8325434 -0.5124987 0.19699746 1.1480792 -0.26148385 -0.91619194 -1.2148811 -0.20943114 0.00034102105 -0.6499403 0.66864496 0.33848026 0.52847904 -0.5380477 -0.2661271 0.44913772
vlv -0.84343505 -1.1636031 2.1537824 0.48913303 -0.3087453 0.09378829 0.92628 0.29250136 -0.28267783 0.6452094 0.97680223 0.051762417 -0.32964912 0.60302085 1.1366737 -1.2168728 -0.41454318 -0.10470556 -0.526919 -1.1365964 -0.16967662 0.04019403 1.0272312 0.24703369 1.384004 0.041960698 0.16759306 -0.03972142 0.110803515 -1.9479095
box 0.07189117 0.38673204 1.5243322 0.56957185 0.9149487 -0.25022423 1.9648802 -0.112815514 -0.7432 1.3878976 0.5735476 -0.23853263 -0.24982788 -0.011363572 0.27242854 -1.1590177 1.4889123 -0.105706856 1.378532 -0.14362915 -0.7695973 0.7686647 1.5698049 -0.7268962 -0.29381672 -0.21948461 0.054681435 -0.118905835 -0.48542535 -0.34578583
mode -0.7995583 0.9198531 1.3027756 0.7767385 0.85826224 -0.42755508 2.2269957 0.42900628 0.41063192 -0.06368912 0.38821292 1.2049917 0.54364276 -0.78986406 0.6899294 -1.5227135 2.1348531 -0.16656688 0.40196675 -0.9439183 -0.6253833 0.91564316 -0.17818348 -0.8304689 -0.3451272 -0.04083449 0.38889667 -1.2528011 -1.0280758 0.21430238
wc -0.53823715 -0.50321966 1.5138499 -0.07636048 -0.68874234 0.2568577 1.3599397 -0.777897 -0.21528657 0.13261141 0.7630959 -0.20020095 0.13169415 0.055461757 1.1704235 0.60134983 2.261387 0.054956414 -0.45506847 0.31660554 -1.2285655 1.2435336 -0.052111875 -0.8317901 -0.10060391 -0.48749095 0.0034516167 -1.0375613 -1.5746686 -1.1169538
adj -0.43233415 -0.34857568 0.1798299 -0.2885214 1.2811912 0.6002391 1.8565282 0.47650638 -1.6269333 0.31762555 0.33013043 -1.1926446 -0.7007741 -0.1937716 1.1223962 1.0518692 1.4102062 -0.10253776 0.5729575 0.90820175 -1.1533242 1.2231085 -0.35010803 -0.8988968 0.8708927 0.034900144 -0.2682298 -1.7335886 -0.64107704 -1.58436
#flehalla -1.4138751 -0.1013809 0.2119174 0.69842607 -0.7806409 0.6709137 -0.013677906 0.16151536 0.6057071 0.6023488 1.3634131 0.31280655 0.25166148 -0.64698786 0.8757124 -0.66530913 -0.7571573 0.0023564866 0.0994287 0.073711455 0.15797074 0.539081 -0.07957639 -0.989808 0.60831434 0.6199557 -0.46813965 -0.33436793 0.22627497 -1.6834841
clg -0.5247151 0.36257866 -0.6529889 0.047952026 1.0772983 -0.1746627 1.3973894 -1.1526097 -0.36708653 0.22555771 1.7542226 -0.30755848 -0.2629836 0.6232849 0.8632969 -0.12714252 -0.60631907 1.1915225 -0.1332587 -0.6242064 -2.1859572 0.5812902 -0.881443 0.2155215 0.55956316 0.8543499 0.056649033 -0.40848032 0.38390428 -0.20143956
rm-b### 0.26745456 -0.23548633 -1.2151937 0.63579506 0.35409334 0.28688294 -0.03187131 0.27231708 0.7243437 0.3629461 0.9173763 -0.37441275 0.7202164 -0.44871378 0.42723697 -0.4600702 0.0028834955 -0.26094443 0.8067013 0.17352176 -0.25339103 0.28347656 -0.51550114 -0.95726156 -0.12755816 0.97016966 0.64445734 0.7271096 -1.150077 -1.0498078
energy 0.71234155 -1.4161224 0.7692033 -1.0231754 -1.3178955 0.23706436 2.1296086 1.1178813 -0.36249718 -0.005396294 0.7488664 0.34986433 0.9462642 -1.0174657 -0.17966372 0.43283412 0.499162 -0.5505758 1.4116397 0.868755 -0.6902969 0.1359895 0.06587938 -0.6482881 1.3083634 -1.028924 -0.46035844 -0.27183607 -0.6086187 1.6861513
m -0.0060938983 -0.5321629 -0.2081172 -1.3636262 -0.66661245 1.6114668 1.1288496 1.5030959 -1.0779536 0.8099589 1.3669432 0.9286513 -0.064834476 -1.2022305 0.78675765 0.23016714 -0.22623602 0.11924528 -0.14549695 -0.46052337 -0.4519074 -0.01393281 0.18578032 -1.6470674 0.38383114 -0.84956926 -1.4236584 -1.0823562 -0.22009858 2.322533
rm-####h 0.58533335 -0.75981796 -0.062149014 0.11451158 -0.49954507 0.6626861 0.25465703 -0.22999935 0.13618827 0.73129064 1.6418796 -0.020984024 0.5931983 -0.03064793 0.48316398 0.029184828 -1.0363113 -1.4572119 0.28626272 0.4026538 -0.20543092 1.6726907 -0.36804554 -1.2651635 -0.49979007 1.1715871 0.54907954 0.8597219 -0.6490322 -0.16648775
flow -0.7061384 -0.88193446 0.864672 -1.4262084 0.025285749 0.2556139 2.5174074 -0.7335492 -0.9053201 -0.011768214 1.3039824 0.48964152 2.3237486 0.9638197 0.17989153 -0.47733435 -0.41185412 1.0590405 1.0605886 0.49822924 0.5172541 0.8669306 0.41525945 -0.38779253 -0.21003343 0.1351241 1.3465825 -0.059258256 -0.8853994 -0.6814774
a -1.0950124 0.10450196 1.0048764 0.5221344 -0.375393 0.7832297 0.6807058 -0.05729174 -0.04866775 -0.2619473 1.2140034 0.46227413 0.16994642 -0.0008244992 0.66261923 -0.56992453 -0.29653046 0.42713225 0.27241245 -0.1724258 -0.170014 0.8058445 -0.59086776 -0.8915272 0.48751324 -0.1809418 -0.3040333 -0.9312283 0.4813825 -2.8181047
occ -0.9668619 -0.4295687 0.62944305 -0.6800832 1.0659728 1.1209897 0.950769 0.1266991 0.6192338 0.8327405 0.9707106 0.76928896 -1.003701 -0.17554396 -0.17959534 -0.50470275 0.22692853 0.08467749 0.8144913 -0.7062962 0.17567241 0.92962754 0.7856921 0.21622238 0.767901 -1.4851764 -0.05588507 -0.8764295 0.17652602 -1.2267967
sa 0.020690985 0.5040117 -0.10314009 1.0030143 0.3891997 1.268713 -0.32444322 -0.373177 -0.1970837 -0.21781883 2.1855922 -0.36823457 1.6315445 0.25611618 0.874056 0.9044132 -1.9925525 -0.13691506 -0.21265082 0.25299433 -0.70710987 -0.2271905 1.312838 0.86372614 1.1416585 -0.09820615 -0.84301496 -0.0647817 -0.8939307 -1.6371478
vp -1.3897563 -0.65476936 0.7342138 -0.51727676 1.3970823 0.84370697 0.87386084 -0.1983923 0.8636151 -0.36483827 1.2817087 0.28002098 0.7309447 0.5808831 1.357396 -0.6207946 1.268103 -0.77389807 -0.023840243 -0.48654088 -0.79306656 -0.23427804 -0.25424784 0.46843272 -0.52213365 -0.079161905 -1.0891551 -0.7801102 0.029243827 -0.13737397
rm-####a 0.13795349 -0.518161 -1.0386488 0.8808297 0.035303526 0.6566495 0.11745261 0.5534208 0.38130742 0.10501276 1.0695028 -0.2641152 -0.023058578 -0.7937274 1.0050817 -0.121293075 -0.090191595 -0.08244092 0.74072367 -0.36224318 0.10899373 0.68017256 0.11001544 -0.9701536 -0.009015659 1.0855207 0.39015248 0.5852908 -1.2288067 -0.24555053
ahu-# 0.31186983 -1.8000529 -1.2088563 1.3744737 0.47344914 0.9876723 0.6384901 0.71580553 0.7070376 -1.0925971 0.27355132 0.46720862 1.4592247 1.4112353 2.3145206 0.4693703 -0.4450448 -0.94825894 1.7332073 -0.15415178 0.1413545 -0.17266786 0.4395104 -0.91133744 0.5150598 -0.24348931 -1.2977859 -0.2873194 1.7324675 -0.5595311
sp -0.861285 0.008708841 0.021294408 0.11282637 0.693134 1.4086738 1.1065476 -1.5658566 0.7860112 0.91504574 0.54043293 -0.4121618 0.8398697 -0.7530796 2.415972 -0.69487834 0.87348735 1.2058109 0.07053093 -1.2302598 -0.87160873 -0.9725986 0.50903475 -0.01575106 -1.0204611 0.58031327 -1.180851 0.1514607 0.38357094 -1.4176686
rm-b###b -0.88530564 -0.047981247 -1.4726541 0.19248067 0.2736552 1.1676157 -0.28990725 0.085675865 0.8143461 0.5161552 1.5663786 -0.60361594 0.43467 -0.5106227 1.0232129 -0.049065825 -0.57573843 0.2403189 0.73970395 -0.24024676 -0.029255461 1.3851293 -0.47120014 -0.46280593 -0.056859996 0.3047394 0.67722416 1.164178 -0.62444776 -0.43971542
dpr -0.8706082 -0.4444194 1.6189528 -0.5747873 1.1632951 0.9356249 0.2469461 0.1076626 0.12221005 0.87671846 1.4101048 -1.0675894 -0.0037267741 0.06762507 0.021547819 -0.13164091 1.1631951 -1.4077168 0.57319957 -0.38898152 -0.18373352 0.62593085 -1.108988 -0.33913428 0.2739664 0.47153392 -0.5104709 0.030896772 0.5918271 0.1694408
hx-#hx# -1.6363405 -0.7289027 -0.846474 1.1566377 1.1600361 0.236537 0.32947904 -0.41527936 0.843615 0.5312322 1.8304995 1.6682935 0.18555143 -0.51086605 0.42315498 0.1459513 -0.5500584 0.45854568 -0.36528745 -0.30139422 -1.5670354 -0.8160443 1.2144103 -0.5312998 1.3589529 0.65336925 -1.0723006 -0.4212591 0.36189786 0.6176148
mtw -2.420275 -0.48723012 0.4241004 0.94795334 -0.9024509 0.11580763 -0.022721848 0.13550463 0.50367904 2.005102 0.7232816 0.7373659 1.0979302 1.2188364 0.7633117 -0.349301 -0.03234638 -1.0632173 0.6788931 -1.1004608 -2.4549794 1.2148266 1.8536677 -0.18011326 -0.19729358 0.12871629 -0.39297917 -0.6195551 0.10200457 -0.2597715
s -0.49988556 -1.4549645 0.63360596 0.6819708 -0.37927067 0.2619803 -0.78907824 0.89117104 0.23695494 2.0390162 1.7645992 -0.07873373 0.5257688 -0.9885619 -0.08989114 -0.36353552 -0.205727 -0.9610058 -0.22385378 -2.0839646 -3.0883942 0.40812346 2.1726081 -0.49432757 -0.55285555 0.014211074 -2.3735583 0.86832434 -0.4869579 -0.038085993
ef-# -0.92704505 1.92786 -0.95504695 0.34914616 -0.78743774 -0.7136852 1.6292046 0.99794555 0.2263606 1.7190601 1.7419822 -0.17933808 -0.3006239 -0.5076976 1.6123762 0.6275055 0.4827774 -0.37436458 -1.0842332 0.0039840895 -0.39939556 -0.03897655 -0.13174132 -0.91375405 0.30152488 -1.0792919 -0.33411664 -1.0164887 -0.30476958 -0.4490506
esp -1.9347954 2.2750454 -0.243254 0.080127575 0.27771246 0.30410987 0.30075002 0.97510964 -0.2575984 0.42071205 1.624413 0.6005736 0.66388834 -0.8816786 1.1547489 -0.22959054 0.0016317484 -0.47227713 -0.47325414 0.35774967 0.6139922 -0.1743401 0.98907995 -2.6765473 0.9586817 -0.24491188 -0.7016936 -0.5255755 -0.63019276 -0.29084572
pb -1.6118362 1.3492459 0.24530827 -0.87056667 0.7283155 -0.6064842 1.3733311 1.8157135 0.14701742 0.90988743 0.9820126 -1.2428757 1.0352387 -0.5241464 1.4640443 -0.33208835 0.039418112 -1.0165635 -0.5447659 -0.86169475 0.20913845 1.0728785 0.21811134 -0.5675235 0.765958 -0.5019675 -1.6553016 0.75689155 -0.26669896 0.16055575
hx-# -2.5996401 -0.53688884 0.13654663 0.35278055 1.3343942 0.23562855 1.2588654 0.35760325 1.1633451 1.3143739 0.012702897 1.4865797 -0.19450907 -0.12272314 0.3364354 0.6614475 -0.75811595 -1.5427142 -0.516525 -0.068954274 -2.57033 0.48597875 1.3823062 -0.7327147 -0.1728424 0.3999262 -1.311955 1.7799917 0.45189214 0.41652673
p# -1.3336937 -0.21442793 -0.10465241 0.7939137 0.13924298 0.2414589 1.6699333 1.1346118 1.1756401 0.72758895 0.36386877 -0.51323795 0.5329199 -0.29390928 0.06930724 0.17039794 -1.1228017 -1.1434127 0.28758308 0.24365647 -2.1627433 -0.1043826 1.2309456 -0.6995842 -0.5450145 0.98332113 -0.21140487 0.672497 0.47170594 -0.029904025
sts -0.22506885 -0.4284347 0.9040482 -1.2071707 0.13846402 0.077667795 2.3832073 1.1025729 1.5081717 -1.4683048 0.22346126 0.41835138 1.2506922 0.22327478 0.39540702 -0.83315504 0.34145665 -0.13388664 0.459147 -0.08556487 -0.7266437 -0.56757545 2.3342085 -0.67362255 -0.66073114 -1.8634946 -0.34178898 1.1922505 0.33831146 1.4535321
r -0.31706694 -0.16171348 -0.7411518 -0.6583654 -0.61208516 1.2207015 0.861787 0.33127552 1.0544442 -0.3077508 1.3293498 0.2649625 -0.41421092 -0.083701424 -0.16829386 0.94369256 -0.011769192 0.5681158 1.4389794 0.07630105 -1.862407 -0.62180024 0.33579051 -0.5339066 -1.7786624 -1.970869 -2.023095 0.7124444 -0.7728677 0.57633615
ftr 0.15584548 -0.17051508 -0.37524042 0.2513542 -1.1206573 1.0247811 2.0874164 0.3274623 0.8535781 0.17153174 0.16736524 -1.0155765 0.8087922 -0.20813727 0.576513 -0.70884544 -1.2076881 -1.3043463 1.2066355 0.58439213 -2.1692457 -0.9468557 1.2565584 0.073581114 0.75152963 -0.044901926 -0.23944016 0.31134596 0.39023638 -0.18570101
ef## -0.1349407 -1.4031826 -0.75819373 -1.0901638 0.4944368 1.5638531 1.2749236 0.229954 0.4094116 1.0879698 0.51937383 -0.52905154 -0.49128625 -0.39882615 0.11040865 2.3039014 1.0186865 -0.34454393 -0.15795386 0.78408825 -1.1690569 -0.34140086 1.8877547 -0.50619435 -1.2742163 -0.43549377 -0.103985116 -0.31422698 -0.42328948 1.4427348
vfdvfd -0.32084483 -0.3595673 -0.57047737 -0.12599233 -1.1887467 0.091170736 2.3507993 0.9887601 0.42510924 0.2143537 -0.62615633 -1.3525091 1.5425287 -0.82038105 -0.17824928 -0.16344015 -0.34273866 -1.2293729 0.56749105 -0.71600044 -1.2629741 -0.6237769 -0.7853785 -1.9890152 0.21757478 0.23863477 -0.5571022 -0.16207156 0.44320542 1.000995
ena 0.058469597 -1.4628856 0.66140133 -1.6798593 -0.05699794 0.52222335 1.8240405 0.5070294 -0.26088902 0.11573294 0.021483827 0.3638084 1.165536 -0.16190214 0.33106232 -0.8783558 0.19092067 -0.9375115 0.89246184 0.3241022 -0.57341707 -1.1787028 1.5554472 -0.69095045 -0.23397483 -0.8656216 -1.4133756 -0.5002504 0.0106750075 1.3071672
rm-b###w -0.68357164 -1.3014807 -0.14943594 0.08151764 0.064989395 0.31668362 0.5204271 0.57726043 0.7096289 0.22189036 1.5752827 0.5661266 1.4143971 -0.58657223 0.93141764 -1.4970769 -1.1878024 0.36994404 -0.09727528 -0.16161473 0.15461816 0.54441065 0.9469998 -0.53562653 -0.015526665 1.1317343 1.5498039 0.7166816 0.22965969 -0.43445778
chw -1.1707592 0.22335675 0.25767383 1.4489571 -0.33090502 1.2907196 0.86991036 0.72195756 -2.0733871 -0.0058881836 0.36551136 0.2955742 1.5705081 -0.9976384 0.37745723 -1.019822 -1.2476643 -0.5786 0.8615967 0.44572812 -2.0701697 -1.472083 0.84856373 -1.0596755 -1.1898586 -1.3145394 -1.3361812 -0.27631968 -0.15294318 -2.3741336
b 0.22060075 0.20503317 -1.5771945 0.738646 -0.56686133 0.87162846 0.8473916 0.85442847 0.012795186 -0.24460678 -0.044592615 -0.37690657 1.2253151 -1.1850709 1.1322397 -1.565473 -0.1735494 -0.25775343 1.4904143 -0.5818387 -2.526737 -0.20475052 0.09911644 0.06712281 1.0765942 -0.3694685 -1.8438413 -0.3851366 -1.092271 0.06859288
#flehall 0.1504442 -0.57505685 -1.5811596 0.5137799 -0.23909165 0.9118361 0.17067829 0.43936735 0.8172162 0.04665651 1.6936512 -0.15237163 0.8467245 -0.42363116 0.6619645 -0.30042616 -0.41404718 -0.6882884 0.472782 -0.35433012 0.7174235 0.3646672 -0.42764795 -0.73670506 0.22303315 0.1497577 0.7969646 0.9253828 -0.22158833 -0.43613866
rm-####c 0.41251835 -0.60810924 -0.99233305 1.021908 0.15153001 0.3642498 0.3062356 0.32420436 0.17318045 0.54462326 0.7225996 -0.041561488 0.4643006 -0.91382074 1.2430878 -0.41020197 0.34945026 -0.22936067 0.7516577 -0.034778446 -0.03860798 0.9360144 -0.067411564 -0.84102803 0.06636707 0.9138781 0.649767 0.440194 -0.7353969 -0.4165381
pos 0.66366196 -0.13508517 0.69887257 0.1762403 0.41005683 0.34389818 3.116692 1.1647143 -0.9147981 0.28845635 1.3359923 -0.24151962 0.084261775 -0.8155025 -0.40293607 -0.025449838 1.9119741 -0.93697274 -0.5050428 -0.41533184 0.5495588 0.24013618 0.35674793 -0.8209278 1.4606649 0.97381 0.007831637 -0.29673535 0.58329463 -1.6872557
ahu# 1.1350377 -1.5420707 0.24730228 -0.96140194 -0.47195008 2.0706782 0.81083655 1.3593585 0.33316827 0.086313866 -0.46211627 -1.1364503 0.47594568 1.3768128 1.603003 0.95933855 -0.0049273316 -0.57641876 0.8414761 0.14896038 -0.8911162 0.672088 1.340943 -1.641301 -0.12655643 -1.8591325 -0.04099125 -0.11439131 -0.42583212 1.4432157
l 0.024041831 -1.1443653 1.0297402 -1.6535654 -0.59258264 0.9320862 0.9704999 -0.28420818 0.75865567 1.1318961 1.3123478 -0.5369391 -0.30912033 -0.24549001 -0.4124676 1.9466298 -0.29602697 0.07269035 0.42711526 0.5236659 -0.816396 -0.13618146 0.56239724 -0.8742183 -0.9199795 -1.5441463 -0.8518218 0.33726284 -0.2153599 1.0011076
curr 0.30730107 -0.47166377 1.7692487 0.19382642 0.86576873 0.88544095 1.0510094 0.7925112 1.0446182 1.1998897 1.2419299 -0.2295489 1.3942084 -0.17574067 0.7200666 0.7321299 -0.12870389 -0.14270353 1.1397669 -1.0747507 -0.13220423 0.38693094 0.33543396 -1.4368752 -0.0884083 -1.5649729 -1.2728888 0.23906659 -0.16871555 2.2767584
lmt -1.8318102 -1.444349 1.1797676 -1.8718976 -0.8536969 1.7149335 2.1397138 2.120656 0.40037927 2.359356 0.8604654 0.22812904 1.106804 0.33787525 1.4854826 1.519667 0.4983637 0.7092823 1.0150551 -0.41727802 0.09766218 -0.52782845 -0.85775554 -1.8886302 0.624766 -0.9446451 -0.7234828 0.794735 -0.13828975 0.6037898
crac-# -1.1112099 -0.9577287 0.13149464 -0.9970847 0.45689604 -1.0507581 1.19156 1.7652005 0.28078514 -0.14707384 1.8338691 0.933537 0.7505467 0.9337296 -0.23622726 1.1400468 0.6667336 -0.6757794 0.13963562 0.4960512 -0.91869205 0.041942857 -0.4766664 -2.9608681 1.098149 1.577708 -0.09485559 -1.564536 -0.5501766 0.37477592
mig-### -1.8800242 -0.018624129 0.71210617 -1.648148 0.96755695 -1.0116423 1.2421117 1.2362084 0.31485164 -0.08269225 1.9035534 1.1486938 1.280032 -0.05889952 -0.8784263 0.651217 -1.7654412 -0.8392388 0.01044014 0.5240677 -0.97245765 1.5053483 0.06108873 -1.8921998 1.4282438 0.1830478 0.40850788 -2.0804796 -1.0353568 0.057678096
capacity -1.61126 -0.27301967 0.6703304 -0.15605056 0.110892706 -0.92962897 1.6706638 1.3964988 1.0591732 0.56160176 1.5836443 0.8101755 -0.14723463 -0.4022691 0.69939905 0.52317756 -0.34724918 -1.2163216 0.48632514 1.1991642 -0.79168 -1.0174052 0.4115044 -0.91125774 0.018517798 0.027151573 0.44705296 -0.7958563 -0.5920666 -0.56185186
ef-##ef## -1.1315403 -0.1729103 -0.48700538 0.616297 -0.07766133 1.011396 1.774801 0.7441245 0.7945315 0.96900773 0.20933805 -1.2820051 0.26730627 -1.1061732 0.43869984 0.6152406 -0.67455035 -0.91989017 0.12806328 0.47589684 -1.1402018 -0.85420036 0.2774725 -1.0686408 0.27950898 1.2033384 -0.20871171 0.6780913 0.25858757 0.04453306
dx### -1.665025 -1.1351725 -0.6066366 0.55187905 0.04134309 1.5355566 0.6977372 -0.35001603 -1.534401 1.9092627 0.37007612 0.4672638 1.0143579 -1.3528897 0.0014301024 -0.94464344 1.2426116 -0.14457819 0.51438284 -1.0086446 -2.9074326 -0.5460101 -0.096183896 -0.9453016 -0.05681601 -0.18972614 -2.0337307 -0.50144744 -1.321084 -0.86166966
p -1.7572972 0.7526924 -0.016077371 1.4080321 0.40663967 0.47955644 0.063997485 1.379219 0.128896 1.9216526 0.510394 0.9202936 0.59115785 -1.6464981 0.74210167 -0.8869907 0.17776234 -0.09670382 1.3097131 -0.5562234 -2.766673 0.54777014 0.51672685 -0.13450328 0.34582722 -0.9936822 -1.6911082 -0.8650914 0.21438277 -0.36854684
rm-b###wb -0.47841123 -0.45888656 -0.11396615 0.76201606 0.40127102 0.69931287 -0.12787277 -0.22641799 0.48625582 0.83709186 0.9285379 -0.48097774 -0.04706523 -0.55072695 1.8188581 0.53810364 0.41624084 0.4581105 0.12770192 0.53886354 -1.0215176 1.3229 -0.9039666 -1.4051453 0.35421255 1.1558716 0.16394491 0.46946943 -0.56652606 -0.8315973
ef-## -1.5341712 1.9489126 -0.71308315 0.11524253 -0.8082808 -1.1761839 1.4404972 1.4367641 0.89520097 1.6462212 2.0725145 0.15762575 -0.059402008 -0.43852147 1.5558727 0.4956221 0.038364507 -0.254241 -0.79782975 -0.39927334 -0.032107767 0.34795132 -0.29757828 -0.19033699 0.44588605 -0.32252845 -0.9212037 -0.8821394 0.3468723 -0.43455902
current 0.22831553 -0.9921094 0.6994036 -0.10269277 -0.5254151 0.64760196 1.6729608 1.2600363 -0.0541123 0.16348062 0.28508326 0.50475144 1.4628173 -0.4347724 -0.037387982 -0.19693407 0.08537294 -0.70526946 0.9377455 0.27811146 -0.612532 -0.46135664 0.5298489 -0.25905928 0.68262804 -0.98870033 -1.0835813 -0.36044943 -0.04270982 1.4105486
sys -0.271326 1.0550132 -0.3197416 0.54863083 -0.05195865 1.7450777 -0.034960907 1.4878193 0.20061982 2.4192863 0.79251546 -0.08705189 0.76816475 -2.4474113 0.32500774 -1.1448991 0.78768456 0.21677251 0.6244654 -0.62062234 -2.2068677 -0.3993016 0.48917216 -0.8906638 0.74342847 -1.2870619 -1.37645 -0.33888605 0.46177194 -0.7036351
run -0.3402338 -1.1865261 0.6615986 -0.032361995 0.5218461 0.60272646 0.5209305 2.2084458 -1.1609918 1.5473746 0.78243095 0.3278763 1.3399949 -2.2834504 0.34921286 0.8559967 0.83220017 0.45598263 1.2700912 0.24851494 -2.1162026 -0.30680883 0.08810979 -0.7948527 -0.51108897 -1.3599868 -1.7179279 -0.72529805 -1.2390995 -0.017661922
reset 0.12706606 0.23766905 -0.8295104 -0.49242187 -0.18670928 0.2582834 -0.011833511 0.4903702 0.24954581 -1.4942565 2.6262975 0.15671493 2.9063764 0.28763527 1.6563473 -0.4986548 0.98064226 -2.1788623 -0.25704855 -0.42530683 -1.9325072 -0.6010799 0.60381657 0.7742029 0.17092465 -0.13262258 -0.90322775 -0.45207897 -0.7002662 -0.8895987
drv -0.6094596 -2.1779058 1.3410642 -1.0166672 -0.9726146 0.18227592 0.25010052 0.80632704 -0.48904487 0.59986746 1.5746415 0.048551533 1.198538 -1.4509387 0.77104884 0.105369866 -0.013985303 -0.68278027 0.42425364 -0.55548835 0.47198886 0.2631833 0.60795057 -0.6070876 0.83001053 -1.2775822 -1.3103842 -0.9264663 -0.39927065 1.0897906
tmp 0.07024933 -0.82318693 2.197056 -0.5266378 -0.51924795 1.5957144 1.3513454 1.3367145 0.96878743 -0.5729981 0.7787412 0.74169976 0.37728697 -1.5083159 0.96612257 1.0018141 -0.57657456 -1.4153732 -0.80490357 -0.17688361 -0.5501911 0.6201961 -0.70054394 -0.9988982 0.28576648 -1.1985725 -1.6743138 -1.1956899 0.619701 0.8384631
co# -0.96226436 0.531228 0.7386444 -1.035304 1.5405456 -0.331828 1.4523158 0.18853654 0.9986727 1.4814589 1.1227517 -0.65787023 0.37563816 -0.043302074 -0.9887341 -0.34994859 1.3566133 -0.17601548 1.8918599 0.735525 -1.7347201 -0.66153675 -1.1413927 0.061221574 0.015166421 0.25843248 -0.07183869 -1.2221274 -0.87961715 -0.7202004
lvl 0.043084316 -0.78559715 1.8208067 -0.6720975 1.2624743 -0.4635691 1.3900224 0.20125692 0.43615735 0.78449994 1.0908574 -0.61764973 0.34703776 0.31846684 -0.112580046 -0.99543583 1.5719827 0.1430176 -0.19272652 0.12739417 -0.866782 -1.5011058 -0.39069805 -1.4379966 1.0165914 -0.015681906 0.109414734 0.32079083 -1.1842198 -1.7448915
pan 0.50681335 -1.9323572 0.56096154 -0.6900492 0.5853468 -0.2368394 2.3811722 1.166511 0.76178294 1.042355 0.47589657 -0.10215066 1.378697 -0.32758728 -0.36521167 0.97120106 0.011822438 -0.41831025 -0.7470425 -0.81351 -0.8642719 -0.64447945 0.18472014 -0.49085605 1.3001741 -1.9553713 -0.7951647 0.15102428 -0.63099074 1.0919982
lock 0.7296538 -0.57586354 0.6310427 -1.1378641 -0.18743303 0.7097295 2.0417955 0.56097746 0.5230732 1.2613051 0.99619967 0.3826274 2.599645 -0.037323643 -0.008442305 1.0112345 1.0283456 0.567554 -0.67353594 -0.3343257 -1.0661728 0.5215449 0.4085761 -0.7023419 -0.5393517 -0.6512948 -0.96228915 -2.555116 0.54646397 1.647519
static -0.32229954 0.7983632 0.42688724 -0.26993284 0.85242856 1.5323851 -0.66306347 0.17533755 0.2757869 0.9919159 1.5432409 1.52668 1.3364686 -0.21581383 1.1791658 1.0234044 0.28278768 -1.0398625 0.3523135 0.9661994 -1.1864022 0.84726304 0.98264587 -0.08146322 0.58560693 0.7649471 -0.4186841 0.14874467 -0.06288992 -0.48961776
rm-####e -0.3326567 -0.7883354 -1.4067773 0.08912371 -0.14376171 0.2152251 0.14381456 0.47087204 -0.6877023 0.20046188 0.8344199 -0.38140947 0.8922564 0.020775005 1.8479643 0.0672745 -0.12172783 0.12234161 0.720152 1.1493714 -0.61895955 1.1036427 0.00061746524 -1.0810688 0.100869 1.0288193 0.7084397 0.4254523 -1.4273795 -0.7634557
rm-####rm#### -0.9175533 -0.5046796 -1.2978803 0.6320956 -0.10188268 0.09593217 0.40687624 0.4310584 -0.20205466 -0.43412814 1.3226998 -0.5717979 1.2944016 0.412331 0.4381036 -0.19261676 -0.39037147 -0.4242901 0.3830837 0.112287335 -0.70900834 -0.1243497 0.43925565 -0.03845699 0.526397 -0.3709293 -0.8211936 -0.5148039 -1.6091908 0.11784333
dp -0.95086503 1.2550685 0.7279384 1.2792261 0.59470546 0.70302576 0.9318757 1.2292118 0.31005478 0.43686688 0.6905644 0.16317418 1.1155277 -2.4414465 1.4330804 -0.69127023 -1.3612844 1.1736329 0.9850475 0.37510693 -1.7925743 -0.10786866 -0.096830435 -0.051316958 -0.8114505 -0.47701302 -1.4868166 -0.87544614 0.27671966 -1.3989699
ea##sp -1.0894041 0.3863201 0.4483131 -0.42103964 1.1756915 0.23812698 0.58763397 -0.13752691 0.17185089 0.46682376 0.7219579 -0.17505272 0.7306908 -0.44955957 1.268194 -0.58394736 -0.48479757 -1.1797137 -0.97921526 -0.22935005 -0.15732929 -0.012932508 0.84646475 -1.9377904 0.80930275 -0.2611935 -0.8294383 0.39101148 -0.8221326 0.31382248
last -0.5496622 -0.2892171 0.40010834 -0.9455082 -0.1909471 0.13221096 1.5122714 2.1050565 0.95758224 -0.20011573 0.9522637 0.12665576 0.9795314 -1.7362186 0.1581551 0.17852008 -0.003310561 -0.20340516 -0.03249663 0.21048583 -0.909614 0.68457717 0.5970728 0.12639773 0.2486225 -1.2462425 0.13694671 -0.4357976 0.030802239 2.4009
flt 1.1432047 -1.03268 1.3544083 0.095413834 -1.8600914 0.47467154 1.3150747 1.719933 1.0339849 1.6886871 0.1278526 1.1602981 1.3688654 -0.01921043 0.1476041 0.66272867 0.48119903 -0.6904977 0.45433605 0.9644213 -1.1088918 0.09503858 1.6800609 -0.55125576 0.514787 0.013499489 -1.5122557 0.4791826 0.149729 0.9533036
easf -1.2495428 -0.2765917 1.0164497 -0.57387227 0.18712181 0.36160558 0.82486176 -0.42923966 1.381224 0.24107435 0.23947679 -0.5746062 1.2710146 0.095380135 0.8424073 0.22352952 0.39474562 -0.8285096 -0.20375852 -0.29203826 -0.9355063 -0.2372775 1.0106938 -1.4059154 1.2709682 1.2301769 -0.931459 0.24832325 -1.2756175 -0.32452473
freq 1.6694736 -0.027933687 0.6616803 -0.1823034 -0.3846192 1.7084179 2.278684 1.0787915 0.52023464 0.1237219 0.5156946 1.16949 1.7415844 -0.060084302 -0.3401859 0.5176008 -0.2700729 -0.71908617 0.39237726 0.21572542 -0.057640396 0.5348693 0.7931543 -0.05511183 0.06708293 -0.71859545 -0.98309 0.5447535 -1.1796225 1.5342622
bb### -0.6501972 -0.5105034 0.11985565 -0.4272799 0.03321573 -0.26671594 0.25650045 0.36272356 0.35709038 -0.13864377 1.024629 -0.52137834 1.3137296 -1.0689827 0.96101743 0.10213594 0.0023998602 -1.4072146 0.035706956 0.057234794 -0.57506585 0.29368657 1.2658081 -0.55590457 -1.1141398 -0.22676452 0.8834672 -0.087202035 -0.14402749 -0.7420855
rm-####j -0.28384215 -0.33718193 -0.920487 0.2523841 1.0937696 0.96921617 0.35931143 -0.047639214 0.9833572 1.1179701 1.6868604 0.3350625 0.68615097 -0.64540136 -0.014272583 0.029632786 0.07422991 -0.025176793 1.0519632 0.16762717 -0.01082596 1.5561808 -0.16875145 -0.6974217 0.6303249 0.27831116 1.5501223 0.8685487 0.29795465 0.6306749
fwdrev 0.88742983 -1.3530161 0.34862208 -0.046708312 -0.2356128 1.0836459 1.7920012 1.8093977 0.52510065 1.1481324 0.23517187 0.69429237 0.8213223 -1.1174508 0.098416045 0.094702676 -1.2572775 -0.4406088 1.6542549 0.5300109 -0.88798606 -0.5157901 -0.21843383 0.52664334 0.6098671 -0.23239769 -0.49135476 -0.6532004 0.50811654 0.9257613
rm-b###c 0.38924685 -0.06296259 -0.28281608 0.64655983 -0.23430762 1.4224253 0.6493992 -0.44634005 0.74462605 0.70993996 1.1086081 -1.0305022 0.50625455 -0.76989865 0.9981372 1.2507243 0.79834795 -0.56961566 0.2725283 0.420011 -0.033610698 1.1015263 -1.4413542 -1.3447703 -0.59805584 0.7739877 -0.55957395 -0.13515133 -0.6328221 -0.85275435
#### -0.7154001 -0.4543605 0.113900416 -0.42009625 0.10272021 -0.27304268 0.29869294 0.3883652 0.28794324 -0.12831286 1.0111469 -0.5596088 1.3944627 -1.1439002 0.9698066 0.06754136 0.05803955 -1.4201572 0.034428097 0.033743758 -0.5809511 0.34432763 1.3036371 -0.55665797 -1.1567494 -0.22577932 0.8894506 -0.09364579 -0.15054415 -0.78779
sa# -0.6386722 0.23999532 0.9835337 0.7700595 0.7333132 0.3808338 1.5513766 -0.22133008 1.2603835 -0.31802726 1.519357 -0.4642797 0.9443001 -0.20851217 0.87478846 -0.72729725 -2.3141243 -0.1587695 0.6310044 -0.08566477 -1.4998448 -0.19829431 -0.0008709022 0.32347566 -0.04666353 -0.5125038 -0.8451808 -0.058284484 0.23364803 -0.8765061
s-# -1.0672666 -0.5902067 -0.883943 1.386898 1.0550158 1.1260101 -0.28110117 -0.22997218 1.1555253 -1.3595417 1.7152362 0.33739385 1.8000698 -0.06371744 1.9306228 -0.5336972 -0.9698199 -0.6388782 -0.21262991 -1.011403 -0.445478 -0.68798834 -0.91894805 -0.6522537 0.49403447 0.051432714 -1.1770973 -0.64225715 0.09316312 -0.8658765
rst -1.2983428 -0.58456665 0.20759533 0.18190238 -0.08456785 0.0935884 0.867415 1.8079885 0.5281416 0.0596629 0.96485883 1.1688172 1.1988332 -0.60283184 -0.14356926 -0.13319892 -0.37347272 -0.82388604 1.1732544 -0.13001499 -2.7842114 0.5695118 1.5406462 0.4051522 0.49516913 -1.7775652 -0.22174172 -0.14961252 0.4057056 3.1850433
#fl -1.1082559 -0.6811506 0.6840484 0.5409659 -0.28960133 0.007657942 2.0317318 -0.87170565 1.0579089 0.62778306 1.6009701 -0.07785818 0.8924554 -0.18057734 1.5690179 0.2627444 -0.062527426 -1.634938 2.0861435 0.7006524 -0.9118314 -0.52633214 0.017903203 0.29201764 -0.24171332 0.95298404 -0.30527306 0.55641586 -0.20819493 0.14165834
ah# -0.6499273 1.0306671 0.48507687 0.98079705 0.51144564 0.11134653 2.1839705 -1.4910524 1.6358225 0.58410716 2.1329262 -1.0483323 1.3208908 0.82101035 1.4400043 1.4304582 0.06271325 -1.8198845 2.5509384 0.44809908 -0.7748478 0.30603182 0.13986343 -1.3563373 1.0128851 0.061666507 0.05556602 -0.32142907 1.1711233 -0.4828565
dmd -0.68090147 0.026724942 0.21785182 0.26160407 0.6143514 -0.30946574 1.7419875 -1.711362 1.4625595 0.9203986 1.9304581 -0.45574883 1.0761935 0.9567705 2.177864 1.212516 0.3674889 -2.48342 2.9191551 0.45972008 -1.5488907 0.30030462 0.13650247 -0.83286697 0.42481813 0.736413 -0.63568306 0.48978084 1.2570688 -0.24837014
ea -1.6263995 0.34951392 1.3779353 -1.530251 0.9041198 0.017758967 1.6690001 -0.18189248 1.7445222 0.21663918 0.5711839 -0.47780913 0.81232375 0.32260445 0.8050863 0.13853303 1.2857472 -0.5353809 -0.44305363 -0.5825409 -1.4897718 -0.49271372 1.0399337 -1.6203731 1.9602946 1.6369627 -0.7453201 0.5564719 -1.2503982 0.15132841
f -0.8276539 0.45420465 0.114593655 -1.2726789 -0.047713958 -0.06626628 1.9338576 0.43107238 2.5980272 0.81150097 0.16119903 -0.35918236 1.3575108 -1.1553327 1.0161215 1.6137499 0.104836546 -1.5880069 0.87178093 0.33948982 -0.37275013 0.17369944 0.66072893 -2.119065 1.3649448 1.3114777 -2.3104525 0.806978 -1.4790043 -1.2867343
oa -0.28922108 -0.84394073 -1.0472986 -0.66898215 0.98468834 -0.5699043 0.38555253 1.457248 0.1400207 -0.40551013 1.0552883 -2.014932 1.8089702 0.7179627 0.81987476 -0.95767057 0.74489266 0.57903045 1.8601533 -0.6912927 -1.1089716 -1.1936373 0.12591986 -0.7983564 1.197506 -0.93271196 -0.64821917 0.23387858 -2.554249 -1.6062979
enbl -0.66089255 0.25962374 -1.3568449 -0.16746223 -0.7441744 -0.14096439 -0.5354747 0.37202343 0.08823126 -0.106550835 2.5851843 0.26811758 1.9295707 -0.13191561 0.1714031 1.061819 -0.15524022 -0.5192008 1.4947829 -0.20219198 -1.5004104 -0.61681277 -0.48122263 0.35489497 0.8648225 0.6670455 -0.6009347 -0.94349736 -1.5916824 -1.256843
speed 0.14691465 -1.2166958 0.95757025 -0.37377152 -0.21155405 0.17922416 1.3405287 1.3444791 -0.12609226 0.1359426 0.66618335 0.13563393 0.64089245 -1.3759269 0.2213851 0.3539884 -0.22307678 -0.274136 -0.15497133 0.45756954 -0.12177486 -0.19478294 0.53383183 -0.3774576 0.41470528 -0.5986282 -0.88576084 -0.990066 -0.31169924 0.7209887
rm-####d 0.058554303 0.35885218 -0.15706277 0.85103333 0.64481676 0.23804843 0.8170023 0.288188 0.8643023 1.2280169 1.082135 0.5022412 0.93180317 -0.5475904 0.91917276 -1.0224744 0.7970963 -0.24800046 1.2920307 0.24854709 -0.37113672 1.4551864 -0.14680748 -0.86873686 -0.38903385 1.2154515 1.0748117 1.0092907 -0.06477957 0.91878074
alm -0.340735 -0.733372 0.18850264 -2.1081824 -0.31076244 0.12618288 1.5432876 -0.14098728 0.20090443 0.6294178 0.0011859317 0.072201185 1.3100555 0.3481395 0.16935451 -1.6666491 -0.42854625 -1.7339792 0.5061177 0.069598585 -0.5386384 -1.6605178 1.4559443 -1.4940073 0.2639826 -0.5194768 -0.74106044 -0.99689835 0.38625786 1.0083579
espit -1.7150079 0.92272514 0.43606558 -0.2939977 0.97093314 0.42757592 0.6715551 1.150168 -0.18919116 0.25430846 0.539868 -0.31860608 0.78774726 -0.7903061 0.6857476 -0.49250492 -0.1388026 -0.867309 0.049299195 0.11392774 0.30497593 0.41790193 0.6999638 -2.0232599 0.79756075 -0.21299139 -0.87518096 0.49997887 -0.5703597 0.23005441
diff -0.628098 0.35628718 -0.3169814 -0.011398095 0.46355018 1.3775558 1.2432334 -0.86295855 -0.69649386 0.970102 0.2607642 0.17858072 1.0813249 -1.2350692 1.3404818 -1.0433214 0.5899262 -0.8679571 0.6804354 -1.3803521 -2.371555 -0.43941703 -0.6666172 -0.8942131 -0.5866774 0.117424555 -1.8537903 -0.2516465 -0.6006161 -1.2145236
fault -0.3321592 -1.2680367 0.032809183 -0.39823246 0.67521155 0.34463263 1.8425643 1.4814969 0.44056314 0.47257218 0.23254913 0.739791 1.1914732 -0.6346803 -0.5678294 0.49680895 1.4088802 -0.31840003 0.5781779 0.8491288 -0.8601255 0.21294038 0.49241632 0.11823271 0.47056612 -0.3394473 -0.60602206 -0.2236001 -0.19463398 0.9971699
loss -1.287568 -0.24612267 0.4655161 -1.1118622 -0.07299675 -0.6957194 1.0432618 0.98312515 1.4852023 1.0796047 1.5309174 0.5053757 -0.29362437 0.04760648 0.5741829 0.522591 -0.477421 -1.738944 0.052615665 1.3348876 -0.8005186 -1.3155591 1.1344663 -1.3670298 0.15814549 0.1234684 0.7672385 -1.0796853 -0.1330239 -0.7071727
it -1.2360369 -1.1263067 -0.3727474 0.8569359 -0.8204247 0.71612567 -0.4767343 0.06089327 0.4669257 0.22372217 1.8294184 -0.6012898 1.1656587 1.2068374 2.2892573 -0.7843361 -0.7514005 -0.422218 0.72453773 -1.7408011 -0.3901717 0.0666918 0.4131839 0.85988104 0.2996828 -0.25269863 -0.85296565 0.5089373 -1.0960279 -1.7124455
ef-#e -0.0787531 -1.6389226 0.3238552 -0.19925088 0.68343467 0.69774705 0.90571904 1.0628883 0.8118401 0.7513186 0.78925395 0.44289926 -0.3646322 -0.94172126 0.15036242 0.67954254 0.19950981 0.10235614 0.7752817 0.63717854 -0.37066543 0.22418416 0.5367734 0.10305225 0.013322149 -1.1553982 -0.8115189 -0.41518345 -0.50607973 0.5709386
rm-####i 0.60733354 -0.24948685 -0.53538114 -0.65498745 0.07775718 1.2743132 1.5047989 0.86655116 1.0417758 0.73149914 1.6182674 -0.17933516 0.77192783 -1.5330616 -0.14336038 -0.42565155 0.18704554 -0.7333629 -0.13056058 -0.005958061 0.71808547 0.6780392 0.039129894 0.06423583 -0.32545766 2.1259007 0.5299183 0.7587631 -0.031619944 -0.3287152
unoccupied -1.276407 -0.2890189 0.70006406 -0.43656296 0.8021154 -0.063199855 0.5763385 -0.9270625 0.35175687 -0.15424845 1.9114763 -0.3514326 1.21168 -1.0692058 0.49017256 0.23582996 0.47946376 -1.0110013 0.10528582 0.7655013 0.42931423 0.56157553 1.3673496 -0.07131305 -1.1621727 0.020282663 0.5641607 -1.2998973 0.011274523 -1.3348123
spd 0.035510845 -1.4392922 0.54158217 -0.67160946 0.28639343 0.73721147 1.508343 1.3630216 1.1577027 0.8326247 0.3663452 1.1605008 0.58444065 -1.2800901 -0.086509086 -0.28854555 0.18987747 -0.27208543 0.8898397 -0.3260738 0.23540379 -0.15516855 0.07603645 -0.1808297 0.74002635 -1.1490421 -0.7499448 -0.5780061 -0.035607602 1.0411152
zone -1.3610506 0.46919575 1.8316122 -1.2403477 0.5333308 0.8572917 1.5235715 0.2852944 0.9699191 1.4657757 -0.272992 0.0069989054 -0.46737066 -0.59530425 2.2072527 -0.12312077 -1.0861158 -1.0347359 0.1649615 1.3222308 -1.2580546 0.2857336 -0.40545413 -2.8176565 -0.44735038 0.16665897 -0.91283137 -1.2279745 -0.2373254 -0.2668116
unocc -0.9297926 0.91098595 0.7665013 -1.2561882 0.27482784 1.2866994 2.2604322 -0.6346808 0.26924917 1.5874194 0.95501447 -0.84185207 0.65879923 -2.464371 3.4807115 0.34967473 -1.0232018 0.011782171 0.56698745 0.3644389 -0.5735798 -0.9305614 -0.2688581 -1.4100562 -0.366238 -0.20555606 -0.7808117 -0.9304264 0.06764049 0.042164475
load -0.5890633 1.1164247 0.82627213 -0.7090757 1.3286308 1.0989646 1.3272868 -0.4817813 -0.08530323 0.2750165 0.31419468 -0.28695711 0.7814476 -0.68838906 2.4103773 -0.96146685 -2.31709 -0.8457534 -0.19434676 -0.33831942 -2.2770798 0.3445372 -0.89051 -0.632718 -0.4531803 -0.26491097 -2.3801224 -0.74518335 0.09426712 -1.3820965
shed -0.8798474 -0.13390557 0.6350023 0.61595464 1.1082914 1.1053491 1.5478559 -0.7928667 0.3833346 0.6909636 0.05713258 -0.18404084 0.80752915 -1.445937 2.3056853 -0.647515 -2.1994355 -0.3194671 1.3144573 -0.5706027 -2.1930366 -0.90499043 -1.8308729 -1.7096874 -0.97149205 -0.10262652 -1.109727 -1.1654817 0.08337317 -0.8119992
command -1.3545791 1.0694454 1.2378477 -1.2416614 0.40398306 1.2444472 1.7219553 0.12347492 0.21575454 1.2749261 0.06344923 -0.21488471 0.48829272 -1.5281252 3.0495641 -0.16653262 -0.47578382 0.15642944 0.048054915 1.0011332 -1.2761782 -0.55183035 0.98463184 -2.0282617 -1.2620597 -0.06783435 -1.4554684 -0.93259245 -0.053272203 -0.7245804
p## -2.034913 0.24374256 -0.13482904 0.79104763 0.36298713 0.28780225 1.7437935 1.3654634 0.35281995 0.80286 0.591788 -0.9620398 0.9684268 -0.80302024 0.30926362 0.2804662 0.08490224 -0.99520206 -0.50430685 -0.3994572 -1.4133339 -0.5467359 1.366433 -1.1885293 -0.44970486 1.248252 0.109604955 0.7985213 -0.21446662 0.27538028
ss -1.3282193 -0.9814182 0.07728402 -2.2602599 1.1551069 -0.19076864 2.271192 0.8296181 0.5679405 0.34025833 -0.615349 0.8305757 0.46197355 0.26269892 0.16179201 -1.5324657 1.248922 -1.9658815 0.5978682 -0.3584692 -0.91444707 -0.5067318 1.6566374 -1.0521927 -0.38280073 0.5282726 -1.0470028 0.6699646 0.013731819 -0.08861592
#flw 1.9824996 -0.37053025 -0.27668083 0.67550766 -0.47694764 -0.24038641 0.8088682 0.010201132 0.5522484 0.3393906 1.2330474 0.41183794 0.025461705 -1.3767328 2.202496 -0.7531484 0.6694581 -2.189268 -0.8855741 0.3955507 -1.2577782 0.65647197 -0.122981064 -0.94740516 1.5286632 1.18465 -0.109416306 -0.40551597 0.3723008 -0.8726364
halla -1.0108875 0.131263 0.5673307 0.3115521 -0.16570143 1.1285801 0.7670726 -0.13556719 -0.39487427 1.551595 1.5290765 0.5410091 0.06988306 -1.358193 0.36716262 -0.8382425 -1.508393 -0.66141 -0.4107523 -1.2947161 0.14826551 -0.059644 -0.6005075 -1.5909832 1.8535677 1.0716342 -0.0051449374 -0.26996347 0.07215951 -1.7612146
torque -0.3813742 -1.0603204 0.62183 -0.37242407 0.45486787 0.63458836 1.5263293 1.2406278 0.66475785 0.6401924 0.4692286 0.66137296 1.4045198 0.078119874 -0.15845081 0.34616488 0.75282174 -0.354902 1.033893 -0.15417914 -0.48774377 0.11264096 -0.14037493 -0.57982635 0.289393 -0.88867134 -1.0058911 0.039744735 0.051551078 1.8536755
bsmtw 1.5810229 -1.4945967 0.7193655 0.675884 0.13092247 -0.17466888 0.60078883 0.9976136 1.2448189 0.7215441 2.0160894 0.59579927 -0.66062194 -0.39975074 1.8939327 0.010835117 0.21433868 -0.46206272 -0.13379958 0.04545766 -1.1294199 0.7344012 -0.38198587 -0.98978096 2.0137875 0.9280449 0.5033983 0.0502285 1.3387905 0.03486351
hw 0.61716664 -0.5839867 -1.3025974 0.21679395 -0.91345423 0.7513741 0.123488165 0.8842865 -0.96017706 -0.34812114 1.135802 -0.71049386 1.5638348 0.57187855 0.6627312 -0.99394506 -0.5451364 -1.7450079 1.2511401 -0.060705848 -1.495506 0.2187071 0.6117293 -0.5155423 0.81645256 0.18156394 -0.7523143 -0.39005497 -0.9215376 -0.009816945
ooclg -1.1976961 0.6165824 0.5991275 -0.018056255 0.48990774 0.3387379 0.39592004 -0.48678496 0.1447445 0.175135 1.468325 0.32265878 0.13746616 -0.51101726 -0.16060027 -0.13753107 0.36910543 -0.18682767 -0.0015476791 0.6075027 -0.12899123 0.16307399 0.05438792 -0.14624208 0.1050107 0.4767196 -0.49326658 -1.1120774 0.3085333 -0.16790882
level 0.024838228 -1.2325785 0.7947974 -0.47712952 0.18795672 -0.29570398 0.72745043 0.48681247 1.5456339 1.1603425 1.6217949 -0.19818921 0.9017023 -0.1245492 0.15432014 0.17405477 1.3678166 -0.3392677 0.39557862 0.47952163 -1.129467 -1.9812293 -0.81196856 -0.7289026 1.6207983 0.7888175 0.05142465 0.2947448 -1.649766 -2.2512033
cm -0.77665174 0.4741909 0.18782854 -0.9550252 -0.06193288 0.82504386 1.3238673 0.40396592 1.3404589 -0.15340342 0.89954066 -0.3664647 0.09578767 -0.5059771 0.20206782 0.4167203 1.0635334 0.15092598 -0.26299468 -0.17662056 -1.1400065 -0.7647304 1.2335613 -2.177709 -0.44022605 -1.0429577 0.33963367 0.5852692 0.5540505 -0.7536645
ef##-##ef## -1.0810664 -0.75819576 0.024896009 0.09016697 0.110787734 -0.11528888 0.5478485 0.14458281 0.4087378 -0.11786757 0.87441534 -0.8590935 0.99281985 -0.8964235 0.5438523 -0.4536828 0.026968196 -1.268415 -0.23817621 0.56770414 -0.2096286 0.48357663 0.9782667 -0.3752319 -0.7900963 -0.2279606 0.6038812 -0.22396667 -0.37404132 -0.38753
hall 0.83957446 -0.75325406 -0.3795044 0.39729017 0.7690652 0.87170506 0.5798311 0.51739675 -0.5081782 1.4796215 1.3968028 0.75048286 -0.38360727 -1.0639241 0.20977366 -0.16008493 -0.89343435 -1.3671827 0.4710397 -0.9629482 -0.32506064 -0.116892345 -0.51324767 -1.498561 1.8115556 1.4160314 0.57060105 0.5195516 -0.51427317 -0.14652434
lo -1.2718384 0.29659766 -0.6664339 0.6743598 0.19364324 0.13488032 0.48544145 0.59974563 1.501502 2.5184915 1.2165855 2.2600393 0.12510283 0.2239777 -0.061686955 0.5888364 0.31921625 -0.47326568 0.25586534 0.0024671324 -3.1392248 0.93478847 1.8461173 -1.0292727 0.09274208 -0.28930065 -1.3663849 1.0470005 0.0022273317 0.061275564
ah-#l 0.079545066 0.14405327 -1.4997383 0.84589815 -0.59939444 0.797366 0.8351159 0.7254108 -0.18850127 -0.3252413 -0.021795843 -0.37566197 1.1284924 -1.075316 1.0266428 -1.4658117 -0.14174499 -0.39017442 1.3460649 -0.38830423 -2.3664043 -0.24682756 0.32601553 0.03490381 0.903051 -0.4776238 -1.8015081 -0.34702036 -1.1602622 0.026308537
elect -2.2086718 -0.038755175 0.31346732 0.19460998 0.92582774 1.1697093 1.3150994 0.6380241 0.83384156 0.72097623 0.8202609 -0.16239959 -0.09920182 -1.6246257 0.18423402 1.0306977 -0.45254847 0.6903055 1.756803 -0.108256646 0.15605104 0.39666763 1.5147605 -2.1134157 1.7159016 -0.6718602 0.50430393 -1.1118366 0.45243225 -0.23234384
rm -1.1026818 -0.5255967 -0.77529675 0.20822772 1.5202446 0.90467393 0.38250387 1.5080234 1.2450199 1.3840798 2.0626235 -0.036365695 0.49704418 -0.63258505 -0.70527834 1.2253236 0.2416442 -0.19912843 0.8406293 -1.7942631 0.12656134 0.7253355 1.1088818 -1.4100603 0.15030235 -1.0570564 0.48835358 0.03570141 -0.4923892 -1.1074034
avg -1.512359 1.1609824 -0.5307453 -0.6808935 1.0067362 0.42568353 0.7573348 1.2186425 -0.76653796 -0.16120932 1.1933007 -1.2743684 0.8113629 0.089830644 1.3043249 0.21233076 0.5141062 -0.8327895 -0.090988934 -0.09770996 0.3269747 -0.16395782 0.19822437 -0.174448 0.3498144 -0.78821915 -0.4145901 0.43353143 -1.4337176 -0.10724536
bsmt -1.2005225 0.041910328 0.7884992 1.1565644 -0.922352 0.07929902 1.0505759 -1.3257647 0.78175145 1.50917 1.9134555 0.16517034 0.086930975 -0.68376446 1.86359 -0.105722636 -0.054824725 -2.1404681 0.81276035 -0.30442616 -1.1950233 0.25332597 -0.9799868 0.038050704 0.08168917 1.3701305 0.33603334 1.437579 -0.27325487 -0.08807574
ef-##e -0.010420848 -1.7244025 0.3157494 -0.191475 0.7071684 0.77690953 0.89957756 1.0207068 0.78519505 0.68976426 0.8314607 0.46661863 -0.2498391 -0.9048834 0.14996214 0.64198893 0.2567935 0.14901164 0.72755885 0.5976334 -0.32043675 0.19820671 0.52802736 0.085342176 -0.025168538 -1.1952838 -0.8371566 -0.4258602 -0.61461973 0.5642331
alarm -1.5592579 -0.34205765 0.6114323 -0.21586303 0.20700575 -0.8920441 1.4727528 1.3829236 0.9769062 0.45446858 1.5275953 0.8012914 0.009104448 -0.32506377 0.5335977 0.47682342 -0.36557403 -1.1662897 0.3914591 1.076809 -0.7255451 -0.8606795 0.38124833 -0.9286779 0.0309735 0.13025527 0.37191302 -0.82477516 -0.62316304 -0.45391464
ra -0.8201798 -0.13804784 -0.8898402 0.5121199 -0.36277246 -0.05524522 0.77968484 -0.24579947 0.473258 -0.31186983 1.8928785 -1.0889121 1.1433682 0.36574784 0.4638089 0.015629098 -0.9428362 -0.37620384 1.0412897 -0.30724183 -1.0190717 -0.669615 0.58768094 0.6395055 0.3798132 -0.5976125 -0.58701634 -0.001966947 -1.4247876 -0.022084504
stsp -0.74921876 -0.46250018 1.1092266 -0.37463957 1.2957076 -0.5511281 1.2985138 0.006659604 -0.5657826 -0.6476356 1.4938829 -1.1983598 2.416525 -0.7162949 0.30653036 -0.21768673 0.24823418 -1.1490226 -0.3600944 -0.1499246 -0.2553203 0.69310194 0.40390432 -0.8345423 -1.1133319 -0.3980638 0.90434045 -0.33926538 -0.3638075 -0.38277748
s# -0.7495069 -0.9654398 0.32963157 -0.5938738 0.051172122 1.5146314 0.81992304 1.5490186 0.6487773 -0.12183381 1.5384513 -0.40099123 -0.44667846 -0.68673944 0.06853838 1.5444859 -0.08578044 -0.6492008 1.055202 1.5060443 -2.1977603 0.8536861 0.44870812 0.48150337 -0.8304231 -0.74640757 -0.56036663 -0.18029283 0.87604237 1.5629427
sdwn -0.48445728 -0.57884175 0.1426577 -0.044224955 0.17731826 0.43820754 1.3232076 -0.33286795 1.9298177 0.82916886 1.2385089 -0.19073744 -0.4951966 -0.7903759 0.32539254 -0.38897085 -0.612456 -0.2997834 1.1650927 -0.26884773 -0.5422059 -0.59764546 0.5501917 0.5676073 0.47666907 -0.8077015 -0.067316525 -0.01740398 -0.26344863 -0.5159931
dx###b -0.8471146 -0.7087491 0.38205343 1.0363551 0.18962705 0.6234095 1.2908281 0.86641794 0.03272487 -0.27437398 0.031477842 0.2860652 -0.04315626 -2.901178 0.95141494 -1.3685791 0.4869655 -0.43528137 1.5446254 -0.75437284 -2.2615201 -0.62753665 -1.0319226 0.05087139 1.2110697 -0.87397933 -1.4831308 -0.25701544 -1.3864821 -1.1107965
byp -0.47752786 0.9050343 0.21475255 0.25742832 -0.20241174 -0.5694999 1.7585236 0.25418615 -0.30908296 -0.16541775 0.5157873 0.8520102 0.8562732 -2.6279755 -0.44540232 -0.76529795 -0.018738026 0.107326835 1.6784043 -0.87870055 -2.6970773 -0.43892428 0.017495347 -1.1665423 0.100061424 0.57027346 -2.7579753 0.14744624 -1.2070832 -1.1729584
b-### -0.64719015 -0.5027274 0.09762458 -0.39635068 0.11140177 -0.24966046 0.2323131 0.37964076 0.29977763 -0.14170542 0.93823516 -0.5078457 1.3273816 -1.0345687 0.90482366 0.102214165 0.03914568 -1.2923197 0.03792165 0.022569079 -0.48521787 0.28469133 1.1934735 -0.46865427 -1.0407215 -0.21000148 0.83104175 -0.093195006 -0.14175734 -0.7201219
st -0.721696 0.42662224 0.11476761 -0.8336141 -0.0750626 0.9084778 1.3750389 0.42250818 1.2935841 -0.16846183 0.8958428 -0.35999113 0.1425286 -0.56307876 0.14514573 0.41889927 1.0839928 0.20369278 -0.21022883 -0.18232991 -1.1869607 -0.81092787 1.2672198 -2.1326778 -0.4115953 -1.0738357 0.36863872 0.5936582 0.574195 -0.8492709
osarst -2.663249 -0.4426958 1.230017 0.07024829 1.1654036 -0.15204531 1.4222167 0.6369308 0.18600383 0.60213965 1.2473533 -0.026920818 1.1003383 -0.40443638 -0.060847305 0.57557905 -0.89026237 -1.7069534 -1.4986242 -0.7873158 -2.4005892 0.70490324 1.2821866 -0.7770644 -0.33212745 0.012566582 0.23766963 -0.25864285 -0.2032186 0.84059787
ef -2.0429788 -1.004009 -1.0112141 0.1355247 0.6800384 1.0006083 2.226297 -0.030591667 1.0253736 0.7704906 -0.064358614 0.47429696 2.0083516 -1.2326025 0.7258862 0.8408836 1.1156105 -1.5061166 0.19687764 -0.8373956 -0.905797 -0.12917283 -0.07239382 0.2039374 0.65854067 0.30144185 0.5232588 -1.4168159 -0.7310958 0.8989394
stgdis -0.34362862 -0.9899445 -0.41100138 -0.538366 0.7263039 0.99372655 2.7072444 0.7055555 0.86387444 0.5019185 -0.2941354 1.359982 1.4059108 -2.195876 0.03457285 0.004823804 2.141369 -0.50743127 0.71805704 0.9142498 -1.6493446 -0.5431453 1.289619 -0.99032557 0.43303943 0.2934717 0.44784787 0.25442493 0.72415835 -0.37417796
lobby 0.034361307 0.782088 -0.5220773 0.55277777 0.8550667 0.80262256 0.08281522 -1.0232872 0.92070544 0.93061817 1.4369779 -0.0775773 0.41243026 0.17426467 1.3166863 0.402385 0.4566208 -1.3796566 1.023194 -0.45114696 -0.89350694 1.2713395 -1.1345414 -1.9809647 1.0768616 0.28407046 -0.109321974 0.5814656 1.0400577 -0.37432483
e#### -1.314405 -0.08952696 0.41400248 -1.474585 0.9666899 -0.55398935 0.67285895 0.19641611 1.3692601 1.9506706 0.87319773 -1.1076846 0.80529416 -0.5411658 0.7286932 -0.54317236 -0.6443998 -2.2595477 -0.15659904 0.12814635 -0.44779623 -0.6870912 1.7407018 -1.0980493 1.3722891 -0.28078845 0.6546762 -0.679768 0.6539585 -0.24432138
pwr -0.5616455 -0.79053694 0.016846057 -1.7617694 1.2556728 -0.15026905 -0.032930735 1.4697957 1.1338819 2.067669 1.6115042 -0.34947765 1.2610428 -0.4534461 -0.15375943 -0.396737 -1.3751315 -2.1798239 1.632692 0.79557467 -1.288023 -0.62586594 2.0059307 -2.1236403 -0.06776173 0.28288546 -1.6068437 -1.6988107 -0.925213 -1.0175302
differential -0.7539445 -0.39643198 -0.6293515 -0.76181334 1.0605538 1.3871391 -0.89210564 0.6813008 -0.29595432 0.1943483 1.7497512 0.84720415 2.5748534 0.7818706 1.7343674 1.0270824 0.5846361 -0.96053857 0.8140965 0.020687936 -1.4747219 0.40023288 0.9043789 0.29797262 -0.06385144 0.04757401 -1.3488029 0.027895126 -1.1228021 0.015311935
temperature -1.5569208 -0.38075384 0.6868034 -0.07261618 0.15609454 -0.86342984 1.538219 1.4305949 0.9802813 0.44168916 1.5031824 0.88353264 -0.06498185 -0.35640815 0.7407727 0.48467487 -0.28149858 -1.1660362 0.5112145 1.0857027 -0.712067 -0.91997963 0.31086567 -0.9862305 -0.06500726 0.10555513 0.3767395 -0.76450604 -0.66642374 -0.46965116
hi -1.6939329 0.79908735 0.3555983 0.39886147 1.4072982 -0.42221266 2.0855136 1.2523019 1.1945579 1.3918935 0.8901752 0.91457045 0.45890504 -0.3305152 0.298845 0.39445198 0.0035657065 -0.7771304 -0.47457308 0.547975 -2.331632 0.9980686 0.98846436 -0.61099726 -0.6114338 0.13771075 -0.67996144 1.3668767 -0.4625515 -0.88566697
bldg -1.1666889 0.1933118 -1.3841211 0.49295413 0.1168699 0.06443032 1.3518432 1.5369194 0.22330932 0.44129932 -0.07961699 0.56430584 0.3348369 -1.9952178 0.93646556 -1.3945737 -0.0028729166 -0.8156924 0.3057044 -1.806026 -3.0386808 -1.5044296 -0.6683974 0.10612312 0.702094 0.01562376 -1.4416548 0.29749796 -0.57213235 -1.7284417
dt -0.3518953 0.77407 -0.26945597 0.92451465 1.0476427 0.8420881 0.6745349 0.7151867 -0.907164 -0.12037914 0.5005478 -0.21239941 -0.3680261 -2.3320134 1.08073 -0.38940015 0.9836385 -1.1516488 2.0900307 -0.89426506 -2.977748 -1.2911094 0.32466954 -0.47748604 0.6601786 -0.6498888 -1.8628576 -1.2195694 -0.7091303 0.08938766
spdiff -0.81920326 -0.57268846 0.11990577 -0.7011623 0.7886153 0.71717006 0.43852082 0.24035572 0.91953695 -0.31239367 1.1656841 0.5356001 1.1444745 0.284607 1.9320397 -0.33943027 0.78571963 -0.6453845 0.34799054 -0.84566915 -1.0895365 -0.4760554 -0.019949984 0.32267898 -0.78782386 0.21345885 -0.92450464 -0.1861471 0.08394386 -0.2632631
humidity -1.5379552 -0.30637658 0.69045115 -0.0962888 0.07384664 -0.9235747 1.5839772 1.3725373 1.0167392 0.46047264 1.4932367 0.8853338 -0.11827808 -0.38281262 0.73492724 0.50300735 -0.16243577 -1.1443751 0.5416597 1.1295462 -0.77961147 -1.0635769 0.39690372 -0.9662161 -0.058220576 0.101902515 0.28669465 -0.75777465 -0.5739856 -0.5048034
cooling -1.1663791 -0.45969272 1.3103926 0.13162479 0.84288895 -0.34483188 1.4509155 0.9538405 1.4896702 -0.06774903 2.5480258 2.0295303 -0.39672515 -0.5892576 0.94233084 -0.025262494 -0.2950336 -0.83125293 0.26087043 0.20060977 -0.55971265 -0.19345582 0.38305482 -1.8979186 -0.5524259 -0.22246486 -0.41299498 -1.0518945 -1.6303787 -0.77866066
on -0.18693729 -1.4635545 -0.11350649 -1.2824296 1.7335331 0.72448635 1.9068693 2.5904279 1.4984355 -1.3196201 3.2294643 2.0699704 -0.5934559 0.31777048 1.4744884 0.28699696 -1.1307503 -1.5282768 0.6149201 -0.5200176 -1.1198592 0.45347208 0.94683003 -1.8037984 -0.06352528 0.5435256 0.65725595 -0.8737614 -1.2332423 0.26529244
off -0.40934646 -0.6731317 1.6596773 -0.22395183 1.329851 0.27133897 0.7548209 0.8909256 1.3564523 -0.7171396 2.6590312 3.047229 0.5258395 -0.937138 0.95242965 -0.2168573 -0.51004523 -0.6497715 0.27245206 -1.2696849 -0.5147579 0.66484743 0.8776547 -2.711291 -0.7405355 -0.21182361 -1.2435869 -1.0694144 -1.817131 -0.7783031
